2705 20
164 0.47022936 0.1952346 0.040585052 0.39781642 -0.8725767 -0.31828 -0.012347345 1.328128 -0.63402426 0.27359518 0.3591206 -0.15210076 -0.09427285 -0.09197122 0.4260379 0.24610047 0.92664415 -0.28231856 -0.11951188 0.017129438
428 -0.056773204 -0.24398828 0.14221987 -0.18485956 0.1925147 -0.04625418 -0.7418837 1.1591623 -0.4052051 0.43314472 -1.3150418 0.19278106 0.40418246 -0.16128066 0.4579476 0.30205485 0.99554384 0.1508925 0.5138662 -0.7312572
748 -0.55308735 -0.84967434 -0.2990822 0.039179564 0.34828317 0.11533335 -1.5991646 0.7180755 -0.91753596 0.68117344 0.06900111 -0.25884104 0.60614944 0.20179953 0.12777188 0.23579592 0.57261837 0.1724053 -0.12640247 -0.74603844
566 0.23834506 0.04771394 -0.5142837 -0.62025803 0.4753586 0.4196061 0.12950876 0.7505311 -0.6655538 1.4767535 0.5283936 -0.5018623 0.31674212 -0.39193666 0.023629483 0.24137096 0.4955142 -0.0054004737 -0.5577012 -0.88461834
612 -0.1425446 -0.9006573 0.20005687 0.0022168397 0.061150365 -0.1547922 -0.57866263 0.29985955 -0.8818297 1.7016531 -0.4147443 -0.36690024 0.47219804 -0.38051575 0.34656033 0.21955615 -0.3774891 -0.82158923 0.95531124 -0.5241577
75 0.5017917 -0.5109012 -0.065612525 0.5867795 0.6673856 0.38077998 -0.22604796 0.3886223 -1.4093982 0.52233833 -0.49907398 -1.0484965 -0.08867446 0.41688478 0.12372205 -0.36469272 0.080912344 0.02888425 0.7635993 -1.1838713
746 -0.5866281 -0.5938202 0.28109786 -0.0907676 -0.69081575 -0.5586318 -1.1554207 0.50003934 -1.0320761 1.4849185 -0.30698848 0.08720576 0.61028486 0.58072984 -0.3686882 -0.05564137 0.6611677 0.48536217 0.84600544 -0.31928915
431 1.3806857 -1.1730946 -0.4528672 0.28966513 0.36916578 -0.16333675 0.43809548 0.5005195 -0.86910105 0.14212209 -0.34513432 0.37338996 0.05229679 -0.036856685 0.80714834 -0.9221835 0.843333 -0.10260804 -0.14533018 -0.31406093
553 -0.68810076 0.50857866 -0.9720808 -0.25942588 0.4193091 0.7326573 0.70279944 1.046276 -1.0684876 1.3013487 0.3137845 -0.15648103 0.62470603 -0.063865356 0.18616247 -0.25865343 0.7754679 0.117517196 -0.3664639 -1.045569
639 -0.1314665 -0.8635161 0.54114115 -0.9737026 0.6526375 -0.28886738 0.29624367 0.2591519 -1.5096881 -0.22289786 0.020593774 -0.32651833 0.6973158 -0.2507516 0.47441682 -0.44212914 1.2041662 -0.19545537 -0.5963551 0.06324278
295 -0.47128627 -0.58154446 -0.7926093 -0.56141585 -0.18717812 0.45444092 0.22259805 1.1633587 -1.3015554 1.3635453 0.04673422 -0.3759974 0.7929473 -0.81588817 -0.24295872 0.6367598 1.0950379 -0.23468779 0.0670761 -0.10888948
345 -0.4071964 -0.8527161 0.17964502 0.25267404 1.0109034 -1.7477043 0.8301931 0.9303463 -1.2986451 0.34952188 -0.22886802 -0.9579632 0.25563306 -0.8098224 0.2599414 -0.8342427 0.1727236 0.37888035 -1.1899443 -0.251394
1355 -0.46762013 -0.50004023 0.617653 0.21125743 1.18711 -0.9356244 0.7909073 1.3092687 -1.2623587 0.8807326 0.8422451 0.29697922 -1.9194871 0.4782706 1.1156856 -0.8120668 -0.4581017 -0.44339615 -1.3815178 -1.2363744
567 -0.44586512 0.03870864 -0.50900984 -0.37946004 0.15137422 0.19321956 0.08113374 0.20921668 -1.5262997 1.5295435 0.559489 0.061242398 -0.035758212 -0.5839265 0.055286497 0.19638471 0.35547337 1.082579 -0.22116914 -0.5814682
158 -0.05850107 -1.9797376 0.16267596 0.22345868 0.5760903 -0.68246746 0.60606134 0.25020263 -0.6705159 0.25477117 -0.12513724 -0.4789839 0.54268336 -0.46624938 0.8869561 0.8568397 0.22756197 -0.28968367 1.1851528 -1.0994691
454 -1.133896 0.62652504 -0.2657972 0.21008319 0.49608123 -1.210218 1.6020834 0.46932575 -0.96483064 0.3467498 0.14209253 0.2054712 0.96388793 0.50231016 1.0765009 -0.98108655 -0.031991865 -0.96930957 0.20753206 -1.6695683
794 0.5064146 -0.37097546 0.65884376 0.6723922 -1.3606497 -0.27605632 1.0012672 1.8115741 -1.1027683 0.6903576 0.5698508 -0.48750076 0.12399505 -0.0021459959 0.96540564 0.18243143 0.21920955 -0.5238796 0.47806442 0.3651138
577 0.3548357 -0.20676294 0.91725093 -0.19241983 0.8074984 -0.9802773 -1.1915171 0.081691235 -1.4918607 1.0524416 1.2969606 0.77108824 0.41588208 0.7404154 0.03536874 0.50983745 1.1411254 -0.11010798 1.5973954 -1.4125004
524 0.15624742 -0.09341762 0.14426857 -0.628461 -0.22910857 0.2855139 0.121180594 1.5379447 -0.42881683 0.5603539 0.76321673 -0.807671 -0.22963007 0.013759222 0.8719525 0.25871316 0.3109156 0.5887795 -0.7626285 -0.97093326
379 0.035990074 0.49621734 -0.007319164 -0.12979567 1.3352604 -1.5332133 -0.19920206 0.8845888 -0.76228267 0.2743718 0.09999703 -0.07592766 0.5101545 -0.46783072 1.4812351 -0.61948085 0.44799924 -0.44084653 -0.4717018 -0.10082208
110 -0.8975713 -1.1614662 -1.0120366 -0.39416716 -0.24423169 -1.3366138 1.0691352 0.5689143 -1.0322727 0.8712236 -0.10098502 0.036236044 0.17450719 0.20924139 0.7348398 -1.6806153 0.5640513 -0.6637844 0.7002707 -0.7030258
67 -0.42789108 -0.85731584 -0.121943876 1.0694587 1.1313256 -0.41222787 0.14858751 1.4133347 -1.3370608 0.8287361 1.176936 0.8567028 -0.12142581 -1.4772888 0.4337409 -0.7519386 0.39559197 0.66145205 -0.69246846 -0.2603606
636 0.90795714 -1.6252532 -0.12669897 -0.09159364 0.39958072 -0.33007377 0.9104974 0.28189096 -0.9848534 0.5743213 0.115904935 0.63980937 -0.16689599 -0.1894269 0.3977878 -1.2032846 1.1859229 -0.59033775 0.06314635 -0.11380558
15 -0.60942256 -0.54714036 0.35639843 -0.054554008 0.24655399 -0.63678795 1.0055044 0.8609707 -1.8175514 0.6550164 -0.6964319 1.1435798 0.8288262 -0.017487776 1.5045708 0.21676238 -0.3073678 1.3067987 1.5844315 -1.0466905
673 -0.8242448 -0.07003634 0.114050835 -0.5288964 0.2221247 -1.2330025 1.3373883 0.75786984 -1.7810245 0.04408385 -0.31166443 -0.11933701 -0.29575437 0.7231538 0.48093534 -0.6756967 0.3726935 -0.5135365 0.8649008 -0.18577972
137 0.6504322 -0.32822177 -0.4046143 -0.017034665 1.3999486 -0.1394123 0.7190044 0.55872273 -1.532491 1.2763042 -0.577092 0.13765672 0.11285358 0.11164567 0.72935313 -0.45943496 0.19582 -0.9656499 -2.127427 -0.22128129
77 -0.27539226 -0.17759658 -0.2607171 1.4017781 0.016518477 -0.028621966 0.3251289 -0.02243453 -1.2638037 0.9220549 -0.4333649 -0.47954205 -0.45948207 -0.37493446 0.6686257 0.2493621 0.6310315 0.11240887 1.3050196 -1.8291646
1714 0.9564171 -0.6262569 -0.8059518 0.6358133 -0.24247146 -1.0400656 0.51176065 0.57670826 -1.4166862 0.7071822 0.0827746 -0.28665346 1.2207826 2.3431334 -1.6141716 0.6212544 0.6561362 -1.1610188 -0.7746522 -3.034063
1528 -0.8081873 -0.02632216 0.08745037 1.3804505 1.653038 0.18508698 0.19055445 1.155148 -2.2588964 1.0681831 -1.2768011 1.0182428 1.1148041 -0.8343361 -0.57430273 0.9199424 -0.4397944 0.44073716 -0.57996756 -1.4215024
911 0.5600991 0.6929765 0.022119198 -0.5713882 -0.70977557 -0.088854045 -0.089577146 2.1826305 -1.0503092 1.2091075 0.66787654 0.31009018 -0.29052755 -0.7347824 0.07615453 -0.94910234 0.35091814 -0.89587384 -0.53075475 -0.9858918
100 0.23960708 -0.85581845 0.57498425 1.964948 -0.08812803 -1.614917 1.5743561 -0.48368302 -1.997714 1.1370167 -0.6107567 0.45976588 0.31744668 2.4872658 -0.8883212 1.3286871 1.807855 0.103011645 -1.1182433 -1.5710005
1570 1.1065975 -1.7030036 -0.91136974 -0.8442142 0.95055896 -2.2100613 -0.11201582 0.40027818 -1.4877954 0.47437793 -0.28713286 1.008526 0.6917973 -0.17222472 0.22762418 -0.7968333 0.78696406 0.15846308 0.37115952 -0.49151474
2422 0.40808812 -0.38514426 0.16877382 1.423054 0.7211022 0.19103856 -0.38126048 0.35073206 -1.9748558 0.5012946 -0.35878208 -1.3979183 -0.68144673 1.3614166 -0.39120337 0.0432105 0.98334324 -1.1169364 0.22009742 -2.5838153
479 -0.023082593 -0.5754177 -1.0576533 -0.55939615 1.017355 -0.08973883 -0.002535236 1.4964869 -0.89732206 0.6959563 -0.24048914 -0.018838871 0.0939125 -1.2834396 1.3448446 -0.7846388 0.4396673 -0.21338646 -0.8482414 -0.86193496
1253 0.29323292 -0.88741815 -0.8455323 0.93411607 0.15186052 -0.45447633 -0.91901684 2.0308974 -2.7954628 0.37374726 0.2198476 -0.4917258 0.54473126 2.1584637 -0.7360139 -0.8165653 0.09660374 0.22234735 1.319694 -0.7729494
42 0.91112864 -0.603898 -1.0375456 1.0164634 0.6610869 -1.3668672 0.47760445 0.75351816 -1.4889863 0.46205568 -0.41845405 -0.86578906 0.7966649 1.8195732 -1.0432568 1.2054164 -0.094116315 -0.9178985 -0.8536119 -2.4182982
189 0.4220459 -0.6666329 0.5155833 0.5231429 -1.053211 -0.4029846 0.46324903 1.8355294 0.341177 0.70717424 1.0027299 -0.1103274 0.17492735 -0.16347905 0.28213334 0.45406535 0.8885926 -0.21105199 -0.74997735 -0.84201986
1645 -0.028627437 -0.167947 0.475334 0.6908547 1.5930253 -0.3058583 -0.25364512 0.49647224 -0.8962683 1.3643934 0.1995976 -0.33534265 0.5476718 0.8189091 1.1390711 -0.74555826 0.67853093 -0.46328738 -0.3904456 0.68158
2500 0.94429594 -1.6112332 0.9858725 0.35400912 0.748702 -0.59410983 -1.4982575 1.191137 -0.9589348 1.2511436 1.1815434 0.24440263 0.5384727 -0.23778176 0.7608695 0.5965641 0.13618483 -1.0688199 1.662434 -1.5523659
251 -0.50510484 0.20255896 0.35425195 0.51425457 0.20110726 -0.21870418 0.13932177 0.65955204 -0.79050475 1.1063371 -1.2451203 0.6296663 0.015031675 -0.23400435 0.69696057 0.72869664 0.6328761 0.45588234 1.6958358 -1.8461314
570 0.05792889 0.18387157 0.58405745 0.56077397 0.13907437 -0.69039 1.5224665 0.21584289 -0.8254282 0.59416014 -0.4865614 0.35447454 2.1075888 -0.04409545 1.4138917 -0.9024797 0.20567757 -0.54930955 0.23300163 -0.46879563
1329 0.37770802 -0.7155556 -0.08482168 0.4786398 1.879762 -0.8688805 0.34131768 0.5470479 -1.2126757 0.35021397 -0.4324746 1.3449088 0.52344644 1.0946381 1.3126962 -0.90591186 0.37292477 0.32060882 0.24644157 -0.0874707
1154 0.16854134 -0.55815625 -0.013859107 0.80470407 -2.102101 -0.59655505 -0.21284895 1.5251073 -1.8283706 0.5450349 1.0776213 0.3452039 -0.054362353 0.3172102 1.0873322 0.70692974 0.94141775 -0.21614525 0.7567754 0.023681618
1137 0.68656963 0.34774187 -0.429569 0.26830164 -1.3527828 -1.1046411 -0.26082948 1.9750837 -2.1599324 -0.30471316 0.07797838 -0.771937 -0.4441816 0.31686816 0.47202897 0.12728326 0.48530415 -0.9294064 -0.3033225 -0.25848392
687 1.0598423 -1.2394599 -0.32414365 0.118524976 0.8298017 -0.8157869 1.0496181 1.1240112 -0.41294143 1.0526546 0.26237574 0.5064846 0.4964239 -0.33308193 1.0648155 -0.96628636 1.3182076 0.23633756 0.3605085 0.46920604
2154 0.62275815 -0.7728683 -0.66437954 0.8115753 0.52763087 -1.5028465 0.41005707 1.2027998 -1.2496388 0.6795304 -0.4197684 0.22585896 0.061019942 2.1384637 -1.8401625 1.0143383 0.93568796 -1.5971801 0.23350902 -2.6565328
1521 0.3248457 -0.17526887 1.2481867 -0.21867092 1.0105633 -0.026061662 -0.32677025 0.8616299 -2.6790237 1.4563254 1.4843913 1.8160982 0.21550444 1.3459754 -0.4660245 0.771827 1.317952 0.47792378 1.2889564 -0.9587364
427 0.17687102 -0.4589995 -0.7407859 -0.09532559 0.2320081 -1.7910317 -0.025961908 0.19492699 -1.7071822 1.1131516 0.34741408 0.6938011 0.7177111 -1.2130488 0.8176422 -1.1262432 0.8609672 -0.03797211 -0.9984934 0.58302224
439 0.84416443 -0.18093249 1.683619 -1.030711 0.4365433 0.50927234 0.41302758 1.3725199 -1.438239 0.80490345 -0.28651217 0.28329423 1.4199526 -1.797783 1.6557006 -0.91702616 0.52698076 -0.09700133 0.5249664 -1.3494055
1485 0.9425985 0.05237969 0.29298696 1.2607358 0.7646692 -0.95609444 1.0445966 0.43832093 -0.8563249 0.72336036 -0.36039764 -1.1281443 1.6051224 0.37137794 0.43726045 -1.2417428 0.18519062 -0.7936474 -0.0069429576 -0.43179354
1291 0.08886701 0.5121176 -0.36403862 0.23979563 1.2588356 -0.7873761 0.3939592 0.7496417 -2.052605 0.39783907 0.20660762 -0.5946499 0.9450592 -0.39918742 1.3602089 -0.60255784 -0.22829312 -0.49879864 0.30829993 0.3563295
16 -0.6053017 -1.3934523 0.72554404 0.56964123 0.58229977 -0.6280585 -0.68976176 1.5975863 0.09593437 0.8794135 -0.13404068 0.009318082 -0.5768827 0.97846276 0.31138158 -0.8144277 1.5087236 -0.41140717 -0.9612483 -0.06275905
360 0.93407446 -1.5588562 1.2701746 1.3283168 1.2075844 -0.3685272 -2.1408668 1.475225 -2.012481 2.0182815 0.72470397 0.99035454 0.510754 0.7070436 0.22843017 0.87599397 -0.1407368 -0.5893646 1.7552546 -0.79674655
220 0.24489155 0.30026132 -0.33261028 0.56536895 -1.1117784 -1.5249676 0.14886113 1.6992927 -0.5156631 0.9750365 1.1355445 0.65380603 0.38913718 0.73123574 -0.36923662 0.4298802 1.8147068 -0.97267914 -0.55916375 0.04919865
571 0.6771958 -0.6475168 1.8855166 -0.21546629 1.0859737 -0.87188375 -0.6744902 0.09946804 -2.2507958 1.521861 1.2993768 1.4324931 0.3994207 1.4843837 -0.54923064 0.5925227 1.07384 -0.29790068 1.0175927 -1.1265203
1241 -0.21266069 -1.0278363 0.85004723 1.25535 0.57509315 0.18601295 1.0990398 0.46742734 -1.4191822 0.57014257 -1.8705269 0.11989158 0.6842744 0.03840509 -0.37231934 0.8026885 0.14376664 -0.4492293 -0.19862232 -0.86728626
810 -0.5976633 -2.1800177 0.2041014 0.009953814 -1.2451289 -1.3486773 -0.18232094 1.2383732 -2.5625298 0.8536627 -0.44112048 -0.5651937 2.417076 -0.015730323 0.8196322 -0.5927168 -1.2361302 -0.47839907 -2.0356371 -1.2502818
343 0.7273357 -0.12603207 0.8493211 1.0763482 -0.7252334 -2.1608772 1.3934127 0.8213271 -2.1900387 1.0715138 -0.5070783 1.1906171 2.4053524 -0.475924 -1.1612025 1.1144404 -0.31305197 1.0918348 -0.07508552 -0.99102324
668 0.40181196 -0.64317226 0.5720345 0.43369526 -0.48892146 0.41093138 0.5674487 0.04302695 -1.6210488 1.9943701 -1.0213734 0.115735546 0.47716078 0.87872195 0.5298424 -1.205855 -0.8721268 0.28429624 0.4543244 -2.4053693
1124 -1.0316666 -0.51447916 1.1044611 1.084508 1.0321856 -0.98810947 0.9727524 1.2882065 -0.8294579 1.6919928 0.36175564 1.2426059 -1.3015465 -0.08131231 0.87186056 -0.17477976 0.044277765 -0.52705055 -0.6933154 0.01772637
641 -0.54275167 -0.76889515 -0.30842182 -0.27860993 -0.11340068 -0.64229053 2.1009147 0.6185235 -1.4560003 1.0207194 0.21387449 0.7643599 0.08505802 0.57326466 0.7083965 -1.6491752 0.53271484 -0.45186973 0.8924106 -0.55618244
85 -0.82914394 -0.080889896 0.5063478 2.480819 1.0574257 -0.5242156 1.9930693 0.963078 -1.9586049 0.31743562 -0.8751103 0.09348445 0.901747 1.3785502 -1.2116119 0.56071573 0.7858051 -0.65133107 -0.66948646 -1.0848757
592 -0.062209327 0.79839575 -0.42656618 -0.18350324 0.4873607 -1.1901674 2.45413 0.36192667 -0.8845884 1.413936 -0.16778742 0.57120705 -0.40636137 0.8752568 0.42178148 -1.613188 0.9073343 -0.5582976 0.76827043 -1.7221559
1551 -0.27324963 -0.85140073 0.20195274 1.5885098 1.2695551 -0.97604346 1.9161751 0.03182043 -2.369356 -0.71274275 0.13956557 -0.35935414 1.553186 0.121799394 0.6325863 1.3267041 1.5372952 -1.7091895 1.0434598 -0.5896308
146 0.2921294 -0.1355898 -0.7585973 1.019621 -0.43514314 -1.2733907 0.25466865 2.262278 -1.0920986 0.10013762 0.7325047 0.29001662 0.4728135 -0.9205287 0.48819256 0.45416674 1.3191004 0.24731451 -0.70484656 0.4440557
559 -0.3352279 0.8709579 -0.55562365 0.31754833 0.24311525 -0.54383236 0.9295496 -0.9713446 -2.5484228 0.36375433 -0.16661656 0.066015214 0.76224345 -0.9415633 0.08202283 -0.045416787 0.915484 -0.13949373 0.05982016 -1.9164708
882 0.91188496 -0.11928298 0.59415954 1.3673687 0.20390336 0.6575076 -0.8591813 0.4015893 -1.719879 0.41452846 -0.1892022 -0.651984 1.1422979 0.70301735 1.4117783 0.28977722 0.6596672 0.06382525 0.2822679 -0.26358545
1460 -0.9510788 0.7035888 -0.33682522 -0.14332111 0.5752553 0.64243 0.78735054 1.1080422 -1.6919197 1.1732221 0.6171183 0.18626682 0.57359076 -0.5071619 0.10210137 0.88113874 -0.042758908 0.14666589 -0.07413372 -0.90655667
480 -0.20117918 -0.62368196 -0.56260616 -0.5074719 0.82534134 -0.19476528 1.0574509 0.06570702 -1.285793 1.026598 -0.10328336 -0.10178943 -0.32851958 -0.30689675 1.4894859 -0.4401595 -0.3826125 -0.39320293 -1.584752 -1.3026351
1216 0.4107587 -1.4942229 1.1800448 0.045661554 0.3862054 -0.74310577 1.2164608 1.6772895 -1.3023998 1.7189423 1.1434661 1.9534779 -0.12876798 0.45463154 0.78133065 0.54664457 -0.25233546 0.84916854 -1.2759393 0.23200645
1719 0.5129034 -0.24174578 0.8381295 -0.8345626 0.58799005 -1.0666523 0.66206425 1.0568228 -0.7917129 1.3074223 -1.0316813 -1.9281797 0.037369657 -0.08785963 0.15381886 1.2468914 1.0653878 -1.2474517 1.0543267 -0.77661073
849 -0.6459576 -0.13811529 0.09866599 0.39196986 0.8985803 -1.0381486 1.6338081 0.22672667 -0.9916005 1.1369535 -0.9267281 -0.39804828 0.73986375 -0.50106865 0.7682976 -1.7701812 2.044898 -0.14833513 0.7212086 -1.2334919
859 -1.0287986 1.1572365 0.6028486 0.6268896 0.17832132 0.029981751 0.6352581 0.29304594 -1.8991132 3.5082362 1.589443 1.3074185 0.14669102 -0.18002109 1.0190918 -0.579355 2.046494 0.8230657 -1.2431749 -0.8665303
968 -1.1212137 -0.07053597 -0.33195457 0.096796244 0.29563633 -1.0430031 1.0466363 0.5971464 0.068392344 0.9675371 -0.46034664 -0.8022493 0.24452537 -0.08610565 0.4669281 -1.1758158 2.140892 0.018102454 -0.16844647 -1.2982625
130 -0.11756983 -0.7128799 0.22301732 0.48056033 -1.1069984 -0.92425424 -0.8096995 2.0553248 0.13938358 1.4278728 0.7805457 -0.24486364 -0.79076004 0.061351202 0.5040476 -0.057772804 1.5032489 -0.14920606 -0.9761947 -0.6960049
1688 -1.1623073 1.0132995 0.46063384 -0.120078646 0.47130516 -0.1293352 0.06849094 1.3250704 -1.0954313 0.3496755 1.4264358 -0.08508942 0.22718084 -0.7204456 1.0185045 1.3827448 0.5036469 0.26828527 -0.5518035 -1.9653504
1017 0.32794142 0.32460535 -0.21895893 1.1640562 -1.8604841 -0.72095114 0.6760396 1.7229214 -1.575858 0.0686488 -0.27064607 0.19461916 0.73381925 0.15862492 0.5960628 0.32322553 0.46467328 0.2354177 0.15524575 0.12941855
2176 0.70745337 -0.73132885 0.35564867 1.3448837 -1.9196951 -0.4986945 0.12210866 1.1443307 -1.1774894 1.3166099 0.8885727 -0.6137423 -0.4584891 -0.92453647 -0.3555023 0.77309597 1.4740963 -0.4829404 0.6442087 -1.3443853
650 0.4281686 -0.20315579 -0.09992493 -0.33325028 0.2881134 -0.6274679 0.9776034 1.378923 -1.2064364 0.41333196 0.56313294 0.9370813 0.50203484 -1.5428264 1.4717053 -0.24670261 -1.0082492 0.26476634 -1.4326634 -1.5053067
478 0.19562851 0.24059658 0.10338294 -1.3538154 0.05085964 0.07713518 -0.47551444 0.45441723 -1.1171991 1.7022386 -0.83791023 0.0034816766 0.38646084 -0.20786193 -0.10229431 0.1397298 1.3653219 0.3997003 -0.19212142 -0.42791253
2424 0.6009168 -0.3954894 0.9628623 0.7903896 0.91098714 -0.058063976 0.3858926 -0.020413158 -1.5715472 0.8627426 -0.3434611 -0.71229124 0.77128804 0.29102027 1.5841348 -0.14597632 -0.03857018 -0.24072462 0.21730644 0.36292005
1179 -0.26115248 -0.18443541 -0.09766291 1.0717486 -1.4463995 -0.3650623 -0.0028029168 0.90802234 -1.5013105 0.38067725 2.3646364 -0.062615044 0.79877776 -0.3014077 1.7101233 0.0943675 1.22617 -0.94102556 -2.1374846 -1.5769405
520 -0.85547334 -0.77543616 2.226678 0.83819425 0.31334403 -0.48707092 -0.77080876 0.95183766 -0.9582261 0.5175291 -1.119936 -1.2021469 1.6293263 1.5726758 0.028530218 -0.0034834128 0.3305393 -1.0207989 0.39362374 -3.4801178
1911 0.019003661 -1.0347551 1.4297035 1.8086209 0.49540964 1.1201365 -0.5683242 1.9640654 -0.726946 1.5539373 -0.5547811 0.42960152 1.8048867 0.53178054 0.78500056 0.05531203 1.2215518 -2.5938644 1.2278955 -2.574273
561 -0.5276366 -2.8304422 -0.41446158 -0.24064289 -0.8213974 -0.13324665 1.2296361 0.69884014 -1.4057873 0.9208835 0.494609 -1.1654956 0.19357191 -0.67127264 1.4437114 -0.21090247 -0.11690526 -0.9494499 0.971231 -1.7688369
1004 -0.3807756 -0.2356983 0.78274685 -1.409658 0.23313284 -1.91467 1.4121474 0.792514 -2.03057 0.68699867 0.9784036 -0.198753 1.0543071 0.90917325 0.50025773 -1.7743851 0.23248532 -0.8273205 0.94075483 -0.6435631
741 -0.77183074 -1.736601 -0.2873689 -0.9373209 0.89086676 0.0005420875 1.7491822 0.3131093 -1.339016 1.1984006 -0.03043435 -0.3521753 0.16354279 0.0150906425 1.1885686 0.43590313 -0.21332136 0.23518604 0.36068857 -1.498425
736 1.3700658 0.20117249 0.48688343 0.43423915 0.45041922 -2.7621934 0.4158518 0.85594624 -0.5739521 2.4331813 -0.23200262 2.4775906 0.23546913 1.7629025 1.3456326 1.2171153 0.0053551854 -1.5192418 0.18158422 -1.2648582
69 -1.4082129 -0.72806776 -0.44339052 1.3463504 1.158156 -1.1810056 1.0678662 0.82351595 -1.5132209 0.90256166 1.128929 -1.7904449 0.9783513 0.42664275 0.9992643 3.1113462 1.4228631 0.77629066 0.41138873 -1.7563733
1697 0.849205 0.50849056 -0.30654752 1.1056988 -1.4384193 -1.394681 -0.28174356 0.7512161 -0.91784483 2.070095 1.7412697 -0.9880731 -0.23523298 -0.6060136 0.65534574 0.3779501 1.8491803 -0.17810644 0.5785125 -0.96410835
539 -0.6639675 -0.4809391 -0.56046134 1.0613531 -0.9826846 -1.2208599 -0.22691028 1.9339823 -0.09470782 1.1127523 0.45521608 0.35892227 -0.4233154 1.7380017 -0.06910434 -0.16905789 1.7580297 0.08703288 -0.6669336 -0.5089534
1219 0.56237197 0.39884865 -0.46903434 1.2757529 -0.95483756 -1.4906474 0.09299284 2.9822383 -1.1796683 0.11690138 0.7215345 -0.2951927 0.096156076 -0.14888625 0.22231105 -0.23107289 0.6025999 0.5914566 -0.40102702 -0.24004991
2394 2.0545685 -0.025986962 2.3212576 0.7987069 -0.017533211 -2.344549 -0.84655905 0.9831597 -2.601225 1.383807 1.3242475 -0.5240229 -0.5649512 1.8481771 0.22753163 -0.5538279 1.8494943 -1.0710152 -1.4966371 -0.10022121
2031 0.08181721 1.5400802 1.4957122 -0.33092022 -1.6158938 -1.4530623 -0.15284044 3.108715 -1.3140349 0.51222444 -0.48665896 0.17205176 0.81613994 -0.7370372 1.0375836 -0.017287103 2.283533 -0.5185514 -2.3945315 -1.5514143
205 -0.59552675 -0.9249168 -0.582727 -0.27430713 0.5231866 -0.82284987 -1.381055 1.688171 -0.9464591 1.3498994 -0.5334582 -0.41484404 0.43658954 -0.108156204 0.44685906 -0.41288754 0.65644 1.2007298 -0.13537046 0.072299324
1087 0.14588867 -0.61272246 -0.3360338 0.9800669 1.8504034 0.04064687 1.1575025 0.004065727 -3.2753422 0.01823349 -1.68852 1.050541 1.0218629 -0.32760832 -0.3726083 0.22817284 0.2329215 -0.20378967 -1.015606 -1.6156591
1269 -0.49879223 0.7897188 -1.4713707 0.9005094 1.4179277 -1.1967463 1.1842471 0.7615712 -1.5404564 1.7373674 -0.5163418 1.1830863 0.10907131 0.3313737 -0.47107822 0.4457347 0.2978323 -0.09501896 0.5957776 -0.704167
669 0.8515845 -0.96783906 0.34768316 0.4985324 0.615752 -0.016828358 -0.40416732 1.0524797 -0.9574982 2.2500892 -0.851753 -1.3984181 -1.1020976 -0.28062552 -0.15227017 0.5896694 0.5293899 -0.39219442 0.80473423 -1.940314
1282 0.6136314 -1.4539301 -0.2059816 0.9020189 -0.34169444 -2.1906343 -0.5253018 1.2666776 -1.5924213 0.26456904 0.9462699 1.8023738 2.1987967 1.9981872 1.3880788 0.8812238 -1.1230494 -0.795392 -0.043538384 -1.9384298
575 -0.9434126 0.15931799 -0.11257917 -0.30741516 0.0906592 -1.3255485 1.8855988 0.7658468 -1.8281957 0.787216 0.17949474 0.15996172 0.28015095 1.2328122 0.7303606 -0.6966172 0.038530175 0.5070469 1.015153 -0.25720412
1513 -0.37345374 -1.1555418 0.22716801 1.4552702 0.7800777 -1.4541174 0.2523917 0.4945467 -1.3438253 0.24892554 -1.8361957 -1.1267558 0.64240795 0.12489434 -0.124870926 -1.1911542 0.67315066 0.26426923 -0.30212831 -0.7975771
2335 -0.04262299 0.96325856 0.8526551 0.020125361 -0.38680637 -1.2357978 0.95907986 2.3844798 -1.3134013 1.2963438 2.5956037 -1.2254494 0.21530142 0.08595952 -0.5511677 0.7653482 0.7219221 0.3406447 0.44727486 -0.9854675
2209 0.13495952 -1.6629183 -0.58607376 2.806056 -0.7538008 -3.4155598 0.4164117 -0.055350058 -1.3794856 2.046178 0.89650625 -1.569614 1.5670581 2.011372 -0.23348516 0.80266684 -0.29636824 -0.5098246 -1.2317528 -2.5345302
89 1.3801229 -1.7536637 -1.0217416 -0.5615298 0.63144934 -0.6728906 1.1383176 1.0976217 0.26421532 1.8665218 -0.9430958 0.6757947 0.6409159 -0.35718635 0.53489786 0.40853924 1.2122053 0.32519192 0.7462393 -0.75138783
1465 0.8612685 -0.8991316 -0.9368484 -0.3513305 -0.49744186 0.5679322 0.8397884 1.4689667 -1.9994301 1.800321 -2.3889472 0.5086384 0.9693233 2.2349892 1.4845976 1.582088 1.3762628 -2.7773771 0.55009043 -2.4051626
1175 -0.45193827 -0.84749067 -0.95878255 -0.97002566 -0.62327725 -0.7005033 0.42320237 1.9477571 -1.7243494 2.3349104 -0.7619092 -0.40375543 0.16667616 -0.47385776 0.94732785 -2.3727612 -0.40241164 -1.5001366 -1.5871501 -0.08905366
996 -0.42911354 -0.31721947 0.20442791 0.13331583 -0.76530665 -1.2046926 -0.26840588 1.483379 -0.8292082 -0.12413429 2.355339 -1.3327584 0.4950811 0.5168218 0.5911715 0.13491182 1.6385207 -1.1218657 -0.91658074 -1.9743303
2221 0.8193282 -1.066563 0.038767174 0.09170826 -1.7241789 -1.0096233 -0.59238255 1.073732 -0.6814754 0.91184443 1.5910012 -0.16350566 -0.13694036 0.98740405 -0.2558564 0.41690853 1.9096917 -0.80598503 -1.1730162 -1.3247188
540 -1.9403423 -1.3061249 1.2397183 0.8364716 0.5623946 -0.8174974 0.40401918 0.8880414 -1.8314259 2.032411 0.7966976 1.6740535 -1.3578004 -0.08337629 1.1500947 0.43910065 0.3248278 0.6530684 -0.9992467 -0.27027187
1622 0.7235566 -2.545336 0.93920994 0.35895658 -0.5217325 -1.3372742 1.5124941 1.4395342 -1.9405029 2.3637245 0.35682222 1.5437522 -0.7298802 -0.86280733 2.0358179 0.3831362 -1.6577631 0.69765955 -2.2795174 -1.3493518
162 0.3001646 0.22269607 1.3232412 0.5969324 0.31509 -1.2298747 0.6450919 0.14702159 -2.1159086 -0.43817273 -1.3735609 -0.91684204 1.3054401 1.0050199 -0.46809626 1.6423112 1.2147665 -0.043456923 -0.16748099 -1.7598575
1327 0.45628834 -0.5522846 0.575843 2.0274897 0.36027232 -0.78379697 0.57590413 0.8586551 -2.4831722 1.0301385 -0.90766853 1.8088627 1.9483528 -0.7161181 -0.54416394 1.2191737 -0.66718274 0.22348897 -1.4795353 -0.86235905
1286 -1.204375 -1.5173343 1.5202303 0.21245317 0.6301737 -0.88170207 0.5908229 2.3098114 -0.2791077 1.4620013 0.45859802 -0.09848585 -0.79395765 1.0542101 0.49556857 -0.31250986 0.0066268365 -0.5299164 1.1663339 -0.6443649
314 -0.33321834 -1.0775934 0.13353047 1.7699002 2.439334 -0.32981232 1.0311869 1.4996458 -1.2475451 1.2318006 1.3788525 1.2591438 -0.32897162 1.2856491 1.0590631 -0.58183753 -0.19513628 -0.92663604 -1.8272741 -1.2374117
635 1.7043332 -1.2900559 -0.3902511 0.85906315 0.9807471 -0.16999815 0.58132994 0.33957285 -1.1482527 0.93233764 0.08463815 0.5642917 0.11609514 0.031021856 1.2138253 -0.6932746 1.4195178 0.15638176 0.075527936 0.21502018
1464 -0.41482657 -0.41316655 -0.35421824 0.77008194 0.79144573 -1.2373075 0.4334785 1.4972569 -0.2940197 0.69220614 -2.1139224 -1.2154261 1.5128887 0.43962088 0.297778 -0.41607288 0.53330505 0.30439213 0.006428199 -0.6893825
1429 -0.59653175 -1.316326 -0.17554918 -0.06260897 1.159694 -2.0259986 1.6925387 0.7411579 -1.400353 0.014982395 0.23010245 -0.03693114 0.48308706 0.092917666 0.68561804 0.071418725 -0.16633914 0.22227763 -1.2757956 -0.08545758
584 1.439474 0.37533265 2.289132 0.11415189 -0.8029261 -0.816852 0.35054132 1.2923445 -0.4395367 2.9495687 1.2640512 0.7353331 -0.6127039 0.7421764 1.1166217 0.56383914 -0.0667257 -0.07011242 -1.798566 -1.9901996
381 0.32899162 -0.9765646 0.7285687 1.030708 -1.6470251 -0.038603857 0.42972842 1.3975416 -1.0144233 0.8782799 0.7637253 -0.47931853 0.54947263 -0.7114848 0.1591224 1.0093925 1.4640284 -0.47178856 -0.55574673 -0.3321911
1336 0.75643355 -0.24767196 0.088724814 1.0634276 0.7710211 -0.98383635 1.38087 0.056676097 -0.63456684 0.7629068 -0.8171875 -0.5189412 0.21828638 0.12857342 0.6791365 -1.8613359 1.4980631 0.7636719 -0.7358955 -1.3645531
1926 1.824732 -1.9135216 1.5456961 1.4146537 -1.9271814 -2.0219605 0.45811525 1.6805134 -2.2899823 -0.15768161 0.6419788 1.2175515 -0.6650252 -1.0050222 -0.67900556 1.0481862 1.7257655 0.587171 0.21459493 -2.75771
1283 0.54341435 -1.4673439 -0.32518527 0.25072044 -0.76092404 -1.9823561 -0.09671404 1.4213539 -1.9029261 0.78363013 1.2034732 2.0374475 2.2286553 1.9482768 1.3982844 0.5548044 -1.5904523 -0.82941586 0.2241723 -1.6193482
1242 -0.73320776 -0.21895994 0.3841213 2.2424755 -0.019490814 -0.41773605 1.0797738 0.74722236 -1.421915 0.4640339 -2.0719476 0.7024494 0.666233 0.16452289 -0.17712292 1.7135179 1.2030019 -0.83957547 -0.8293176 -1.5222957
984 2.0694826 -2.2387292 1.331979 0.45479128 1.1538297 -1.0480013 1.1558948 0.95580393 -2.2269027 0.91236234 -0.15471266 1.0930387 -0.558142 -1.0004884 -0.30599472 -0.63072234 0.24255434 1.0760108 -0.6546121 -0.3236129
739 -0.27404904 -0.14998893 -0.49156615 -1.0781004 0.39534158 0.181722 0.56717616 1.014067 -0.8167719 1.9156777 0.7506511 -0.22974202 0.60318726 -0.113991834 -0.68510836 0.24606483 -0.15112321 -0.28239176 -0.89391065 -1.393843
2381 -0.3805446 -0.96265227 0.05376726 0.55717486 0.95186746 -0.23611715 -0.029450634 1.589044 -0.93587935 1.1703513 -0.11807642 2.024472 0.62748307 -1.895616 0.060875684 -0.8901167 -0.54908544 -0.3575288 -0.21699066 -1.5673529
39 -0.07099431 -0.28642273 -0.817481 0.4453269 -0.5864845 -1.6919688 -0.5041219 2.2863626 -0.840316 1.5171412 1.2951287 0.66724014 -0.16523893 0.6219197 -0.22076659 1.7410184 2.0909991 -1.3845505 -0.41505224 0.07376513
178 1.6826129 -0.7256474 1.1135907 0.16838533 0.21725123 -1.2801273 1.1296176 0.5571481 -0.9588348 0.41930398 1.2952629 0.30277494 -1.3515818 -1.1625881 -0.02422841 -1.756026 1.596666 -1.2987223 -0.4980403 -1.446438
773 -0.8136678 -0.3639571 1.155847 1.2489512 -0.14009121 -1.2479097 0.53110147 0.6238349 -2.4422824 0.25774014 -2.1720195 1.6654516 0.57201487 -0.30789995 -0.9495337 1.271926 0.34872293 0.07208817 0.12665835 -1.4087491
1204 0.06469069 -0.54185134 0.5185922 0.7058682 0.014327866 1.2292721 -1.2094166 0.58197445 -3.1249068 0.13485453 -0.9352366 -0.7519137 1.2439531 1.1578242 1.4098046 0.08694184 1.6169089 -1.3051624 -0.759719 -0.39768577
614 -0.88834774 -0.28240228 1.0122834 -0.009182699 -0.17922865 0.11283356 0.3280804 1.7438567 -1.8173915 0.77604514 -0.8768848 1.3513952 1.5556104 -0.30236548 2.256636 -0.23287788 0.07605785 1.5697763 0.75997347 -0.839521
1472 0.78981155 -1.4184064 0.6630041 -0.08148345 -0.7994369 -1.85781 -0.32740644 1.4345039 -1.5336587 0.5969199 0.47968757 1.4044168 2.1895165 2.1864386 1.3981488 1.0374469 -1.4945383 -1.0541309 0.13366064 -1.9731442
416 -0.5480806 0.4647799 0.45252866 0.408891 -0.87976265 -0.10140731 0.21461925 2.2771451 -0.7043794 0.72091794 1.9653581 -0.37249452 0.8779528 0.47850674 -0.35778522 0.7834542 0.6430076 -0.87086195 -0.5782334 -1.1210656
1364 -0.42158067 0.011493166 0.34433025 -0.9715121 -0.33145922 -1.0924134 2.041863 0.40055 -2.6478918 0.25515506 -0.12447876 0.3805399 -0.045351397 1.3030835 0.7044635 -0.99868965 0.5139929 -0.40378267 0.48103744 -0.6855219
2427 -0.545867 -1.2414745 0.30043155 -0.41298625 0.8212271 -2.045871 -0.013456332 0.5539363 -1.7280139 -0.38741928 0.13951728 -0.63017577 1.173957 0.3768207 0.24222514 -0.79710966 1.4809967 0.12186953 -2.0908484 -0.029278107
2343 0.9286918 -0.98836607 -0.9223791 0.6939008 1.5589429 -0.5720187 0.5676161 1.0985458 -0.785076 0.2572958 0.054797456 0.76230353 -0.3544854 -0.27866924 1.1587318 -1.5850929 1.1830515 -0.44943702 -0.06727656 -1.1523757
1130 -1.127665 -1.9659123 -0.64138716 -0.383015 -1.76714 -0.96263236 -0.9479075 0.9284941 -3.2568393 1.5349792 -0.37925106 0.20235911 1.4948355 0.23029949 0.59655035 0.49024975 -0.7661345 -0.07346975 -2.7386634 -1.2752323
2108 -0.6785795 0.103490084 -0.36609343 -0.46868315 -1.372518 -0.70048887 0.014937267 1.4511136 -2.7737336 0.50076175 -1.889783 0.47600248 1.6671948 -0.2220563 2.7715337 -0.43066484 0.4985565 1.6440563 0.44192013 -1.5165724
259 0.3301848 -0.6334681 0.48938438 0.051588606 1.2594746 -1.1835114 0.8948378 0.6921078 -2.0377474 -0.09856341 -0.8857519 1.7174921 0.60655135 0.7077424 1.8437359 -0.45882943 -0.22924569 1.2414385 1.1673611 -1.5291835
1596 0.40286642 -0.24948604 0.16386099 0.4697995 0.61071455 -1.1825653 -0.4534072 -0.10176143 -1.2669231 2.0440586 -0.5185347 0.7603477 1.0613546 -0.50721973 0.95883477 -0.5842432 1.6802592 -1.7534258 -1.3328853 0.7698167
2342 0.22659291 1.1497276 -1.8423665 1.3372012 0.71020514 0.2559135 1.4936463 0.18533193 -2.0801299 3.2383769 -0.050079137 1.4678886 0.3561239 -0.5811192 -0.17084587 0.7138592 1.1305118 -0.70882237 -0.5256098 -1.8906841
487 2.0704885 0.14959763 2.4510257 1.2004099 -0.028080188 -1.5748672 0.5665883 1.056548 -1.1386598 1.680963 1.4046578 1.0197506 0.04211835 0.99635947 1.7154056 -0.13490263 -0.73001045 0.45162755 -1.615072 -2.0260499
2361 -1.3351294 0.5159444 0.65662354 -0.26671132 -0.3292282 -1.4599079 1.0669994 1.5730213 -1.5219017 -0.07320501 0.5250067 0.4613607 -0.09259601 0.49501106 1.0212301 -0.4547832 -0.08917662 0.48155418 1.1888441 -0.9157753
2410 0.4109825 -0.36814797 0.44801566 -1.1266263 1.1983542 0.008477368 0.30240783 0.37831664 -1.43623 1.7191168 0.14656372 -0.7710745 -0.21410932 0.28383332 0.40533367 -0.13073513 1.5343949 -0.4607865 -0.71122795 0.35189235
1334 1.451352 0.12302067 0.3200975 -0.025231522 -0.74333006 -1.2104084 0.24504448 1.7407678 -1.0659441 1.0616509 0.5216915 -0.865516 0.45031777 -0.7403545 1.3815 -0.52942586 0.2696837 0.16400513 -0.05072168 0.50447685
720 0.48151863 -1.4778998 -0.8670457 0.67639697 0.6531941 0.28579465 -1.0921694 1.0474463 -0.64210343 1.4477427 -0.83645344 0.25176576 1.3221178 -1.067237 -0.13473015 -0.83990043 -0.19514349 -0.97443724 -0.47474092 -1.4747541
637 0.25841853 0.38685936 -0.5235627 -1.0557691 -0.7746048 0.9888273 0.8249217 1.126878 -1.7678531 1.4113715 0.61304694 0.10972234 0.28155926 0.18479101 -0.20715074 0.03126732 1.6276206 -1.0044515 -0.47223407 -0.5114619
1816 0.075882874 -1.5865045 1.342329 1.3364464 1.5619445 -0.6245543 -1.3781987 1.8878136 -0.23374891 1.2911987 -0.27806646 -1.0085553 0.22609982 1.2091141 0.5162484 -1.0888381 0.9809161 0.022973191 -0.81371653 -1.8970659
1394 -0.5272099 0.14809349 -1.5166287 0.30133796 1.4958245 -1.0916258 0.9271584 0.26740313 -2.81858 1.6123562 -1.8701025 0.4269176 -0.29111314 -0.9922459 0.32896245 1.2401619 1.3502737 -1.3806126 1.205702 -1.4015101
688 0.13417795 -1.0006349 1.1488607 0.45327485 -0.53581154 -0.7049671 -0.7087786 1.0357864 -0.83328485 2.318902 -0.60042554 -0.5350655 -0.33615983 0.45392558 0.7394956 -0.2858236 1.3206902 1.1375997 1.2469988 0.19066052
1051 1.8996668 0.2986634 1.6841853 -0.06528807 -0.56052876 -1.0160242 -1.4895133 0.18214102 -1.5051045 2.510108 -0.8705199 -0.51794225 0.21482486 -1.1725702 1.1840672 -0.6605151 0.6146959 -0.24981385 1.5682486 -3.0028062
1801 0.7153618 -1.2821934 1.1633605 1.2427857 -0.17471553 -2.7293699 0.31066865 0.98536265 -2.578671 0.8713473 0.20269814 0.7547394 2.7262063 0.1461265 -0.3918766 1.2510768 -0.39294136 2.4591553 -0.48070237 -0.99880594
457 -0.05505141 -0.2020911 0.03657427 -0.3523892 -0.6144427 -0.91597074 2.3395996 0.9232144 -1.2349292 0.4323761 -0.9754052 0.06938964 0.7916932 1.0970329 1.6614978 -0.91553026 -0.31855404 -0.7006297 0.43277615 -0.695862
967 0.58313745 0.36870113 0.07782145 -0.04148164 -0.835945 -0.23983729 -0.09819584 1.7964464 -1.3285011 0.6540022 0.6155022 0.7641975 -0.5861968 -1.3313613 0.09165129 -0.53407377 0.9080277 -1.1568619 -0.467918 -0.84588206
1641 -0.4803267 0.15536118 2.1715233 0.043830354 0.015490133 -1.0785782 -0.46693003 1.029744 -1.3717561 1.705201 1.5694345 0.22175953 -0.2306314 1.115811 2.1160088 -1.0775449 -0.31513146 -0.29132932 -1.5680296 -2.050459
2207 1.4992518 -1.4779603 0.8658127 1.0482891 -1.4056348 -1.2684978 0.13348229 0.2655692 -1.824388 0.5149485 0.5393544 0.18368441 -0.5315335 -0.9209673 -0.040990908 0.976261 2.2189944 0.06896457 0.50507927 -1.0867928
1574 0.50501287 1.2971832 -0.057264153 -0.16299176 -1.0911727 0.43628523 0.3528831 1.9184595 -1.8470117 1.8775501 0.085735925 0.27135852 0.55226094 -0.95849407 -0.50788414 -0.7505468 1.297326 -1.4196342 -0.33532622 -0.42534268
568 0.5546158 -0.60955054 -0.815862 -0.51269895 0.78140235 0.25055015 -0.04544506 2.1135802 -1.264096 -0.020191183 1.0182598 -0.704723 2.1718931 -0.91873133 0.17146498 -0.27593064 0.8066363 0.32384032 -0.025399493 -1.4008116
905 2.0921962 -0.31295338 -0.43311605 1.2481686 0.4333447 -2.0395365 0.52219826 -0.059125565 -2.5578156 -0.23690915 0.05427372 -0.0097326515 0.19773518 2.083057 -0.7683587 1.3000457 0.665413 -1.1118718 -0.56484556 -3.1263762
550 -0.91704196 0.0353543 -0.7914998 -0.07180654 0.0832155 -1.2803696 1.6226988 0.63369155 -1.3802867 0.62822264 -0.7213127 0.63309115 0.5762745 1.479288 0.9739585 -1.6017337 0.927611 -0.86305016 0.7785799 -0.7978314
2151 -1.3526231 -0.2243498 0.061017774 -1.5169301 1.4689769 -0.8060867 1.4386891 1.6339494 -1.702787 1.999777 -0.384329 0.93873936 -0.64456326 0.09368685 -0.15789774 0.12830453 1.4809692 1.9035959 -0.26344553 -2.2915678
1005 -0.65450424 -0.2114172 1.3224652 -1.0037467 -0.15099528 -1.5388736 1.494993 0.7314469 -2.503694 0.19889365 -0.15221995 -0.06589923 0.39056486 0.6295867 0.19457029 -1.7440581 0.17987786 -0.42985737 0.3090263 -0.77240145
1260 0.52239305 0.2544474 -0.3399976 -0.55073476 1.1343576 -0.81363416 0.6511668 0.6040603 -1.9819642 1.2054336 -0.5127625 -0.75007933 0.09611999 -0.26403195 -0.2572601 -0.92979807 0.021590758 -0.93650347 -1.5993217 -0.5081407
563 0.04724126 -0.8079367 0.3311184 -0.14003856 0.79058415 0.5176247 0.8867563 2.6991515 -1.271407 1.2345619 1.057314 -1.4834087 1.013385 -0.103193656 -1.3800632 -0.86858743 -0.2124831 -0.52493036 0.15374352 -0.8408413
1379 0.6240847 0.47707346 -0.24590465 -0.2335724 0.4296203 0.65861577 0.474982 0.27880895 -1.3153553 0.9378164 0.80703866 -0.03149866 1.293619 -1.1531565 0.21069078 0.5929447 1.108105 -0.45954466 -0.0436161 -1.3583751
103 -0.33523342 0.28995007 0.8567897 0.21939304 2.0492444 -1.2653223 -1.1639261 0.9283435 -2.4584117 1.1511365 -0.35171604 0.93994206 0.39481398 -0.65586966 0.36466333 -1.6958733 1.8370626 -1.0782962 -0.500539 0.06224322
83 1.0153624 0.7855522 -0.7906493 0.002434881 0.69378 1.4013551 1.2128339 1.405361 -1.5599508 2.164664 0.5008409 0.6072439 2.3460262 -0.39876464 0.4587526 0.07199499 0.7289068 0.17903131 -0.41236395 -1.1906055
228 -0.1859975 -0.017153712 0.5464495 -0.74753845 0.2308928 -0.1598926 0.1653551 1.7281518 -1.6696526 0.03155724 -1.1611128 0.06468418 1.2697427 -1.5920027 1.2446932 -1.1809839 1.2357025 -0.14568138 -1.1116204 -0.790333
76 -0.57601684 -0.5470482 1.2909086 1.3964392 0.7764271 -0.3216658 0.82558453 1.558941 -1.3084486 1.2769537 0.67768717 0.81330496 -1.0418862 -0.3080089 0.032658495 -1.0283386 -0.6207808 -0.23771682 -0.49565294 -0.5691987
1367 1.2162282 -0.1795923 -0.2800382 -0.20548144 1.4916898 -1.5671836 -0.43117836 0.646559 -0.6833801 2.1474648 -0.20032257 -1.817294 -0.5983989 -0.20836675 0.51046747 0.9750468 0.8513186 -0.3236017 0.3151843 -1.9559485
1306 0.4088167 -0.016076017 0.10413228 0.5515783 -1.8211689 -0.8182074 -0.23545162 1.8455176 -1.8051659 0.0027802149 -0.69606036 0.2542902 0.45408216 -0.015837094 0.13554546 -0.5411006 0.32752928 -0.28974423 0.458407 0.11174085
466 0.15860942 0.104344144 0.02377058 -0.7536017 0.051201705 0.37117258 0.5777165 0.7602954 -1.028426 2.3064528 0.82584155 -0.1170097 0.31781188 -0.37385195 -0.08559449 0.48231548 1.0304723 0.49223986 -0.6323277 -0.27829012
883 1.0457251 0.30468556 0.019757116 -0.62414783 0.54534554 0.37191868 -0.1605798 1.481835 -0.6951378 1.1859862 0.6817799 -1.2533998 1.1040754 -0.4160249 0.3418092 0.6389679 0.32156438 0.26208282 -1.5807669 -2.0392394
1499 1.0079643 -0.3470204 0.7347596 0.95988667 -0.20879142 -0.9488802 0.7676632 0.7179448 -0.18566042 0.42036262 0.22996509 0.9276977 -0.36106932 -0.36179793 1.380284 0.03309565 0.8679907 -0.40700963 -1.5492277 -0.33006895
296 0.6178346 1.4429386 -0.9827713 -0.27504608 0.7368409 0.7568124 0.20382717 1.6830513 -1.2845256 1.9276363 0.14145404 -0.23406114 1.5550847 -0.21540661 0.46380088 0.4636154 0.4664306 0.03703302 -0.32020628 -1.4121859
1856 -0.2081928 -0.69726783 1.326541 1.7892456 0.032597262 -0.7011391 1.2213473 1.5716885 -2.6717446 1.7028519 1.5587265 2.3275928 -0.8949416 -0.68606555 1.8032339 -1.8049234 -1.422 0.31398445 -0.79381937 -1.2385192
644 0.40293303 0.32493335 2.947843 -0.4653147 0.013612482 -0.5727349 -0.061003264 1.2081951 -1.4625286 2.9778173 1.0718071 1.1827475 -0.119111784 0.96244526 1.7293037 -0.6017012 0.99588287 1.588553 -2.6027658 -0.96615237
2269 0.20878237 -1.7335331 -0.4935616 0.20765662 0.32902482 -1.6716456 -1.5427395 -0.28527135 -1.3349835 2.3428032 1.2414842 1.864133 -0.63315064 0.9850127 1.6522979 0.6913797 1.2754864 0.22443865 -1.4915379 -3.447361
315 1.3625748 -1.8692154 -0.9517949 -0.49648038 2.1246357 -2.8910763 1.102833 0.6652986 -3.0083163 1.2702566 -1.2589054 -0.63941926 0.78674674 0.43670517 -1.8955647 -0.7966744 0.5103883 1.2376479 -0.68598616 -1.0366952
37 0.19193362 0.06102534 -0.22441019 1.4102105 -0.93615526 -0.50324774 -0.75651926 -0.49207357 -1.7188475 1.9108781 -1.0876572 0.16710879 0.5172242 0.6284368 -0.06552915 -1.0299554 0.29611826 0.62494403 1.0604402 -1.4681981
1828 -0.50449264 -0.6563881 -0.71106625 -0.33280647 -0.1508817 -2.5103753 2.0650373 0.63835454 -1.7227122 0.6604724 -0.107738584 -0.02452828 0.14033216 2.8652651 0.918746 -0.3455347 0.14975712 1.1250168 0.5639945 -1.335764
2430 1.3787186 0.18317656 -0.54697645 0.9216998 -1.9425856 -0.22188309 -0.7542522 1.1123375 -1.269927 2.0029366 0.1268959 0.31658635 1.8894641 1.6649141 0.92235035 0.5251157 2.9513924 0.56944287 -1.1202184 -0.07674129
1115 1.824264 0.53880715 -0.2272296 0.9574439 -1.1245595 -0.95347947 -0.11135073 2.1062357 -1.0103183 1.804832 2.4978387 -0.40121192 0.6446104 -0.15934658 0.18849295 -0.6113221 1.0307845 -0.17310876 -0.09152481 -0.5806046
1026 -0.7005719 0.900493 -0.3594641 0.893728 1.0400499 -0.7946645 1.096415 0.8217142 -1.4449711 0.04992133 0.38540313 -0.060709678 1.1899036 0.18756665 1.7866876 -0.7204762 0.038374346 -0.38955894 0.200591 -0.304951
1126 -0.8494272 -1.8768412 0.86178505 -0.23043287 0.090501904 0.29716915 1.8208122 2.2699099 -1.5194892 1.1783975 1.4144379 2.5561647 -0.2571217 -0.56224424 1.9766113 0.57490927 -0.018670838 -0.73322344 -1.7858374 -1.0495489
1909 0.2590635 -0.60955405 0.7427147 0.7329696 0.92015046 -0.4188958 0.29752153 0.91177005 -1.6229179 0.6533901 -0.49799633 1.3063726 1.582693 -0.98416424 -1.2176299 -2.1640995 0.64536333 -1.0793012 0.04230702 -0.9110925
555 -0.5179606 -0.34518707 -0.44247955 -0.5744647 0.37778392 0.8879226 1.1485182 1.0635358 -0.9940684 1.3676734 0.06408988 -0.014392291 0.17694817 -0.39194012 -0.44244283 -0.059672292 1.3177246 0.3738036 -0.36602333 -1.3080959
1177 -1.2669985 -1.4060016 1.6733147 0.8916457 0.8452143 -0.5130649 0.64963293 1.9952799 -0.43214187 1.0254794 0.47986618 -0.05133531 -1.5001371 0.5905664 0.57671225 -0.27698368 0.49935132 -0.49551788 -0.33011293 -0.5625602
909 0.512376 -1.209936 -0.12961832 -0.4949428 -1.9546932 -0.9735733 0.46914715 1.5565089 -3.2285655 1.8121876 -0.9510015 -1.06937 1.7568136 -0.3676713 1.0220743 -0.19238406 -1.3213019 -0.30088893 -1.9393167 -0.061927322
1826 -0.9393916 -1.1113405 -0.70950204 -0.038786337 1.0550619 -1.9344196 -0.18386848 1.7883494 -2.7395756 0.07977845 0.7871133 -0.77517796 -1.4451857 0.7823085 0.39987954 2.9530265 1.1983848 1.0940424 1.213257 -2.1152973
1314 -1.1963023 -2.3499935 1.323519 1.4274839 0.2542621 -3.0642715 0.6053603 2.6607544 -1.4449313 1.9438697 0.37094223 -0.39281344 -0.9994747 1.707211 0.40548304 0.8951892 -1.4708418 0.020953448 0.46167 -0.5538035
2486 0.14011648 0.45151252 -0.14169697 0.47113505 0.40013367 0.7877899 0.6357714 0.33822018 -1.3065734 1.5070342 0.6231837 -0.39842692 0.7988125 -1.0420086 -0.13717557 0.28681043 0.8088797 0.52190036 0.005938017 -1.1817198
174 -0.25820896 0.33229202 -0.50570315 -0.40905073 0.44744894 0.56604266 0.72310084 0.52510095 -1.1927699 1.6431417 0.8268 0.039582573 0.8382424 -1.1314428 0.21763545 0.11481633 1.0512574 0.18148156 0.15591738 -1.3610395
468 0.65084606 0.24455099 1.1708493 1.5084789 0.19207546 -2.2274847 1.2046342 0.71021795 -1.8049917 1.4817829 0.3129017 1.1405145 1.8644217 0.25177777 -0.74460125 1.5774791 -0.5677625 1.2107916 0.31957164 -1.1667988
1593 -1.0430156 -0.5457377 1.4154822 1.0960156 -0.36132878 -0.7466648 0.5086512 1.8263128 -1.3472096 0.9452463 -0.19560812 -0.9923243 -1.3969033 0.74137735 1.8988647 -0.6124822 0.1414345 -0.9961286 1.0947653 -0.037442762
508 -1.7560996 -0.4301302 -1.4078984 -0.49823532 -0.2204159 -2.753535 0.70389956 -0.11656677 -2.6399496 1.5830964 -0.1691082 0.6662935 0.56629306 1.9295404 1.2702056 -2.368235 1.646718 0.2566872 -0.099313505 -0.50967574
319 0.029086228 -0.053236905 -0.16314012 0.4472494 0.6496411 -1.3222779 -0.3276921 1.325651 -1.2206086 2.0598326 1.2029946 1.3797939 0.28071705 -0.059454046 0.86078 -2.8508904 1.7317055 0.75380814 0.15441558 0.51217633
1048 -0.52697235 -0.8734423 1.6212056 0.35591438 0.27663335 -0.8403778 0.49417046 1.3932972 -0.31923646 1.0895618 1.3667481 0.30083445 -0.71648115 0.95501065 1.4038022 -1.1685323 -0.12017914 -0.3555398 -1.409384 -1.9999837
1620 0.7650408 -0.7382781 0.45065808 1.6737207 -0.32977584 -1.2184519 1.7194291 -0.025074534 -2.1195636 1.463296 -0.41894808 0.3623515 0.73744416 2.6170454 -0.5267026 2.0659544 1.7597017 1.4854423 -1.0187482 -2.2087605
1764 -1.3387799 -0.7798786 0.18243411 -0.5519309 -0.36869976 -0.74649733 -0.16495813 1.0044476 -0.5407552 2.6876206 -0.6689344 -0.31934384 0.86465144 0.8840787 0.97487366 0.6658043 -0.34383637 0.13846584 1.8289592 -1.0007089
2587 0.40473232 -2.237783 0.85100806 -0.3799578 0.47880304 -1.2163424 0.18923809 2.0748246 -1.2183027 1.4252056 0.05093245 -0.06912277 0.71379876 -0.048185855 -2.297176 -0.8758382 1.2057976 0.38746387 1.4436074 -0.42969638
863 0.72920835 -1.7928027 0.83263737 0.1721654 2.4002128 -0.06503939 0.5065935 0.90348923 -2.3506951 0.5913462 0.3198701 -0.5209455 1.2946604 1.0490525 0.5860334 -0.5752758 0.39013278 0.08518627 -0.370276 0.56934077
493 -0.7732221 0.7995344 -1.3701395 -0.45685753 0.97095263 -1.2773268 1.1030955 0.66424984 -0.8873455 2.1962106 0.716447 0.2991319 0.12299878 0.13449776 -0.34466267 0.78288585 0.15119195 -0.94844145 0.12525275 -0.880484
2544 0.38845345 -0.7236012 0.24251075 -0.57662225 0.8354352 0.44708136 -0.24471182 0.33002517 -1.9439358 2.3043501 -0.58435154 0.1134403 -0.3110914 -0.0019571676 0.7190587 -0.09217749 0.6081315 -1.3366907 -1.170763 0.3162671
2167 -0.28736523 0.10332646 0.94931275 1.8046707 0.17687863 -1.1537939 0.42748532 0.89924103 -2.6464996 0.2642648 -1.1742268 1.5147021 1.2382486 -0.7027809 -0.75235134 1.681522 0.24729669 0.42767292 -0.35010168 -1.3032733
356 -0.045664895 -2.2504966 0.79777384 -0.4913596 -0.2715119 -1.9423391 -0.46336836 -0.57757246 -2.614602 1.544128 0.27190164 0.21612376 3.52466 1.6977309 0.116128765 0.48660976 1.5371599 -0.44717595 3.0320718 -0.6633154
760 0.5571237 -0.4958362 0.87331825 0.63175756 0.8617633 -2.0524683 1.7412336 0.05280315 -1.1310111 0.7506113 -1.1730825 -1.0736177 0.20541324 2.2949162 -0.5966264 1.7483488 0.9877543 -0.4819381 -0.7536088 -2.4767718
1122 -1.1062977 0.38972148 2.6724546 -0.59724545 -0.4237793 -1.7900535 0.1694639 2.0258186 -1.1061211 2.3410797 0.7684996 -0.45217502 -0.88142514 0.44169876 1.4366691 -0.79307115 -0.7953158 0.963852 -1.7689905 -2.0799773
1256 0.44835618 0.6000895 1.8803315 1.8870711 0.47712892 -1.5002351 1.3326572 -0.36127695 -1.8582419 1.8248297 -0.4719658 -0.33214435 1.2285248 2.4599104 -0.69690263 1.3746622 2.149258 0.049050286 -1.1223813 -1.4324255
252 1.61888 -0.58721083 -1.3672554 -0.21901837 0.53190625 -1.2103424 1.6301322 1.6839914 0.279469 1.8627887 -0.05993408 0.50977635 0.93759716 -0.9243501 1.3181442 0.6925546 -0.5477573 0.48513234 -0.022698922 -1.4288737
1796 -0.21002755 -1.0701569 -0.52785224 1.8680859 -1.768408 -2.1086202 1.1175283 0.50589156 -2.1320746 2.9600832 0.043049853 -1.2202009 -0.3009131 0.54820246 1.9972111 1.0528022 1.5127636 -0.29999834 -1.2853211 0.34456986
2607 -1.2068408 -2.5903382 -0.39468986 -1.2563312 0.39136702 -1.5579886 -0.48702517 2.306756 -0.0006544625 1.4872069 0.7777309 0.31454116 2.188542 1.5694946 1.1157968 1.0640405 0.92302966 0.06241293 0.98153055 -0.88979185
1892 -0.46871245 -1.1166294 1.0626106 0.11041605 -0.7074042 0.24246149 -0.018915402 1.0611526 -0.61329514 1.486633 -1.1361489 0.4896139 -0.058601666 2.021143 1.0446345 1.3401822 0.8183083 -1.353779 0.26113936 -0.821717
980 -0.8993706 -1.4537101 -0.03614292 0.7365568 0.72089255 -1.1700331 -0.076629974 0.643358 -1.6293207 0.7119046 -0.10474771 -0.7326701 -0.2356044 -0.7055463 0.9020162 2.6203766 1.1312158 0.34675658 0.9352036 -1.1076859
72 0.875627 -0.6099537 -0.25307208 0.49249953 0.5101907 1.5347395 1.217167 0.18213508 -2.2945435 0.90962 -0.10387023 -0.60460407 0.57371205 0.2196213 0.5236534 0.27760932 -0.44745964 0.46863478 0.20612504 -1.8453608
1232 -0.22979827 -0.12414331 -0.2591591 1.0714066 -1.3182033 -1.1897116 -0.13332017 0.8295984 -1.612448 -0.42694318 1.4215425 -1.27577 1.1792945 -0.36739853 1.504691 0.39571705 1.4261824 -0.17043091 -1.467029 -1.8861008
2428 -0.82378906 -0.68045825 -0.82437104 0.3900703 0.2542714 -2.1630318 0.45831773 0.25239006 -1.8222437 1.2847613 0.9131133 0.96345466 0.55566955 1.296654 0.10782931 -2.7887723 0.7839771 1.047802 -0.6335659 -0.5013001
289 -0.3746101 -0.83981353 -0.43544942 1.246479 1.583547 -0.0878462 0.23869045 1.7441635 -1.4328299 1.0061022 0.81984836 1.4644722 -0.871678 -0.6512282 -0.087246 -0.90049726 -0.32713053 0.24491857 -0.51886785 -0.9439759
1854 -0.053325575 0.8287449 -0.10193671 0.9315052 -1.0559975 -1.6680049 1.5141989 1.5721473 -2.4168777 0.40659785 -0.41959572 1.1153709 1.5913295 3.3548617 0.3861136 -0.66918105 0.56750375 1.827144 -0.5342411 -2.939815
2650 1.0535742 -0.8459175 0.40479156 0.68201923 1.2143922 -2.7938714 1.0302991 1.3057681 -0.5925207 2.725633 0.112324215 2.404247 0.0015878516 1.97114 2.2117522 1.9036969 -0.23348422 -1.7448165 0.37869397 -1.1613222
351 -0.7086539 -1.3069237 1.0069791 -0.5221404 1.5064244 -1.343342 -0.29884735 3.7766452 -1.8402729 0.23551977 -1.5618867 -1.280551 1.0355729 -0.40749773 -0.7677928 2.6499326 1.0052572 1.0733131 0.7402123 -1.3646412
412 -0.38705486 0.7452489 0.9356871 -1.6105773 -0.026540466 -0.6725883 0.042781517 1.3264185 -0.5145046 1.4635646 -0.3519952 -0.046389084 -0.2490456 1.6756567 2.1834464 1.7978295 2.065189 -1.9482216 0.23281644 -1.2171593
2528 1.3901817 -0.4921727 0.0795983 0.049728855 0.2581422 -3.241394 0.8012868 0.7207439 -0.53400433 2.6956804 -0.60199445 2.0703037 -0.2067092 1.7114911 1.3461276 1.0284903 -0.22772808 -2.0141933 0.013931004 -1.87504
541 -1.236699 -0.10500698 2.6210897 -0.62659365 -0.21118338 -1.5808103 -0.75656605 1.8139317 -1.0289704 1.7235355 1.5072863 -1.186304 -0.17681818 0.9466672 0.8660601 -0.8644429 -0.4827833 0.82552844 -1.2546158 -2.2413528
2339 0.6218902 -0.8529559 -0.18468401 2.2003684 0.25992656 -0.86580145 0.65786946 0.04409734 -1.1886039 0.8393552 -1.5706018 0.29831094 1.7052329 0.065447144 1.6378295 -1.5278404 0.73819166 1.0063574 -0.7431611 -1.068353
1141 0.013937552 0.18973896 0.78051186 -0.22154833 -0.71999836 -0.8071323 -0.42946553 2.5330765 -1.1805078 1.6245275 0.8565649 1.2936662 -0.47578725 -2.1089206 0.53826225 -1.0622482 0.8774045 -1.1057444 -0.57161266 -0.54625773
1637 1.3275748 -2.7316928 -0.14060116 0.22408974 0.13020228 -1.5869852 1.0929374 0.2820774 -2.6590343 0.9143192 0.30202204 1.2744788 0.51522166 0.020843035 -0.87999624 -0.9994691 0.29471582 0.39849022 -0.012167538 0.22391222
2191 1.3909439 1.1131748 1.6878328 0.79534584 -0.030482331 -1.5372417 0.25048098 1.4727347 -3.4546607 0.11902494 -0.7192588 -0.105299965 -1.7566285 -0.19118886 2.0184574 0.68083817 0.032711484 -1.1844236 -0.7784226 -4.052041
815 -1.1666148 -2.2339973 -0.20048067 -0.2320362 -1.6766388 -0.8586019 -0.95497423 0.8189718 -3.4084172 1.6476284 -0.2945151 -0.018301131 1.7414535 0.063907534 0.8107478 0.6052874 -0.6335501 0.2810652 -2.931293 -1.337406
1113 0.7826427 -2.341301 -0.13325962 0.9118907 1.2916442 -1.5538679 -0.12538524 0.9661663 -0.9059755 1.172982 -1.7786552 -0.23025851 0.7991971 -0.19749221 -0.31508052 -1.3019506 -0.7135675 0.07675145 -0.10501252 -1.0487194
564 0.72250503 -0.70287097 -0.79160684 -0.2718091 -0.5142289 -1.9801489 -0.649156 2.1029367 -0.6117841 1.1776654 1.5704254 0.14475535 -0.5930147 0.378476 -0.016491968 0.71606374 1.4469072 -1.3762388 -0.38346887 -0.11156014
2304 -0.26883942 1.5587082 0.5358595 0.407101 0.5505245 -0.6589414 0.64340127 0.23397858 -1.9376398 3.420963 1.8391458 1.0739373 1.024491 0.7943363 2.114136 -0.75204766 2.7306118 1.0882246 -0.64695317 -0.7863449
586 -0.023467766 0.38097346 0.08127307 -0.22445932 1.5387292 -2.0612416 0.623089 0.8790031 -1.0165485 0.73842233 0.27998698 -0.016418032 -0.19366659 -1.324405 0.45767033 -0.91861284 0.40605947 -0.4815365 -0.7986517 -0.5526875
578 -0.281397 0.37462562 0.025799522 0.91199785 -0.63200396 0.07120726 0.35106668 0.3710697 -2.345076 0.82634157 -1.2758949 1.6737139 0.67188793 -0.9413267 -0.4074238 -0.027001312 0.6918758 -0.1470031 1.5606455 -1.4095882
194 0.6841749 -0.23763078 1.2660096 1.2722962 1.6680582 -0.063608415 -0.49146715 1.3485514 -1.1358571 0.19021018 0.2025837 -1.0342544 1.0317866 1.6497926 0.14210412 -0.18322466 -0.20534103 -0.3759786 0.80606115 -2.0017302
1673 -0.9657051 -1.1934718 0.8917717 0.010997414 0.11240992 0.37983438 -0.40042436 1.157358 -1.3287628 2.7035568 0.26653534 0.3603882 0.38109684 -1.6343747 0.14722742 1.102972 1.4610337 -0.74629813 0.4038599 0.30346772
277 0.82660365 0.093844265 1.181012 1.4968166 -0.54843974 -2.2082415 1.6836615 0.6534529 -2.3736377 1.0341836 -0.055801466 1.3354278 1.4930035 -0.31997526 -1.2626544 0.83545166 -0.10664687 1.2258313 0.57569623 -1.2696162
2276 0.22956026 -1.6459022 -0.5984784 0.18478179 0.2744781 -1.5169284 -1.8973861 -0.2787032 -1.6341243 2.2501817 1.2011024 1.7943492 -0.50613016 1.1304564 1.5743715 0.7423814 1.2008566 0.21714935 -1.5055672 -3.133931
1987 1.1256912 -0.45653585 0.8799298 1.211947 -0.17552276 -1.111845 1.7119032 0.601373 -1.3722271 0.22452815 -1.7984908 1.6321294 1.8865151 0.723469 1.2892119 -2.0863743 0.73131835 -0.42169693 -1.2531087 -1.0408449
207 0.9121779 -0.92891234 0.87772727 0.21526432 -0.15660278 -0.3721345 -1.9129199 2.322996 -0.6239431 2.505024 -1.489549 0.5831914 0.9291483 2.0165246 1.1607984 1.7450024 0.29814306 -2.7313826 0.3438405 -1.068866
269 0.027139075 0.14310555 1.1184922 -0.19917145 -0.06486431 -0.17592303 0.8509219 1.3376771 -2.2552495 0.06729212 -0.7129171 1.1424874 1.1505499 0.26956716 1.8737264 -0.402265 0.80158615 1.7557049 1.327423 -0.638526
1698 -0.78623784 -1.5710804 -1.024484 -0.43319538 0.9963216 0.5433165 2.2290268 0.81115276 -2.0200305 1.2391318 0.20633072 -0.08884892 0.89631975 -0.44061717 0.018730294 0.6745917 -0.2818802 0.42471394 -0.16059467 -2.1072128
1516 0.8551767 1.3053172 -0.11696581 -0.8707307 -1.9106205 -1.3875922 -1.4404438 1.1574365 -2.1467156 2.5588584 0.9717512 0.23518677 -0.94467413 0.42362162 2.8956726 0.2972392 0.21750379 0.8474835 -0.25525427 -0.67492795
818 0.8740174 -1.0771124 1.2831411 -0.16995832 1.0668576 -0.487117 1.3830643 1.7644125 -1.5037885 1.0130845 0.868028 2.5282462 -0.18391065 -0.6256406 0.8306434 1.1224391 0.16701609 -0.29353023 -1.6788843 -0.93503886
732 1.1013181 -1.2476709 1.2521143 -0.8105249 1.2086626 -1.0381064 -1.7173576 1.9201765 -1.5652866 1.5546572 1.6066343 -0.01815285 0.10128462 1.9567208 0.91603786 1.9676218 0.8071227 0.7096492 1.4845251 -1.3239106
1614 0.3894606 -0.8712345 0.6837302 1.8679194 -0.40693393 -0.75890374 1.5944719 0.6036601 -2.1955392 0.7353042 -1.0759842 0.5621615 0.49428725 2.6652594 -0.34010425 2.0264087 1.3373811 1.2086495 -1.2527922 -2.178737
819 0.49303043 -0.8700441 1.0326138 0.5239381 0.50985545 -0.45948076 1.2272497 2.139413 -1.1437414 0.70835894 1.3116105 2.407631 0.0076653743 -0.18602985 1.0361817 1.2389092 0.11455383 -0.45068568 -1.3516157 -0.13543743
966 0.3691185 -0.2222151 0.3466718 -0.3830368 -0.6367442 -0.8663993 0.41075027 1.9153826 -1.3788453 0.20608799 0.9830221 0.826764 -0.9924295 -1.4647293 0.10447458 -1.2040602 1.4549114 -1.5429255 -0.26100746 -0.74122137
56 1.2906604 0.33528057 0.9759087 0.54802424 -0.79471457 -0.44283894 0.83662593 1.458414 -1.9721335 0.61388427 1.0629963 -0.3101749 0.8195855 -0.5929 -0.48017067 2.0091376 1.3429289 -0.60585463 -1.1211169 0.12913999
2586 -1.0017965 -2.3840704 0.53839105 1.9769118 1.1877135 -2.9213006 0.55716366 0.99548477 -1.5526143 3.5618684 2.056595 -0.6432565 0.49279162 -1.6543678 0.44136325 -0.897102 -0.29307836 1.1545308 -1.7337618 -0.18107817
1560 -0.21322195 -1.3416083 -0.6471496 -0.7465532 0.9960827 0.6286602 1.2607534 -0.03313506 -1.5826396 1.6336715 0.39108136 -0.08560237 0.6461565 0.86096936 0.86540705 0.25628698 -0.5266055 0.5840024 0.5882546 -1.7193779
1185 1.3924851 -0.83862406 0.21259336 0.16923906 -1.4797428 -0.6285662 1.6028491 0.93385166 -0.7443647 0.21456477 0.738261 0.2753979 0.25954562 -0.6015828 -0.46189854 1.0186117 2.2233472 -0.22875172 -0.9634087 -1.5860202
1381 0.25811133 0.12689637 0.13417794 0.42303497 -1.3036952 -0.4915625 0.8225351 2.3086736 -0.7631615 0.465381 0.48109332 0.19939199 0.091790244 -0.20529123 1.5131041 0.9705279 1.0588096 -0.8902165 1.0334076 -0.34214857
1149 1.3804744 -0.11203996 2.0851705 1.2337006 0.3031178 -1.6347885 -0.6357701 1.2958866 -1.1262244 0.70261717 1.4538131 0.7986538 -0.03776203 0.34329477 1.6092505 -0.7432176 -0.8353398 -0.36713615 -1.6962917 -1.9312817
31 1.6335675 -0.34542802 2.7561836 1.2675875 -0.33935234 -0.87715036 -0.115521245 1.6026422 -1.434171 1.928042 1.6229519 0.8372373 0.3538825 0.6619774 0.9805575 -1.1417156 -1.6118487 -0.6029624 -0.79764736 -1.9820827
1685 1.1915636 -1.7292676 -0.16383463 -0.46831504 1.376715 -2.2575042 0.89256895 0.82256556 -1.4892074 0.7841037 -0.46568316 0.31524724 0.7935799 -0.3070182 -1.190721 -0.8363245 0.7619679 -0.20385793 0.41840294 -0.35163128
419 -1.297434 -1.3245776 -0.79513305 0.14385521 1.2147629 -0.87198776 2.4117804 0.9468976 -1.052464 0.97068834 0.33179948 -0.57804537 0.09819663 0.8142427 1.8238003 0.043236732 -0.88669235 -0.1276225 -1.0123103 -1.6108025
1727 2.1893024 -1.7057188 -0.6116424 -0.7318253 1.3691409 -2.5024989 0.31686628 1.2325865 -1.7442328 0.19762868 -0.43264782 0.3318359 0.97208375 0.2142318 -0.89868826 -0.44148704 1.0632912 -0.40176213 0.7138597 -0.53422785
216 -0.91869044 -1.1541059 -0.1235614 0.6259807 0.6249719 -0.017190782 -1.1403629 1.7227982 -1.6982036 1.1537101 0.3050144 1.0416962 0.17243159 -2.6597495 1.4514878 -0.30106017 0.16909124 -0.24629517 -0.55675215 -0.70451814
1340 0.77276754 -0.5892867 -0.34337062 0.9713049 1.249218 -0.36888954 0.37212858 0.048123863 -1.7163769 0.3367108 -0.930469 0.94123703 1.0622141 0.3910597 1.3814753 -1.1809784 1.019901 1.8846815 -0.4555995 -1.2057201
2515 0.80216295 -0.637589 0.5062322 0.98376256 0.9807569 -0.49657398 0.03277382 1.4427196 -1.2955954 1.5195111 -0.587999 1.9258587 0.94879305 -1.506137 -0.7829985 -2.1987965 0.40806586 -0.5007247 -0.9825016 -1.3160027
229 1.9420266 -0.419406 -0.0020046155 -0.0075342557 1.0071452 -0.9963143 2.3409865 1.6351823 -0.9395218 -0.39709508 -0.1765661 -0.6061817 0.5487033 0.28510094 0.5902648 -0.5232511 0.67945695 0.1638851 -0.80603737 -0.50258505
484 -1.230425 0.33801076 -0.6412785 -0.39057034 -0.3242288 0.44518015 0.3366525 1.06483 -1.9698594 1.4888952 0.34541985 -0.5285448 1.3344613 -0.76581776 0.083327085 -0.020203216 0.67271847 0.38672766 -0.9449923 -0.59516907
2092 -0.5519032 -0.61726713 -0.8108585 -1.2308346 1.4307978 -1.7376356 0.06624628 1.2128663 -1.4595761 0.71823645 0.87779075 0.09035424 0.029439127 -1.2909057 0.25694883 -0.87149096 0.46074918 -1.2216194 -1.3504913 -0.8331909
1307 1.2602676 -0.6558725 1.2794976 0.03266521 -1.0844625 -0.37155476 -1.598516 0.5103158 -1.8881923 2.7583616 -0.667266 -0.14701517 0.4436204 -2.3106475 1.9754269 -0.47700405 0.66769433 0.060135677 1.1481518 -2.7491007
917 0.36520338 -1.577348 0.73328006 -0.20717286 2.181433 -1.5039946 -0.48434153 0.5538966 -0.43747494 0.9632606 -1.0735834 -0.15967724 -0.003197292 -1.2443119 0.19682899 1.1803925 1.4241054 -0.30755883 0.5068249 -2.2672846
1104 0.86301583 -1.1519977 -0.7411585 -0.36653027 -0.2986616 0.40396795 -0.32110152 0.4617341 -1.3470998 1.5367001 -1.3112264 -1.4330261 1.0282016 -0.005605585 0.42468736 0.5104431 0.29985988 -0.10557129 1.082842 -1.4843544
847 1.3192161 0.51612604 -0.46331197 -0.21221504 -0.35443747 -0.4743398 0.60723364 1.9560642 -0.7519694 -0.08242544 1.3268404 0.52074367 0.6420139 0.5474827 0.39370364 0.6417561 2.2677083 -0.98502606 -0.122001104 -0.59973055
2561 1.3276993 -0.05492857 -0.76352257 -0.039028727 0.8211986 -1.2343861 1.8172294 2.9439654 -1.0297657 0.9982675 -0.20937917 0.28196016 0.5894213 -0.8051322 2.14108 -0.5590637 -1.6256474 0.4941324 -1.5333223 -2.5471041
1507 1.8658888 -0.76027405 0.59528464 0.96760774 -0.43424132 -0.771456 1.494491 1.7724808 -1.4476138 0.5575456 0.11798406 2.0212586 2.3629766 2.0549073 -0.44479996 1.1160402 1.3216493 0.00498334 1.6668358 -2.9392507
491 0.15284924 0.9510907 -1.944395 0.22890022 1.2427298 -1.1235652 1.35723 1.3052438 -0.25974014 3.2254984 0.5740466 -0.14669386 0.92184544 -0.14194599 0.33879542 -0.1365203 -0.7223014 0.29961225 0.7076297 -2.2014399
79 -0.52819884 -2.5072246 -1.2396361 0.5846654 0.44138816 -1.8964777 0.86695516 -0.16815749 -0.9084356 1.3770583 -0.22226758 -1.4996345 0.20437779 -0.6892067 1.0094533 0.32677293 0.65353835 0.30736026 1.0468701 -2.0693223
767 -0.6330825 -1.2161021 -0.86526376 1.0877978 0.30181363 -1.463545 0.113312334 0.31854442 -0.46937513 0.8914024 -0.11153767 -0.54878914 0.14693168 -1.0367457 1.6475984 1.1450409 0.67138 -0.4046001 1.249283 -2.254004
2512 -0.26035106 1.0584823 -0.6132027 0.7888888 -0.99772495 -2.233083 1.6747507 1.2653881 -2.8906646 1.1881393 -0.40363145 1.0092129 1.0177085 3.461587 0.60965914 -0.20551649 0.09375962 1.7554538 -0.18901291 -1.961844
1284 -0.12838079 -0.8446625 0.77560604 -0.8564838 0.6752018 -0.846978 -1.251077 1.4095336 -1.0344554 0.13850717 -2.2416139 -0.34249264 -0.22089311 -0.84633845 1.701957 -1.1022356 1.4919434 -0.3191333 -0.5348868 -2.8934553
765 1.1186211 0.7545829 0.28316087 -0.95812446 -0.84808874 0.30080494 0.47623417 2.4398422 -1.646517 1.9801108 0.7432767 0.12565212 -0.3101906 -0.5867283 0.34853354 -0.3611338 1.2702732 -0.41286102 -0.21468382 -0.08773524
1294 -0.46828088 0.34699118 1.1328801 -0.14334768 -0.046338286 -0.2337286 0.6073914 1.2722088 -1.604734 1.5956321 -0.47461975 -0.83463454 -1.1371465 1.582497 1.0321249 -1.0853357 0.51536465 -1.1121507 1.444523 -0.2635398
2572 1.1561424 -1.0475574 0.7381336 -0.41767946 -0.678221 0.08507811 -0.098533444 1.8253359 -2.5342748 0.983161 -1.379518 1.1756049 2.0015166 0.8708858 2.8522968 -0.6196135 0.1442932 1.6999066 1.2865242 -0.89976364
421 0.4602973 -0.4528701 2.293585 2.1514182 1.6291218 -0.8941512 -1.2955685 1.5950042 -1.360215 1.0760121 -0.16014698 -0.98939604 -0.1899787 1.049749 -0.4949274 0.23023303 0.11458345 -1.2935324 -0.4065738 -3.8055863
209 1.1629522 -1.3689029 -0.9339323 -0.35818034 0.2901944 -0.95695716 0.48759857 0.24199955 -0.7025985 1.1041671 -0.30104166 0.23350884 0.24460292 0.63400626 0.4340864 -1.064933 1.1447861 -0.09702422 0.19988504 0.06836484
1890 0.5005618 -1.6726072 0.7920239 -0.07204589 1.5679647 -0.78536904 0.56312 3.2496126 -1.2790794 0.17931673 0.31710827 -0.46729007 -0.21674223 -0.3178582 -1.5476798 -0.66990185 0.47171965 -0.35382718 1.033662 -0.8366863
63 -0.075212136 1.2940829 -1.4791832 2.0149274 -0.6423875 -0.74631125 1.3965268 -0.11878157 -4.025725 2.3498933 0.107501276 1.066517 -0.25708804 -0.020200456 0.88963866 1.5111479 0.106035285 -1.264094 0.8978016 -1.1422808
1065 -0.54756695 -0.0389401 -0.85971886 1.9734496 0.053904247 0.036625486 1.2275511 0.060648687 -2.0035603 2.2633111 0.9198645 2.497646 -0.6630029 0.28358278 0.76805973 1.5979337 1.0486753 -0.60052377 0.6643566 -2.3485835
1324 -0.19339295 -0.78144336 0.6532475 0.93065906 -0.12344726 1.0860851 0.33302388 1.5916581 -1.7352744 0.47720128 -2.1243696 -0.42111072 0.3919953 1.1835185 2.5017335 1.6661568 1.0919002 -0.53385395 -1.1405956 -1.34499
504 2.092858 0.28052008 -0.077824794 0.35931104 0.32889146 -0.7789155 -0.8311415 1.5725403 -3.6122098 1.8730276 1.3251095 -1.425981 -0.9921695 1.4369695 0.15230374 -0.26965275 1.6438491 -0.9280345 -0.811179 1.0248058
2322 0.6458425 -0.27591148 1.952075 -0.77458805 -1.1501232 -2.9246917 0.13397662 1.5136263 -2.991691 1.1926874 -0.0026295865 0.14668629 1.6963272 2.8106713 0.8199053 2.1057372 -1.3911656 -1.0764258 0.36108994 -1.273439
1501 -0.23789328 -0.45894015 -0.3173595 2.4530363 1.8074266 -1.9237819 1.189835 0.7097105 -1.3652089 0.30444872 -0.2171982 -1.5308607 1.1021464 -0.48727953 0.52726376 -1.3965926 0.41823184 -1.0939128 0.10583045 -1.0466484
866 1.7470247 -0.24396855 -0.69546914 0.38493434 -0.08871844 -2.2029746 1.1073314 2.3695242 -1.4269739 2.2066877 -0.46046412 0.2992609 0.43193677 -1.5766814 2.1270695 -0.16848558 -1.7632909 1.1179261 -0.8690536 -1.9149941
1718 0.428904 0.060678117 0.7818418 0.7013745 -1.4200671 -1.1834533 0.32887825 1.7337129 -0.9353257 0.39738652 0.5461148 1.1172826 0.16884917 -0.54537284 1.5253716 1.0919521 1.3757782 -1.1218584 0.9878667 -0.33102012
2077 -0.11537269 0.64847493 0.66940457 1.6959713 0.82008946 -0.39338246 0.51188236 1.205968 -1.8781677 1.3743852 -1.9255754 1.7262645 0.8909019 -0.24214219 -0.5996297 1.6762457 0.17750795 -0.12927736 -0.09779297 -1.5709915
257 1.4486543 -1.8267452 0.32596022 1.0030845 0.4321839 -0.70951825 0.9186726 0.1647474 -1.6292802 0.51207936 0.12603617 0.7559249 -0.31572613 -0.82741 0.4518999 -0.22328334 1.0376947 0.061843667 -0.17741449 0.38005722
1648 0.6395214 -1.3855095 0.11778367 -0.21432036 0.79291487 -1.558213 0.5930451 1.5409808 -1.2708535 1.0416512 -0.3977336 0.8638408 1.4022235 -0.77762824 -1.7436302 -1.4909776 0.68317145 -0.6240091 0.6203467 -0.095429905
497 1.5876093 0.5476419 2.1078155 -0.102621146 -0.7696598 -2.7680554 -1.0075557 1.6475763 -2.8743038 2.6892881 1.763096 -0.10233527 -1.1477087 0.90181077 -0.08533426 0.2895019 1.8164062 -0.94636667 -0.5025022 0.47386315
965 0.16107978 0.6323718 -0.07357639 -0.26396585 -1.1234889 0.07602227 -0.60235894 2.4688895 -1.6273682 1.6391293 0.8399615 0.64142245 0.030774081 -1.0413859 0.26833075 -1.645596 0.4787739 -1.378156 -1.4353253 -1.5071628
1123 1.863808 -1.9869608 1.240742 0.15727723 -1.2671318 -1.4079599 0.44486097 3.2475948 -0.24557681 2.8725548 -0.7076362 0.66302323 0.31482026 -0.03064576 1.1722517 0.04966791 -0.5920463 1.1886071 -1.6934922 0.51759714
616 -1.505171 0.7483979 1.0852159 -1.4058028 -0.2065956 -1.983853 1.3265469 2.3489695 -0.7396966 0.98794955 0.77545255 -0.18705133 0.23254171 0.20271789 0.7611674 -0.0364704 0.5517164 1.3223614 1.0948328 -1.6284666
1276 -0.12900232 -0.115732506 -0.058763955 -0.46388388 0.99969953 -2.7045393 0.5642901 1.1083617 -1.183189 1.114324 0.34897006 -0.005151688 -0.1268932 -1.0526321 1.235375 -0.26502353 0.30180874 -0.45852497 -1.0631226 0.70849246
1235 0.8460274 -0.248202 0.45288277 -0.9604296 0.74896735 -2.6433096 0.93450063 0.25731507 -1.5149022 2.7246742 1.4074007 -0.6205085 0.8577495 -0.34094417 1.2552179 -1.4134932 0.13259053 0.22505133 -1.6158835 0.48175976
2090 0.6606542 0.4705576 -0.8436449 0.37704656 -0.9737093 -1.8916295 -0.23567285 2.5307932 -0.29723737 0.97449976 1.4131112 -0.48832867 0.7752991 0.6901985 -0.087102845 -0.33139446 0.31632373 0.16193609 0.5808458 -0.7824822
987 1.0191458 -0.35058808 0.77766466 0.47527602 2.737326 0.38884276 0.21380794 1.1853743 -1.2272884 1.6789316 -0.020931315 -0.19005188 0.4351413 1.0234776 0.9993769 -0.32468823 -0.15771885 -0.77219194 -1.0527787 -0.16497111
694 1.0285556 -1.0116736 0.3904261 -0.747894 -0.6948446 -1.5511137 -0.5617653 2.2257547 -1.8287237 0.8351387 0.100853026 1.365061 2.198411 2.3434687 1.1267172 1.2786399 -1.5165136 -1.8003985 0.38370213 -1.8409553
300 -0.2736999 -0.6529683 -0.74170905 -0.2200866 -0.79707474 -2.624925 1.6095926 0.7598482 -2.4157248 0.85707366 -0.5886668 1.6263845 -0.030686807 2.7433703 0.98700196 -0.36686832 -0.17488313 1.2571796 1.8737701 -1.8179209
1054 0.30831233 -0.19290406 0.16097957 0.928482 1.5977112 -0.67232174 0.78943115 1.1241053 -1.0492655 0.9197465 -1.5599095 -0.99688506 0.55234396 0.11853813 1.6386898 -1.301162 0.3111741 -0.053231385 0.19148196 -0.4939815
1250 -0.05960603 -1.1111745 0.5035513 0.6975947 -1.7961735 -0.36907414 1.757214 1.7057626 -1.7375803 1.2359931 0.71970356 -1.2264899 0.039459407 -0.36194402 0.86410385 0.04681916 1.0520339 0.6530557 -0.40730396 0.41315782
1288 1.0865271 0.25997457 -0.9454796 0.4653365 1.6694844 -0.85532886 0.8702469 -0.011060522 -2.0196218 1.7617929 -0.64466345 0.12876976 -0.13561717 0.1033985 -0.15222709 1.2833344 0.26367825 -0.38908282 1.6837007 -1.0956196
1365 -0.109966785 -0.8556811 0.17016499 -1.0721796 -0.82638115 -1.5526816 2.7063684 0.6439134 -3.1149957 0.14301965 0.63396275 -0.08894309 0.6459406 1.5730442 -0.6573901 -1.9550356 0.8471354 -0.70792466 0.78884405 -1.6274762
2036 -0.8379076 0.6046562 0.8546176 0.23030469 0.5544998 -0.24343579 0.5908294 0.42321327 -1.7808701 3.0088744 1.665412 1.9869264 -0.11718789 0.41837737 1.6334141 -0.5697604 2.5430028 0.52601326 -0.8857381 -0.5245402
2338 -0.7158221 -2.036364 0.42173868 -0.8669047 1.029004 -2.0086744 -0.495389 1.9477177 0.11807938 1.711774 0.80601686 0.5184301 2.138901 1.0182351 2.4013953 1.1468294 1.1455779 0.78184897 1.0999233 -0.5282118
328 0.81140405 -0.3189335 -1.0867975 0.63482755 0.81616396 -1.2085795 1.2242994 -0.60253847 -3.7426684 1.2286952 0.29299492 2.3068936 -0.78838176 -0.09341464 -0.17373314 0.8615367 0.28329638 -0.87045103 0.26729223 -0.73823136
2578 0.8312582 -0.8888081 -0.6726453 1.7300054 1.558965 -1.4623941 0.5894517 0.7100125 -0.947099 0.0023136204 -0.19702572 0.6993728 -0.21682219 0.2428288 0.9701074 -1.6490331 1.2443129 -0.5883957 -0.45386863 -0.8458899
1021 1.363342 -0.92014337 -0.22100413 0.77385813 0.9497644 -1.7901903 1.163889 0.13636805 -1.1632413 -0.40604705 -0.42320728 1.1147918 0.49720502 1.0195696 1.4071865 -1.4661146 0.9207835 -0.4876577 -0.9484538 -0.8171223
2321 -0.11614063 0.7784542 -0.12891856 0.8408091 -1.0647867 -1.8741735 1.5339576 1.4518524 -2.419516 0.67171687 -0.4731945 1.1044397 1.2677499 3.395778 0.53061545 -0.39156398 0.42027137 1.8353745 -0.35590217 -2.484904
1271 1.911197 -0.77745384 -0.96326935 0.37047037 1.3521858 -0.7533307 0.7694921 0.3373323 -0.9462234 0.77738845 -0.37012947 -0.030129889 0.27625465 0.4242536 0.3871448 -1.8333635 1.2646805 -0.47308388 0.100620024 -1.3476175
1061 0.4023206 0.28864673 -0.6408295 1.2808801 -1.6653287 -0.68465585 -0.39767605 1.794625 -1.5641758 0.7635894 0.03184615 -1.16207 -0.28711963 -0.1327908 0.8676432 -0.4034496 0.9203503 -2.050647 -0.3483552 -0.56083626
241 1.187482 -1.1333327 2.4551563 -0.40052456 -0.4072728 -3.8789384 1.7016804 2.2655642 -0.90112716 1.6043166 -1.1166366 1.0814487 1.7544094 1.8230563 -0.38718352 0.7136061 1.4016923 0.11818212 0.7860896 -0.5314172
1785 0.876268 -0.36137274 0.94426805 0.95273596 -0.8561498 -0.04575908 0.5532295 1.2316213 -1.2714813 0.11754047 0.86194134 -0.010517741 0.5719951 -0.34585938 -0.43496042 1.2153215 1.6279745 0.11195753 -0.88221335 -0.51062727
1489 0.6140227 -0.80806893 2.0986092 -0.30211622 -0.8347573 -0.024752231 -1.6621596 1.5301244 -1.0584935 1.6677041 -1.2306154 0.71899974 1.9075483 0.56608146 1.9581658 0.8563182 0.47003216 -2.1743171 0.91784877 -0.9777066
161 -0.9934916 -2.5648658 -0.29645392 0.8216927 1.1585124 -0.9420583 0.8679697 0.15177064 -0.43476942 1.7147822 -0.5200386 -1.1785458 0.26472032 0.63180494 0.6421919 -0.3191178 1.6211572 -1.2894489 0.8148885 -1.3500932
1452 0.9686634 -1.5472842 -0.43512818 0.9481687 -0.46653658 -2.1854825 -0.78499293 1.1192117 -1.9837558 0.1782507 1.1313705 2.0048046 2.1254847 1.9728378 1.2191194 1.1059577 -0.66267556 -1.3229134 -0.18284287 -1.6292188
249 -1.0090685 -0.29448774 1.281861 1.15074 0.006469956 0.32991436 0.82734954 1.2054765 -3.2082725 1.7451949 -0.36247385 1.9017798 1.3986608 -0.34398982 -1.3341941 0.8802888 -1.0424083 0.73937523 -0.76232517 -0.9582174
935 0.5961463 -0.9729748 0.0082144635 0.4192827 -1.8807131 -0.9586762 0.4753073 0.73021275 -1.3323526 1.6681964 0.24281321 -1.503215 1.3315736 -0.99466985 -1.0087292 1.3788762 1.608401 0.5624089 -0.3727825 -0.6343849
1258 1.0245074 -0.7382161 0.75403893 1.3620996 -2.6816196 -0.74477154 0.35246703 1.8412619 -1.7937593 1.0309024 1.0094645 -0.34205487 -0.6762925 0.36984092 0.04748522 1.1153668 1.1671667 0.55428106 0.10179584 -0.838337
777 -0.024823632 0.01374687 0.72808194 1.379508 -0.2349374 -1.0444114 0.4095308 0.8267372 -2.8355727 0.15794994 -0.7796973 1.3798554 2.2133517 -0.27967897 -0.9070894 1.5800595 -0.5475641 0.14470749 -0.6373229 -1.4098665
408 -2.5065207 -1.4395217 0.5585153 -0.35210615 -1.0680853 -0.6743186 -0.014253943 1.9759656 -0.9935371 2.5717795 -0.4903146 0.97781223 -0.3775972 1.8085109 1.8979748 1.7569722 0.4519537 -0.49605837 1.8528992 -1.316092
685 -0.44702977 -0.69439995 1.3174378 1.0526704 1.0085746 -1.2308044 1.3262548 0.117528714 -3.166951 -1.4444079 0.40485367 -0.66898525 1.9330349 1.2027335 0.5927397 1.1821373 1.1606274 -1.5679624 1.0932481 -1.4144874
1492 -2.6685512 -1.2348392 1.672474 -0.5099779 0.64190376 -1.4000696 0.041665856 1.4648209 -2.638095 3.211811 -0.13972063 -0.6430669 2.556475 -0.27875257 0.9568363 1.3966919 0.8312989 -1.8257033 -0.014672484 0.7203912
1583 -0.011635104 -0.8907409 0.26217994 1.2016718 0.89137834 0.2517398 0.8853431 0.43537292 -1.7314758 0.31681857 -1.1580569 0.885636 1.3241004 -0.21906187 -0.7460015 -1.2195172 1.0326545 0.2487131 -0.93198735 -0.8762786
486 0.3969588 -1.2904756 -0.10317958 1.582681 0.47315362 -0.33333752 -0.77332395 1.9441386 -1.2568337 1.501706 -0.97357506 1.8129431 0.8996426 -1.3994129 -0.46893233 -1.0234283 0.018785954 -0.51351935 -0.49733612 -0.51908565
1127 1.4250911 -0.2620467 2.9102852 -0.41638824 0.18209288 -0.31025398 0.8905623 0.9551772 -1.275602 1.621191 0.9091508 1.2297105 -0.096160784 0.4777914 1.1661488 0.9950694 0.2015117 -0.27075538 -1.3263589 -1.5482769
1525 -0.06646071 -0.29401356 1.0553749 0.5155358 0.44586548 -1.3318613 -0.8692599 0.6782533 -2.4190235 1.958465 1.711076 2.0486617 0.54648525 2.1751494 -0.7226207 0.4884563 1.2278968 -0.35242623 1.8679843 -0.9475475
971 1.332874 0.13944854 -0.8011157 0.47788566 0.20835511 0.21971805 0.14148806 1.2732488 -1.8598118 0.022793083 1.3063344 -0.10748067 2.3831584 -1.5617671 -0.4670751 0.311532 1.2301267 -0.3275041 -0.4870285 -1.5947585
261 -0.47900513 0.1329123 1.8738298 2.2022016 0.94607323 -0.83934224 0.3659145 2.0701137 -2.01918 0.8321615 -1.0944494 1.9421246 1.6115984 -0.688662 0.3148104 2.1791775 0.21993883 0.4691779 -0.3889017 -0.7498551
1578 0.20001605 0.57339406 0.23178683 0.66819054 -0.40922007 -1.2409618 -0.105997615 1.6947505 -0.27212712 -0.016221562 -1.7540752 -0.04398053 0.46682754 -0.37042522 0.09481011 -0.04785505 2.3514922 0.28098255 0.66428334 -1.2841446
1213 1.3289518 -1.1816509 1.7417496 -0.52864397 1.1746889 -0.11958044 0.6744272 2.0150325 -1.3066752 1.5167742 0.9965485 2.3204207 0.22846833 -0.27109095 0.22426242 0.8019629 0.43907776 -0.19778733 -1.8153796 -0.67210454
1571 2.0782466 -0.3183123 0.00440398 0.88288444 1.8859509 -0.73845106 1.126972 0.0734512 -1.6615506 0.7010309 -0.021267133 0.98897344 0.4018469 -0.5929009 1.6105126 -0.79294014 1.1575547 1.3792315 -0.018367546 -1.0465697
2172 -1.1112578 -1.533481 1.0005472 -0.8499631 0.424565 -1.5327047 0.92400014 2.0218077 -3.389864 -0.5694592 0.9061374 -0.68539464 -0.21371384 -1.6198894 0.4188644 -0.1425465 0.58202016 0.82229656 -1.0321726 -0.093652986
1063 -0.62309796 0.0026193934 -0.38103297 0.76831055 -0.15053627 0.29429817 0.54920614 0.8696002 -1.719859 0.11168381 -1.7100801 0.7746053 1.6648355 2.0220094 2.8616161 0.7960282 0.5500711 -2.0790677 -0.41137865 -2.4572935
19 -0.10851449 -0.3745899 0.033021193 -0.8259302 0.04306779 -0.14570992 -1.9103049 0.96059716 -1.5021054 1.1532221 -0.29835516 0.15724099 0.7476203 1.0407169 0.90047544 0.17548485 1.2737646 1.0508016 0.97887015 -1.1778126
1007 -2.1527603 0.8127729 -0.08898231 0.3669504 -0.17548473 -1.235558 1.7672673 1.0074805 -2.2453523 1.1913184 0.51326305 0.08331898 1.1363924 -0.1694111 1.2120794 -0.7555857 -0.5813655 0.958665 0.37243715 -0.2808754
1316 0.5703986 -0.23200691 0.24677838 0.3696741 0.17061429 -1.0948492 -0.82326204 0.5055105 -1.0233237 3.301729 0.23779352 -2.221977 0.75257015 -0.45528644 0.47588047 0.5987381 -0.6612885 -1.1364223 0.65160084 -1.8130891
1690 0.22123416 -0.5529846 -0.92729455 1.4436762 -0.751928 -1.0129488 -0.82447726 2.4225821 -0.7990526 1.1067494 0.8168218 1.0955389 -0.37594977 1.07974 -0.422272 0.82995343 1.8183035 -0.77119875 -0.7385029 -0.077323996
346 -0.46679163 -0.15158825 0.64543426 1.0342832 -0.16469313 -0.11209842 0.36250174 0.3762401 -1.4467824 0.85025734 -0.7088434 -0.51160645 -0.98318094 0.7716671 -0.6289778 -0.33410448 0.43000513 -0.3971977 1.2031693 -1.4683601
789 -0.014218996 0.6119035 -1.743816 0.90925854 1.4621782 -0.8889537 1.5466434 0.44159868 -1.8771218 1.6246996 0.31671318 1.0222635 0.24546342 -0.1592974 0.22256649 0.8395601 0.17641313 -0.36717334 0.30923873 -0.7701153
420 -0.60701424 -0.4151047 0.7037225 1.7052447 0.7616571 -0.042357475 0.81238335 1.0950855 -2.296581 0.82835996 -0.45541865 1.3918799 1.3063645 -0.73398495 -0.18006054 1.2175226 -1.0950515 0.1285023 -0.6164723 -1.1359396
1748 -0.5103165 -0.05061527 0.58888745 1.7974972 1.0636301 0.32218271 0.9403026 1.3686613 -2.1734192 1.4002097 -0.60207236 1.8516743 2.341558 -0.83972466 -0.5149258 1.5547433 0.071714915 -0.98880345 -0.6800504 -1.0587696
1173 -0.48058462 0.26080123 -1.3632802 2.614938 1.2931442 -0.47195238 0.9736056 0.055303883 -1.3374939 2.0138164 -0.19132805 1.3236966 0.43182543 0.18039322 0.5047122 1.6180135 0.78150564 -0.982952 0.08657663 -2.299154
400 -0.433744 -0.38115564 1.2784079 0.9869187 1.2126132 0.18571715 -0.7021249 3.1635733 -0.7470079 0.4519333 -0.6039873 -0.15449639 -0.6912844 0.09860523 1.2033818 -0.76430655 2.8404553 -0.8610809 0.25299987 -0.26934877
542 -1.4123745 -1.2334045 1.3540015 1.9189856 0.4684929 -0.68112624 0.35967374 1.0029049 -1.5871515 2.917348 0.11094648 1.7981621 -1.5051038 -1.0637918 1.3739651 -0.13640708 1.2489318 0.581984 -1.597139 0.01226937
821 0.25877675 -0.861004 -0.2147213 0.9954152 -0.4872769 0.378439 -0.8403316 3.010037 -2.963753 0.8062777 0.40318248 -0.6401618 0.34933147 2.4947472 -0.8654897 0.29571348 -0.31259233 1.2222408 0.61437935 -1.369488
297 -0.007926041 -0.40277657 1.6922014 -0.60563064 0.79937893 -0.48562306 -0.06290979 0.55818796 -1.6102585 -0.0030870507 0.34512344 -0.19772397 1.1683685 -1.3364413 1.7733442 -1.0987554 1.5689933 0.24953836 -0.35751566 -0.82996297
325 0.314173 1.1009984 -0.07140034 2.0078738 0.813559 -0.97938156 1.3022078 0.61235285 -3.7242298 2.0308812 0.5036233 2.6670399 -1.4849908 -0.27532136 0.2940196 0.6252301 0.8055707 -1.4654027 1.163312 -1.2956117
304 -0.13307072 -0.9729418 -1.3837129 -1.1003128 0.8907781 -1.385259 -0.2838409 1.5694481 -1.3622307 1.2258817 0.34209472 0.2944448 0.28714028 -1.2941958 0.8134837 -1.6175952 0.17058457 -1.0316774 -1.0604722 -0.47358924
2344 1.4530396 -1.9599675 -0.9729698 0.31053057 0.0730382 -1.1404169 1.0517577 0.152029 -0.9989788 1.0254799 -1.4791058 0.1699932 0.55796933 1.0004395 1.1959937 -1.27132 0.6280328 0.5423412 -0.37674764 -0.612317
1855 -0.43101618 -1.1119806 1.4924026 1.732539 0.49095246 -0.53464156 0.47495958 1.567064 -1.5600388 1.3481214 1.0970327 1.0549175 -0.1257476 -0.5834853 0.13752557 -1.1948167 -1.5089649 0.5400663 -1.4679458 -1.7701081
481 0.8665523 -1.224442 0.75436157 0.3446095 -0.9865103 0.38145342 0.08293579 0.5307214 -2.3169534 2.514879 -1.2748903 0.86121774 0.33485377 1.1368494 -0.028506977 -1.2487923 -0.9391487 0.21537612 0.7892616 -3.0302336
1534 2.3359277 0.4722039 -0.7103877 0.856303 -0.20906232 0.10021008 0.7808223 2.4455063 -1.1234283 -0.24817032 1.8792368 0.60709286 2.9695203 0.29479155 1.566339 -0.10262252 2.5128105 -0.55096304 -1.669564 -1.2405485
1103 0.3835939 -0.45944715 -0.023712216 -0.010859684 0.81432384 0.097865954 -0.3341541 1.6303555 -2.5996373 1.8291093 -0.80229574 0.12668478 -0.015670111 -0.24664515 0.7780213 -1.4761689 -0.32312253 -1.3467822 -2.7321382 -0.3070492
1953 2.6952271 -0.6440844 1.13443 1.1864024 -0.6813913 -1.818423 -0.78900313 1.2058342 -2.4463549 1.2186806 1.4341937 0.009019253 -0.07821369 0.8740227 0.246639 -0.35570568 1.733219 -0.16677774 -1.7330049 0.6543383
1535 2.2190206 -0.82965404 1.0638071 1.3194072 -0.28394493 -2.2929559 0.6354555 2.2033613 -0.7995835 1.42082 0.42719612 1.2726822 -0.83656275 0.9919952 2.1309576 -0.68265307 -1.2681537 -0.3744887 -1.9016385 -0.5100556
273 2.1445897 -0.90092546 1.004831 -1.0097517 0.31489605 -1.3203337 0.97228694 0.9552467 -3.5283713 0.7928045 1.0946662 0.3701283 -0.55431604 0.3869477 1.0753125 1.5188543 -0.7635584 -3.187786 -0.18013446 -2.6074648
143 0.15354158 -0.5582696 0.25407988 -0.98685724 0.73397934 -0.54139334 -0.93786526 1.3473094 -1.6620643 -0.07158598 -2.3195016 -0.015664846 0.4312449 -0.93290806 1.6105089 -0.67048305 1.03094 -0.20892508 -0.8473411 -2.0211616
2584 -0.413297 0.99052966 0.33636695 0.9073098 2.3533578 -1.5446566 -0.74807584 0.7737833 -2.0708501 0.686501 -0.007633653 2.106348 1.0330768 -0.306681 0.81968844 -1.467088 1.1359422 -0.34263495 -0.08480533 -0.16402885
1459 0.4628036 0.27017242 2.242705 0.49658605 2.340709 -2.8493886 1.0514832 1.2702601 -0.58707327 2.4533703 1.6712834 -0.3676389 0.12926963 2.8245769 -0.11027888 0.18334751 2.2371058 -1.7933348 -1.011589 -2.4296992
595 0.9864734 -1.7130405 1.0243776 0.4465381 -0.7554642 -1.8304763 2.2959251 1.4423345 -1.2926975 2.8945663 -0.20936832 0.6398534 0.15760538 -0.44283202 2.2702708 0.43101212 -1.3243068 0.46824685 -2.0546274 -0.5723765
624 -0.34521955 0.31814706 -1.4487199 1.9657304 0.9348642 0.05723134 1.0209104 0.34785885 -1.3756939 2.1901345 0.77476746 1.7240582 -0.12884365 -0.1303952 0.43897566 1.2294546 1.2442948 -0.57259977 0.46025068 -2.1274865
1533 -0.03650132 0.7516888 0.047570072 0.5852015 0.42084792 -1.6687522 0.6491958 -1.0657601 -2.7934437 0.35936177 -0.4151811 1.538706 0.9122304 -0.41386256 -0.34370825 0.020742932 0.94787806 -1.1915295 0.67430365 -0.6003469
1080 0.8994934 -0.5921489 0.4331814 0.34091347 -0.46141446 -0.49357727 0.42540663 0.16542432 -0.4663247 2.5140266 -0.84694487 -1.2533252 0.3873828 -0.5318634 -0.0072170203 1.0267903 0.016243739 -0.56500584 0.8253249 -1.3692385
1079 0.50093853 -1.0063177 -0.912398 0.71933466 2.302926 0.32845485 1.9550674 0.58287066 -4.113985 -0.6881161 -1.4400464 2.0967922 1.7736695 0.32765293 -0.15839633 0.50285983 0.33084214 -0.9261817 -1.5089194 -1.963744
2263 2.813905 1.285618 1.1435286 -0.33391398 1.1061866 -2.3640811 1.1052592 2.8004184 -2.7530315 0.99794805 -1.3988092 1.269214 0.33054176 1.2966837 -1.645913 0.69597715 0.6742899 -0.050846793 -0.3082648 -1.5421154
237 1.9545809 -0.82293516 -0.9075946 -0.58641326 1.7853194 -1.1836888 1.1082159 0.956414 -2.08187 1.392689 -1.4007766 0.514991 -0.061419286 0.052998543 0.36024138 -2.200381 1.7241412 0.28828776 -0.39652118 -0.75540906
1254 0.52373934 1.4326047 0.1942964 -0.181381 -0.83291936 -1.007265 0.11270051 2.061298 -1.219823 0.9800216 0.75254375 0.74792504 -1.0593119 -0.66441256 -0.011154422 -0.712057 1.2301105 -0.37764373 -0.18624432 -0.8824905
1955 -0.7878178 -0.29032475 0.1624299 -2.0294628 1.5239317 -1.8941295 1.0698432 2.1589546 -3.0982618 0.27287173 -1.5992673e-05 0.281924 -0.9823394 -0.08954174 -0.23418595 0.80734116 1.4704667 2.280307 0.48563975 -1.870761
1859 0.38111773 0.021758605 0.31874797 0.8857099 0.9103395 -4.0392237 0.2616019 -0.37002888 -0.17023557 3.431293 0.8824029 1.428725 0.055862978 0.47081903 0.2085766 0.3139526 2.8723776 -0.5652231 -0.31370753 -2.3503351
96 0.39277494 0.48533925 1.1256915 0.47539252 -0.18821076 -1.4835641 2.1116683 -0.6552271 -2.1016774 0.8042463 -1.0235854 -0.6771553 0.9336902 2.1024299 -0.29255122 1.5574319 1.6647646 -0.69836146 -0.553585 -2.3892312
1982 3.1852734 -1.5107 -1.3114475 0.45685208 -1.2058309 -2.4338734 -0.38384074 1.1153923 -2.8496647 2.654862 -0.73233867 0.31634945 -1.4665487 0.38911697 0.32572833 0.5207695 -0.8498075 -0.8756331 -0.9447048 -2.2050745
729 1.7051271 -0.3375134 0.060662616 0.19096974 -2.286751 -1.924816 0.70736897 2.241419 -2.0102065 -0.34745258 0.3540195 0.09652867 1.3182839 -0.044317346 0.5496218 0.102921836 0.012524631 -0.75404704 1.1989771 -0.4578115
1650 -1.6664964 0.7699736 -0.351023 -0.277984 -0.82741904 -0.28238666 0.49307904 0.6058259 -1.0480828 2.0871012 0.8359925 0.19195497 1.3654009 -0.93997794 1.5152022 0.28977454 -0.08426312 0.3988374 -2.0399847 -2.6303158
820 1.3522261 -2.2468774 1.31817 0.14056493 0.9966581 0.08106922 0.9628553 2.509243 -1.8668926 1.9081817 0.8149769 2.449626 -0.043029997 -0.8837943 0.6834397 0.8205231 -0.04261154 0.4632155 -1.8733271 -0.54120004
1757 -0.62287945 -0.6613813 0.047302626 0.68348455 -1.2766273 -2.6490836 -2.3174436 1.0268196 -2.203748 1.7354643 -0.2982568 0.08688084 1.4035361 -1.0467985 -0.24016735 -0.1667409 3.1377962 0.5341218 -0.21844147 0.58035165
1643 0.025339467 -1.1851174 1.0888187 1.5179164 3.2754354 -0.11697301 0.5217341 1.2062601 -3.0116725 1.5984032 0.80428463 1.9155588 -0.25724402 0.95470417 0.690774 -1.5374272 -0.30528218 -0.91781974 -2.2699592 -1.2335231
2071 0.5032372 1.0690465 1.9807898 -0.36174193 -1.6555444 -1.5082362 0.47560275 1.9170308 -2.2699988 2.5996115 -2.2349677 1.7520684 0.3014002 2.2906842 0.7512897 0.9232868 -0.405021 0.80882096 -1.2379068 -2.5829992
383 1.3356534 -0.4550775 1.3873718 0.12442612 0.7764778 -2.0211456 -0.7930686 1.0589353 -3.1243012 0.5386912 0.23009905 0.925829 2.6543782 -1.922331 2.1784832 -1.7769936 0.95121735 1.5852847 -0.95749784 -0.55256665
2501 0.5923789 -1.6039549 0.59005183 0.20062579 0.7231576 -1.0279583 -1.226504 1.1008105 -1.8163408 1.3915668 1.1246058 1.2912073 -0.02434028 0.10490595 0.5781774 1.0418221 -0.47185835 -1.2376446 2.0054448 -1.6028215
366 1.3991005 -0.0087942695 0.16670802 0.56087846 -0.5014633 -3.643236 -1.734713 0.44219923 -1.8860393 1.5640333 0.21552634 -0.15999281 0.5297839 1.3440338 -0.109085426 -0.5836567 1.1469579 1.6084248 -1.8941847 -2.6613069
572 -0.25131688 -1.0790902 -1.5739111 2.3472798 0.32159168 0.13293223 -0.62836903 1.1534554 -1.7238684 1.4108431 -1.3149486 -1.5085566 -0.22435448 1.2297645 2.4454935 -0.3405731 -0.8683893 -0.9755551 -0.39958853 -2.9844935
1898 -0.33367023 -0.58940077 0.60738057 -1.0170418 0.8011843 -0.9918116 1.9703008 1.508953 -1.699598 0.71209323 0.9439148 0.4598455 0.8124763 0.4938533 0.8885217 -2.550864 0.49529395 -0.098788865 1.0236562 -0.79501975
1410 0.19021669 -0.5558801 0.94005644 0.3996793 -0.62114197 0.33336326 -0.3081366 2.6591535 -0.70455486 1.3331995 1.1948304 0.05293198 -1.0857831 0.32975802 -0.66382927 0.083810836 1.7472625 -1.1236521 -1.1684668 -1.1017151
97 0.3751756 -0.2651608 0.41696426 0.060106985 0.565309 0.0007371622 0.11006179 1.452658 -1.1791062 0.8159306 -0.2948415 0.17745672 0.59172386 -2.2234924 1.7979012 -0.04292607 -0.38603556 -0.08629435 -0.8873539 -0.93136543
2687 0.07789127 -2.1432636 1.4149828 1.3253512 3.6386733 -2.5091844 -0.496387 -0.27796894 -0.91414225 1.9131795 -1.1092992 -0.33188838 0.6963363 -1.1820649 0.39634928 1.3325274 0.81344587 -0.24433216 0.6083548 -2.4814806
1112 0.93047065 0.13322063 -0.1591511 0.8896816 2.4803832 -0.74218404 1.6301404 0.51931465 -1.7833542 0.7102063 -0.83967173 1.8479619 0.5389325 -0.095988564 1.4610679 -0.27248114 1.0275791 1.6084228 0.08454971 -0.79991895
713 -0.9050688 0.74494344 -0.3107401 0.56207836 -0.756298 -0.6987911 0.21059252 2.349626 -0.524509 0.8734562 1.72019 0.5959367 0.51027983 1.6804442 -0.18983956 0.1810217 0.51026374 0.098825395 -0.23888686 -0.5646041
2312 0.048842333 0.8578659 1.5154102 0.44420442 0.9726363 -0.9690017 0.48360455 0.6024233 -1.694991 0.097268045 -1.4277436 -1.4982249 1.9184815 0.6641766 -0.4902789 1.2884749 1.3804699 -0.53239256 -0.035929043 -2.1981988
1833 -0.047977556 1.5712063 0.9201516 1.6447326 -1.098686 -0.67586493 0.6494295 2.9345384 -2.3754747 1.1880908 2.4351864 0.45206586 1.8387811 0.15661381 -1.3516489 1.8419278 1.6777705 -0.7241821 1.1805854 -0.51144433
193 0.12828732 -0.6125928 1.4636489 1.0760663 2.0217237 0.22994371 -0.090176105 1.198895 -0.69984895 -0.096542306 0.23168038 -0.22873954 1.2169149 1.238682 0.3219574 -0.13973743 0.69418204 -0.69232184 0.11998032 -3.7137358
1813 0.65015036 -2.1202471 0.091492474 0.08669983 2.2689993 -0.22342125 1.0447947 1.5125237 -2.4114347 0.9555887 0.41108242 -0.40649417 1.2435995 1.5035567 0.64663315 -0.57127583 0.39400652 0.48675036 0.05384219 0.90774244
109 -1.3004652 0.74304074 0.6820218 1.0602303 0.96302664 -1.1019728 -0.42525864 0.53190774 -1.8469536 1.6094934 -0.7169098 1.4580511 -0.695479 -1.0931371 -0.16187312 1.8575383 0.6599044 0.22617057 1.2134749 -4.0222263
1199 -0.883763 -1.453669 -1.4612408 -0.5794051 0.29195508 -1.0961221 3.5802531 0.9723883 -1.9591142 0.7266222 0.25224456 -0.06468989 1.2833644 0.33557385 1.7937831 -0.29692358 -0.3388994 -0.36760938 0.044062328 -1.75726
2326 -0.6312948 -0.56095517 0.39404866 -0.23013006 -0.24286622 -0.76970625 -1.4626112 -0.32157904 -1.9088337 2.1668787 -0.5367916 -0.68028617 1.5292575 -0.79885787 -0.298722 -0.04081777 0.5476536 -0.6480534 0.93943566 -1.1416439
1273 0.85188925 -1.4391831 -0.28742084 0.69585824 -0.50862116 -2.1843534 -0.58501464 1.0453422 -1.9524328 0.20409872 1.1841818 1.8378421 2.1295667 2.0184684 1.3566571 0.9926363 -0.84822065 -1.1586647 0.014874842 -1.7637712
1330 1.6126499 -1.1336457 0.13425282 0.7302467 0.13921595 -3.2504885 1.2079127 0.35150173 -1.5561727 -0.32292366 -1.4610578 2.2955365 2.0448468 0.5795649 2.1451504 -1.8085713 0.5009513 -0.32788002 -2.0758722 -1.0452893
1156 0.27580553 -1.5112696 0.9679284 0.4899663 1.6947001 -0.0064429 0.5183717 1.9717852 -3.2523572 0.8296703 -0.47820103 0.44689062 0.14198048 1.306303 2.1390631 -1.6909258 0.1090296 1.295736 -0.23925063 0.88717073
1810 -0.32573056 -3.149809 0.5073906 1.5241647 1.129226 -3.335714 0.5078344 1.3527391 -1.9198459 3.0398033 2.8993003 -0.88537633 0.7440115 -0.9924935 0.6178109 -1.2002983 -0.99249655 1.8021951 -1.7530023 -0.97750884
2229 0.6027957 -1.6454858 1.5876837 -0.091040544 -1.1273248 -0.85996544 -1.4868165 0.55588144 -2.804863 1.3489758 1.3154218 1.1085082 3.7235036 0.9936343 0.035606366 -0.74207604 1.4316432 0.42921302 1.8689069 -1.1427225
974 -0.70089483 -0.61463714 1.5548314 0.6972137 -0.16684195 -3.1441534 -0.07868988 1.9542326 -2.5293798 1.1799775 0.3889651 -0.44858614 0.57399505 -2.2076526 -2.3027556 0.07143704 0.04207495 -1.0084808 -0.15912558 -3.2252545
415 -0.3722987 -0.83974135 -0.30629876 -0.6607757 -0.5034442 -0.88797504 0.5784707 2.4096692 -1.770897 1.8681558 0.5190324 -1.4565856 1.5125527 -0.67570657 -0.06865468 -0.5048168 -1.1181694 -0.22111514 -1.6158798 0.14409508
809 1.0730536 -0.93483424 0.84548485 0.7725768 0.55157614 -0.8597464 -1.7772756 1.6610719 -1.7060958 1.8513772 1.3933145 1.0345087 1.1677107 0.80792236 0.7060766 1.9558094 0.5671103 0.33092487 2.0850897 -0.8024771
2179 -0.9769245 -1.9609274 -0.99652874 2.4355984 -0.7760793 -1.0049574 1.0946903 0.49182302 -2.1081553 3.2196643 1.0647204 -1.4633634 0.07326892 1.4916463 1.9614661 1.105604 1.7587366 -0.18933204 -1.5230409 0.51265895
1876 -1.4861271 -1.8140322 1.4571038 0.2123308 -1.0877212 -0.0888182 0.039526355 2.4451456 -0.7601697 1.9665211 -0.77939916 1.367901 -0.6722926 2.246714 1.9638355 2.4517465 0.7257695 -0.022201935 1.2499247 -1.3200597
1378 0.421242 -1.4031601 -0.032067373 2.7229733 3.027039 -0.062048793 0.5866319 1.8845898 -2.3240125 1.2985159 0.58479077 1.6636875 -0.8786333 0.04845969 0.46681085 -0.96458846 -0.46578535 -1.4346453 -1.4524562 -1.6361648
1505 1.9167497 -0.71536535 0.6440057 0.96852136 -0.49354133 -0.7469005 1.4549754 1.7366257 -1.4088815 0.50894755 0.08445131 2.0051892 2.3441656 2.0077443 -0.4482091 1.1252779 1.3088517 0.019262215 1.6509116 -2.9375212
2075 1.4803463 -1.4302154 0.8076285 0.13536702 1.5895437 -2.3117523 -0.4738209 1.421901 -3.1472738 1.8460184 0.36067396 2.1124117 1.0853049 -0.28444993 -2.0970623 -1.2949425 0.62935114 0.30218634 -0.019691536 1.0529844
1178 -0.34368417 -1.9636949 0.18266602 -0.227963 1.3049895 -2.2786958 1.964418 1.1035901 -2.7865653 1.791918 -1.4516923 -1.0185823 -1.4282691 -2.578205 1.9045192 -0.08955643 0.24472368 -0.032675695 -2.0414886 -1.6613808
1066 0.15471946 -0.9167798 -0.3339229 0.6963432 -2.5490987 -1.330779 -0.12943947 2.2002146 -2.3832636 0.8734442 0.53333914 0.36790854 -0.4667586 0.4755273 -0.22756821 0.0898092 1.183608 -0.9173728 0.24888825 0.49094763
290 1.6505492 -1.0098503 2.7674153 0.81902385 -0.9517437 -1.6019143 1.6541148 1.1261235 -0.18962364 1.3952427 -0.17421147 1.4549923 0.8646708 1.0656146 2.606373 -0.53778833 -0.31780064 -0.3272839 -1.707494 -1.8079222
1733 0.35407072 -0.834756 0.8195017 0.7093744 0.873847 -0.4812062 -0.086316034 -0.49912044 -1.7406858 2.1069922 -1.0302709 -0.6215042 0.5684714 0.06445084 1.4432454 -0.14752442 -0.20246463 -0.653795 0.7500454 0.3848028
2331 0.64004993 0.5212988 -0.70918673 1.8155199 -2.2459288 -2.8851402 -0.36606187 1.0893997 -0.764576 2.4953907 2.4896371 -1.1167548 1.1073785 -0.9129079 2.1041691 1.4447801 2.3296573 0.16639668 -0.1745742 -1.5094447
2538 -0.13409042 2.5442748 -1.2047353 -1.9421383 1.121671 -0.85075665 0.7030288 2.7360647 -2.5902748 1.2916552 -1.3883766 -0.9998774 1.1873046 2.2746513 0.3657176 -0.011765607 0.017098513 -0.24774072 -0.056049142 -2.6261313
893 0.8404344 -1.104789 -0.54335463 0.6930879 0.13462763 -1.2023048 0.5790961 -0.049339753 -1.7810988 0.6629583 0.82489395 -0.14991312 0.5680602 1.7297522 -1.3465623 1.1355742 0.3376506 -1.5536021 -0.90812397 -2.8904545
2216 0.3435969 -0.6468879 0.07784821 -0.5103804 0.5219751 -1.5070789 -0.23458977 2.0131438 -0.84937114 1.528085 0.10213814 -1.1508282 0.38273188 0.19499937 0.3915239 -0.36989644 -0.16891344 1.7488942 -1.6603904 -0.011631231
560 -0.4901651 0.40302718 -0.88257915 0.41647252 0.542371 0.27618897 1.2943614 0.13788977 -1.3027194 1.4944594 0.97018075 0.22737561 0.33609235 -0.8272225 -0.63543755 0.074792266 1.499728 -0.5309603 0.095542274 -1.5697783
2030 1.8155462 -0.34977958 1.4560729 1.1529738 -0.768425 -2.190423 -0.6177641 0.9442158 -3.2570157 1.311531 1.5181812 -0.36850724 -0.5028875 1.7396111 0.44173163 -0.4933087 1.9708543 -0.44965628 -0.8761935 0.576796
2698 0.5212192 -1.7177353 1.4207665 0.4654758 -0.016550666 -1.6267684 -0.25688812 2.42298 -3.3177185 -1.3596799 -0.64839274 1.9965786 0.021726608 1.5363841 -1.0107851 -0.76206994 1.5706829 1.0140464 0.04349684 -2.9413657
433 1.4685204 0.7364587 0.24619246 0.093469694 -0.7337055 -3.627052 0.252941 0.6336711 -1.1521581 2.247725 -1.0287813 2.2848246 1.2188307 1.0467242 0.008248755 0.84814304 0.16466986 -1.4016705 -0.7870766 -1.5353296
1183 1.6100191 -1.6115565 -0.3778065 -0.76143306 1.2924827 -2.7958784 0.6190678 1.0420773 -1.9987785 0.5864842 -0.46554804 0.3958038 0.20510936 -0.6991845 -0.98448557 -0.72760046 0.7286937 -0.17494535 0.53569984 -0.57274723
1443 -1.3445984 -0.3655369 1.3905692 0.19907662 0.24433364 -0.88546693 0.61184496 2.154909 -2.072406 1.1771505 -0.786013 -1.2449589 0.599071 -0.37878928 0.41016784 -1.3793986 0.3544405 0.24938256 -2.3557653 0.49611267
490 -0.6570898 -1.6642414 0.9258563 0.6307266 1.7332132 -0.6643594 -2.4844995 2.6681657 -0.36961624 1.4569643 1.6451265 -1.3035581 0.38291633 1.0429397 1.4454049 -1.8864498 1.455684 -0.16098799 0.7669813 -3.075561
256 -0.013971516 -0.36533067 0.6404064 0.6563533 0.19362836 -0.9309588 2.3111954 0.5382776 -1.302602 0.6899112 -1.0675983 0.1130784 3.045472 0.55509126 0.99094856 -1.2611624 0.14073473 -0.69873846 -0.73118263 -0.8461721
1293 1.3316456 -0.45729554 -0.6589083 0.893063 0.35884896 -3.5565627 0.08983651 0.56284654 -1.5713236 0.28244045 -1.8158395 1.3079804 1.0668797 -0.3643852 4.3424397 0.2271052 0.47799215 -1.0917494 -2.415474 -0.7123303
1609 1.2976074 -1.2661029 0.297962 1.7293946 0.6640172 -0.6709262 0.25197482 -0.13740711 -2.2019832 0.5392642 -1.677402 -1.4917144 0.33143708 -0.34203988 -0.07799101 -0.3820985 0.9678992 -0.10425842 -0.039211337 -0.5031856
715 1.1033357 0.33854288 -0.35835484 1.3367062 -0.6999134 -1.5540584 -0.31464255 2.0651522 -1.4147542 -0.016409164 1.4751017 -0.09042383 0.37048882 0.44494447 0.04197163 -0.34764466 0.8388667 0.7575058 0.55068487 -0.37104878
2653 1.1050475 -1.1306778 2.4493077 -0.41295445 -0.34007052 -3.7996008 1.6638491 2.2647293 -0.8746806 1.6229805 -1.1344551 1.1186188 1.8205627 1.7559395 -0.37738195 0.6657992 1.3773693 0.08386908 0.7476959 -0.540895
608 1.6439801 -1.013779 1.4839528 -0.28160214 -1.1474462 0.09048427 0.097496726 0.77807295 -1.7412217 1.1213892 -1.1296794 1.565711 -0.05846411 -1.6829678 3.0371578 -0.70812047 0.8089364 -0.30803913 0.5577775 -2.2445064
305 -0.46523947 0.56233937 0.6538725 1.1104574 0.98756033 -0.8879136 -0.6207348 0.8643842 -1.0831386 1.1151515 -0.81360537 0.4573608 -0.29367477 -0.7267389 0.23819445 0.97755164 1.9987278 0.5464458 1.845634 -1.4742074
2246 -0.38058755 -3.2201397 2.179224 -0.41466022 0.51557547 -1.8382746 -0.4373042 0.7496084 -0.12763976 2.2225091 0.17040147 0.8191687 3.4711738 -1.6790826 -0.42547172 -0.73484164 0.35232207 -0.4846119 -1.3911935 -2.171781
1994 0.35019267 -0.08152031 1.2639141 1.7758356 -0.38559482 -2.429285 1.4624798 0.9009774 -2.7444768 1.076067 0.02002699 0.5775572 1.6542257 0.13031234 -1.1679032 1.1671313 -0.62573284 1.4203762 0.21567456 -1.0341463
2195 1.3355569 1.1557404 1.6462754 0.7837034 -0.012374512 -1.4907779 0.22359754 1.4164063 -3.3526976 0.07026217 -0.664601 -0.10881966 -1.6997396 -0.1616647 2.0143468 0.6724072 0.10774771 -1.181708 -0.7286242 -3.8650653
1929 1.0681494 -0.66874015 0.105824806 -0.2472131 0.39757794 1.369923 0.45351875 1.2005061 -1.856777 1.5219721 -1.0914814 0.1228352 -0.32659584 0.81619 0.06599586 -1.454085 0.39504316 0.37477726 1.4850029 -3.1784687
1278 0.5176996 -0.2517513 -0.6232463 0.2426052 -2.0543916 -0.33253366 0.023815712 1.3791232 -1.20509 0.36801583 0.43569174 0.6732607 0.54824257 0.65957576 1.3458152 -0.7417212 2.391295 -0.46391 -1.8454138 -0.64270246
1118 1.0195144 0.5102774 0.1909593 -0.40111753 -0.31759587 -1.4207956 -0.37736732 2.8073719 -0.7622193 1.3806373 1.7716929 -0.5621171 0.9841169 -0.026378645 -0.964258 -1.0437586 0.09292598 -0.74503607 0.44520524 -0.44817147
139 1.0313361 -1.8551738 -0.45280874 0.6102636 -0.48701683 -1.1645124 -0.16894959 -0.22844051 -2.1761427 1.160456 -0.890448 0.918328 0.056057528 1.7771815 -1.6646107 0.07580019 -0.53578866 -0.89937705 -0.5066181 -4.1917295
590 -0.6265422 -0.11554526 0.50416917 -0.6755729 0.5297789 -2.5979652 -0.46204734 2.026336 -2.3816495 -0.6978611 0.13113098 0.50638735 2.074072 0.1499625 -0.44370311 0.27483523 -0.75560576 -0.80609727 -1.0365248 -4.043413
701 -0.7252201 -1.8580939 0.50373 1.7956439 -0.5044483 -0.6790808 -2.0278392 1.3688369 -1.9137017 0.469193 0.5456487 -0.61644334 -0.014160694 -1.0608815 0.5603416 2.4457679 1.5409801 -0.014143435 -0.44709155 -1.2812573
71 1.242834 -0.17653885 0.66491926 1.1523083 0.5226553 -1.2827572 2.6414068 1.7152996 -0.37885565 0.24138609 -1.5830524 -0.07828554 1.6614784 0.41883054 0.011270789 -1.1777791 -0.5340208 -0.51545835 -0.3356236 -1.6228015
1094 0.0031917866 -1.7781438 -0.123210214 -0.027323043 -0.73862803 -0.011372206 -1.2031368 0.2856231 -2.9159608 1.5584513 2.0102084 0.9025744 2.7020009 0.6428155 1.0514091 -0.43333167 1.5094353 0.93810713 1.341212 -1.2875968
2330 -0.32081112 -0.8083512 -0.050367918 -0.54050475 1.4325461 -2.5737994 2.371698 1.701015 -2.5577254 -0.4352164 -0.7642033 -0.09893492 0.8357157 0.12934782 1.5476266 -0.43611082 -0.013483069 -0.674476 0.87211984 0.44537684
2258 -0.34239435 0.23768975 -0.18224841 -1.9260254 -0.8863793 -3.1436107 -0.2732759 4.216293 -0.53532165 2.0652924 1.5524987 -0.32153022 0.6176117 -0.8352024 1.8724779 0.8412844 1.8560256 -0.8203847 -0.03414805 -0.6763344
2507 0.7946144 -0.33186248 1.754712 0.78038585 1.1995592 0.5222796 -0.31976753 1.9963447 -0.4307703 1.8693177 -0.3462613 0.938345 1.7659907 0.0006384981 0.9324144 -0.20826755 1.599806 -2.6634145 0.892787 -3.051593
347 1.5864545 -0.03394387 -0.63477975 0.42674097 -0.64538854 -1.1683645 -0.14375801 2.6781285 -1.28523 -0.044834938 -0.18873419 -1.7836133 -0.3458597 0.3952556 1.0044317 2.0615935 1.4747305 0.26822156 -0.9153179 -1.324827
1285 1.9614363 -1.0405182 0.50060636 0.30865645 -0.14799425 0.18669777 -0.5134757 1.258309 -0.7619484 0.6432441 -1.3678883 0.88576424 0.06403944 -0.922848 2.2324824 -0.9733685 2.4864616 -0.75436544 -0.059409656 -1.8601882
1793 0.88609624 -1.6034037 -0.9051256 0.8883712 -1.2013469 0.15224606 1.6137938 1.3500754 -1.6191525 -0.07261693 0.02206346 1.505095 -0.2255258 -0.119118 2.2576272 -0.045037985 1.3855402 -0.5857754 -0.13830055 0.30350396
1423 0.6851464 -0.25698048 1.2206218 0.50207436 0.34012577 -0.7369686 1.6017642 0.49412602 -0.15276979 1.7238867 -1.2012354 -0.43461463 0.8796608 -0.6418682 1.6897006 -0.82738876 1.9410217 -0.23073868 0.3922556 -0.251948
718 1.0378268 -1.0662798 0.7209987 -0.18162589 -0.6205527 -0.37998056 0.85019445 2.8981678 0.7431149 1.6916566 -0.044435684 -0.3952602 0.31816375 0.38481966 0.62480533 0.47629893 0.68866056 -0.074336976 -1.3915693 -0.11159916
1339 0.5709523 -2.414383 2.145502 1.7517465 -1.2261983 -0.72205436 1.6602973 1.3498979 -3.2357576 -1.0139939 -0.07108485 0.0720226 1.1467217 3.0584552 0.28515863 1.2798432 0.23122895 0.9789607 -0.7397545 -2.4311898
