2708 20
164 0.06671742 -0.1982577 -0.03390334 0.08622103 0.6515802 -0.27350965 0.3380841 0.32823375 -0.64337623 0.2141132 0.6742779 0.13708292 -0.4205909 0.23616631 -1.1535318 -0.64671904 0.6396614 0.0669653 -0.6725409 -0.5416917
748 -0.1889263 0.52109843 -0.58917624 -1.0222902 0.5750954 0.6232985 0.4469327 0.77254075 -0.64927787 -0.060616147 -0.41788825 0.064992614 0.41134813 -0.71080357 -1.1066005 0.122995086 0.7698854 -0.7618421 0.29532918 -0.2698523
566 0.1480389 0.35455206 -0.29028282 -1.2222784 0.6627673 0.46306223 -0.5348873 0.043565854 -0.066435516 0.6706337 0.32275575 0.6157679 -0.07578359 -0.4401946 -0.40728992 -0.45173326 1.1832182 0.8017865 -0.051452916 -0.19347045
428 0.664549 0.4941445 -1.1375955 -0.32855928 0.43572515 0.4215528 -0.122097835 0.12971772 -0.7607811 0.06943001 0.20564847 -0.16955413 0.56983393 -0.39227402 -1.0894203 -0.804357 0.17740272 -0.47155777 0.80826616 -0.13023186
612 0.49175322 -0.05560804 -0.7824706 -0.7737984 0.4798665 0.7315671 0.95852214 -0.19781822 -1.23184 0.012012986 -0.4417618 0.9780922 0.36282524 -0.4734244 -0.11122769 0.32113814 0.2483567 0.39365047 0.38107374 -0.76617074
75 -0.14333835 -0.005957839 -0.44091564 -0.766513 0.47312832 1.3861961 -0.64414 0.39806142 -1.3507582 -0.3496728 -0.25344944 0.39044544 -0.66951746 0.06769141 0.28245273 -0.32838887 -0.022049805 -0.24944451 0.34297433 -0.42781848
431 -0.59992737 0.73088795 -0.15784703 -0.22164856 0.95650774 -0.26254833 -0.056386523 -0.526838 -1.3614106 0.41366854 -0.18237911 -0.5240968 -1.2281982 -0.39981145 -0.061224155 -0.715518 -0.16325857 -0.2512717 0.6370369 -0.5546083
553 0.37111384 0.27755117 -0.043827508 -1.3341477 0.9134588 1.1757938 -0.14762798 -0.38253188 0.14835691 0.49844685 0.5945153 0.523571 -0.11371822 0.009092332 -0.3091661 -0.32463312 1.3782238 0.58080125 0.70226866 0.20975128
345 0.22877087 0.9077587 -0.18831916 -0.1736753 1.6746701 0.8288095 0.5482047 0.10309606 0.69658715 1.1636709 -0.28391394 -0.28926072 -1.2987636 0.17716193 -0.52251154 -0.12362313 -0.5217713 -0.6328017 0.32462388 -0.5174437
639 -0.1621155 0.5133554 -0.36839765 -0.28886977 0.29847568 -0.19178754 -4.6330515e-06 -0.3230384 0.17115167 1.7495688 -0.5669644 -0.05996025 -0.8480969 -0.45629188 -1.0413635 0.05127664 0.43228304 -0.47445673 0.68886805 -0.29275537
158 0.72801524 -0.31518453 -0.55738163 -0.6524609 1.0531131 0.269986 -0.42371538 -0.040752117 -1.8468047 1.174597 -0.38027763 -0.41265246 0.56880105 0.007549314 0.08995834 0.12887625 -0.15205269 -0.036367334 0.4054554 -0.9761052
746 0.030409403 0.2763524 -0.3092879 -0.8716367 0.5111898 1.1828601 0.661434 0.2179943 -1.2908977 -0.8194079 0.3595596 -0.50710994 0.25264886 -0.44876948 -1.5543412 0.3293628 0.28227347 -0.054302387 0.5607529 -0.73116463
379 0.03616684 0.18152897 0.34292978 -0.43979394 1.1561003 0.47518566 0.20112541 0.3164235 -0.024271825 1.3291087 -0.5971169 -0.23953448 -0.7434161 -0.19686517 -1.2039535 -1.1057419 -0.72826725 0.12506989 0.1259037 0.5112117
577 -0.41776258 0.36986724 -0.6577941 -0.765541 0.33202782 0.7775246 0.7344186 0.13062279 -1.5230628 0.020608146 -1.0803198 -0.6957912 0.6863057 1.0464994 -1.306822 0.73728025 1.8359057 -0.40668833 0.9914239 -0.94958216
524 0.37488714 -0.12665488 -0.58131224 -1.4682051 0.8355089 -0.17524281 -0.27308023 0.62116116 0.35046533 -0.057362802 0.34966817 0.40657368 -0.5476335 0.26782596 -0.7659825 -0.68006897 0.623972 0.5998055 -0.30092108 -0.09033323
295 -0.03255659 0.67136014 -0.38587716 -1.4554163 0.31237108 0.7883653 0.21909197 -0.31239027 -0.43007228 0.63029367 0.19483833 0.26968867 -0.072970614 -0.5734202 -0.57670146 -0.11831927 1.2679739 -0.16257285 -0.4348631 -0.25959918
454 0.6951429 -0.51795125 -0.75662345 0.6694396 1.7515283 1.2592417 -0.2568747 -0.2021962 -0.2727341 1.0847986 -0.6223471 -0.4706377 -0.97482646 0.8209513 0.009501823 0.49963003 0.6419434 0.41940445 0.43047428 0.46465585
567 0.43004555 0.6109245 0.6331324 -1.4642522 0.5778299 0.38724563 -0.40718845 -0.35513845 0.17303047 0.3533987 -0.5595233 0.25218368 -0.033420116 -0.065961204 -0.8734475 -0.21796744 1.1537702 -0.19301985 0.039529886 -0.12423142
1355 -0.33943772 1.4772235 -0.19578378 -0.4407647 2.097236 -0.6427717 -0.25218907 0.4579616 0.053558413 0.48094717 0.36854723 0.21146482 -0.6022951 0.1775666 -1.2893203 0.23354678 -0.6236708 1.5579697 1.1117029 -0.1263898
636 -0.1203578 0.38081703 0.03302921 0.06908107 0.91037375 -0.37551606 -0.26403219 -1.1083068 -1.0489743 0.8700016 -0.44916397 -0.21167727 -1.1812433 -0.37348798 -0.4565345 -0.59239614 -0.048039563 -0.07505502 1.3539226 -0.5349933
15 1.974032 0.2429038 -1.2447519 -0.4132358 0.9909294 0.3802556 -0.031403374 -0.5069348 -1.51386 0.005925378 -1.1222656 -0.39202312 -0.35207993 0.806057 -0.260383 -0.1315887 0.61962336 1.3358688 1.034058 0.028568974
794 0.71473587 -0.6241604 0.23673277 0.65924025 0.67164874 -0.6309668 0.3062412 0.47207817 -0.9423975 0.36098027 0.24406798 0.13653438 -0.89972353 0.5002827 -1.578219 -0.7354977 0.52786314 0.8191017 -0.25885907 -1.2617524
110 0.5750452 -0.58058965 -0.3461114 0.18381414 1.2110189 0.37099293 -0.2877326 -1.4893397 -0.57913643 1.230928 0.2524288 0.056774564 -0.9963945 -0.068899475 -0.4117267 0.05304507 -0.12305595 0.77931905 1.1425303 -0.7468494
1645 0.09245856 0.39145717 -0.07486326 -0.4521745 -0.10166369 0.9820131 0.42826986 0.4630128 -0.2673228 1.2578555 -0.96341527 0.359845 -1.1031632 -0.40102208 -0.91369146 -0.063226946 -0.5570486 1.1385602 0.23705742 -0.57516384
2500 -0.1720446 0.03167628 -1.1788915 -0.55533826 0.63521737 0.6001687 0.677264 -0.32326332 -1.7138438 0.06833222 -1.1314126 0.44813284 0.51956314 0.37658134 -0.37846467 0.71658295 1.5746934 -0.63007915 0.44886652 -2.281342
1329 0.004782159 1.2285173 -0.30187488 -0.49821067 0.2759204 1.038328 -0.0015938138 -0.14523071 -0.6977377 0.45365164 -0.92774737 -0.9002967 -1.5029002 0.06549762 -0.83127165 -0.75226974 -0.4605362 1.2118824 0.54041004 -0.21752882
673 1.5871549 -0.26084098 -0.04759734 0.69427234 0.9364351 0.37964416 -0.8152905 -0.1837933 -0.5452904 1.1352913 0.10787454 0.19513662 -1.1434453 0.2244887 -0.88587403 0.39410365 0.16717061 0.39745438 0.9307567 -0.27268803
570 -0.027249178 -0.028215142 -1.1095588 0.66529244 1.3444653 0.9427199 0.043265108 0.009802638 -1.0188571 1.2619992 -0.251162 -0.013871368 -1.6607796 0.22585249 0.056387298 -0.09959741 0.32700202 0.2690893 -0.036835756 0.8977307
911 0.41390806 0.04882254 0.36282197 -1.0673484 1.1569068 -0.32722098 0.4693446 -0.29732585 -0.20901649 0.089375064 1.2453203 0.15998566 -0.84007156 -0.38804615 -1.2713338 -0.30345714 0.8335715 1.054713 -0.095341995 -0.8330433
189 0.1552037 0.4452278 -1.0781296 -0.19977148 0.89283854 -0.58618134 -0.32245865 0.4431251 -0.52099895 0.25232264 0.90681034 0.21793158 -0.7874606 0.44998622 -0.95876414 -0.58744204 0.29408315 0.9136427 -0.9595569 -0.9185882
251 1.0429752 -0.121446736 -1.0929509 -0.011767668 1.1023887 1.0127873 -0.42783758 -0.00788823 -0.6852419 -0.8539087 -0.85643095 -0.32926348 0.60273427 0.031951122 -0.7129569 -0.68639493 0.43544722 0.67098427 1.057341 -0.33092695
687 -0.41062114 0.60780776 0.4106779 0.07644809 0.49245334 0.030848311 -0.14711614 -0.37492517 -1.417943 1.1171345 0.24169067 -0.15344587 -1.4825077 -0.1321477 -0.19868834 -1.1628562 0.4143213 0.14094481 0.84808284 -0.21925414
1137 0.8186565 -0.034861933 0.4636338 0.41833812 1.6055925 0.09288057 0.19379623 0.2054446 -0.583988 -0.28366914 0.7004758 0.095693305 -0.9007645 0.7829725 -1.4913485 -1.0653206 0.53424245 -0.64968663 -0.9544046 -0.7992538
67 0.26078886 1.8381908 0.81155175 -0.7480567 1.1767731 0.46042964 0.9337643 -0.078015074 -0.3568495 0.12353906 0.054946553 0.3485888 -0.74043375 -0.06165035 -0.24960305 -0.35601243 0.4599531 0.7770772 1.4180825 0.14401893
1521 -0.35368997 0.06807994 -0.6581565 0.0075543434 0.46253043 1.0764164 1.1667678 0.2718666 -2.1267838 -0.015159987 -1.6821938 -0.42160374 -0.29563487 1.6242182 -1.4469696 0.8787684 2.3422306 -0.5461313 1.1081316 -0.6543853
137 -1.1800479 0.52892995 -0.26439345 -0.37532106 1.7746103 0.526576 0.10080001 -0.2546543 0.34006238 1.0586977 -0.6049294 0.38153535 -1.0484302 -1.2985301 -0.40859282 -0.62796605 0.40717512 1.1669161 0.11681854 -0.8630925
2422 0.5770298 -0.29736745 0.07553598 -1.0497906 1.1438246 1.513999 -0.7946317 0.03384168 -1.4359006 -0.46385562 -1.0747776 1.386448 -0.78743243 0.6248376 -0.0042864727 -0.20479134 -0.35715616 -0.5036661 0.59795004 -0.44884664
130 -0.18238948 0.920485 -0.21998781 -0.69641453 0.41718075 -0.35411012 0.1585906 0.6433428 -0.90222645 0.0030572985 0.57462764 -0.04062357 0.059528224 0.5036071 -1.7595085 -0.31042165 0.1753036 0.6871946 -0.8830647 -1.1858573
1570 -0.09233748 0.9833457 0.7922409 -0.62122065 1.3579569 0.7118846 0.9566854 -0.68796855 -1.2886324 0.9266438 -0.7733421 -1.3213342 -1.0019898 0.14403589 -0.32783717 -0.44633898 -0.1261578 -0.8057811 1.2098461 -1.3756397
810 -0.27454346 -0.043794584 -1.3194251 -0.36070874 2.1323166 0.8462821 1.967821 0.645839 0.9689886 0.8591454 0.21841086 0.027534036 -1.3239099 -0.049368534 -1.438782 0.86560446 1.6535329 -0.71294165 1.8385808 -1.4211105
1291 0.5595921 -0.4908281 0.022481909 -0.0983188 1.1627558 1.3677927 0.29541564 0.90568626 0.05644263 1.5696695 -0.4656341 -0.27771485 -0.9159836 -0.14629017 -0.5536602 -0.40105027 -0.5030433 0.57420963 0.31620052 0.18354163
571 -0.5414373 0.080498055 -1.0404638 0.2243094 0.44536737 1.2857436 0.79982424 0.06990453 -1.7466967 0.26901856 -1.6777638 -0.45520678 0.32671946 1.621524 -2.039396 0.99520963 2.2405663 -0.56657726 1.0328484 -1.0660985
77 1.0806079 -0.8461544 -0.9230986 -0.4929011 1.0255461 1.6564937 -0.7733559 0.16963646 -1.1789961 0.019418146 -1.2443943 -0.18908836 0.08469304 0.30959982 -0.19223933 -0.49221027 0.00058044214 0.44374302 0.20039785 -0.57282573
1528 -0.63936025 0.942336 0.13090229 -0.5539371 1.9100981 1.3202189 -0.47913402 0.2534639 -0.29837534 1.5979035 -0.77944654 0.9143238 1.3748161 0.6543992 -0.35841274 -0.25136536 -0.018635785 -0.20795983 0.6973204 -0.46380192
592 0.45888913 -0.2986372 -0.039856646 0.87388563 1.181371 0.80487955 -0.2812532 -0.941166 -0.3947346 1.8323481 -0.1568057 -0.1620615 -0.69621265 1.2499793 -0.6905561 0.14764096 0.3160843 0.54568815 1.1618489 0.15728867
360 0.6091789 0.008568603 -0.8110833 -0.8214875 0.5352404 0.5391865 0.75364107 0.25296435 -1.3665034 0.07537249 -1.4411376 0.38942853 0.32655603 0.2138852 -0.7123548 0.9916441 1.9112757 -0.383195 0.39832565 -2.341374
479 0.42458096 1.0373131 -0.39855537 -1.2411542 1.4910948 -0.23402888 0.60238975 0.21889086 -0.06086926 0.8802304 -0.26844046 -0.4142963 -0.45634717 -0.5395794 -0.18907951 -0.89854777 0.28058738 0.72112525 0.09496203 0.4535292
1241 -0.271844 1.1356738 -0.72744906 0.08501599 1.21798 0.69539213 -1.1458315 1.048252 -0.9051778 1.2462916 -0.7924947 0.45670775 0.6090793 1.2128662 -0.39343312 -0.46862754 -0.43213856 -0.16844866 0.7391016 -0.16672048
520 -0.29222718 -0.276496 -0.9624143 -1.602321 1.0933436 0.45211202 -1.0131948 0.4855837 -1.3784535 -0.39249074 -0.27790606 1.3837548 -0.18459201 1.2095948 -1.6928462 -0.91906923 -0.7244497 -1.2707402 1.723077 -1.5333942
42 0.22387266 -0.78994864 0.17477745 -0.2743157 2.2104557 1.3044378 0.7593069 0.36926362 -1.8340498 -0.4008578 -1.1767713 1.9116207 -0.3342577 2.228253 -1.3183551 -0.46613473 0.0717216 -1.0764934 0.7482959 0.6037167
1460 -0.00012123504 0.04837681 0.2291263 -1.3247058 0.92244846 0.7185465 -0.5413375 -0.6846864 0.03133778 1.1417603 -0.3803429 0.5508623 0.57040995 0.47757742 -0.4596642 -0.5206126 1.1435474 0.733896 -0.27399558 -0.086191446
427 0.16958328 0.12725572 0.79150045 -0.3778361 1.3003985 0.2909218 1.3109238 -0.3727334 -0.24948947 1.1291186 -1.2311866 0.021954985 -1.7626573 -0.121753626 -0.46401122 -0.9476015 -0.0074791284 -0.11927853 0.3420039 -0.31130973
641 0.5956931 -0.025972297 -0.08215809 0.8880491 1.2658498 0.4633609 -0.35716397 -1.3999624 -0.89557236 1.3660133 -0.40141326 -0.4458955 -1.1309893 0.1554699 -0.67911303 0.15563846 0.48844582 0.7306848 1.4757249 -0.30087775
1714 0.37695363 -0.41124132 0.52378875 0.16408095 2.508305 1.6630032 -0.3761986 -0.41473186 -2.0006356 -0.96125525 -0.8718559 2.0017273 -0.32257676 2.082158 -1.4422386 0.15080772 0.12083666 -0.9371119 0.8320823 -0.04032393
1179 -0.09989253 0.27210832 -1.0233912 0.16196562 0.7108602 -1.2123604 -0.2386278 0.23609254 -0.76720893 0.732287 0.31996676 -0.021186752 -1.0564762 1.1669462 -1.187953 -0.65690017 1.9897186 -0.5484347 -0.25952867 -0.40130007
2176 0.06582981 0.050933093 -0.78937566 -0.27832937 0.19873026 -0.8060723 0.35410663 -0.9153622 -1.7178702 0.3014799 0.32389686 0.45381323 -0.6222234 0.76459855 -1.397689 -0.6273482 0.6871294 0.4265058 -0.58868456 -0.5242239
1688 0.16954404 -0.28234547 -0.85801125 -1.2244043 0.6502911 -0.2942399 -1.1174515 -0.37384847 0.31697363 0.5195968 -0.55916613 -0.16987152 0.057868883 0.61245024 -1.093761 -0.097619526 1.2762234 0.74353874 -0.10274432 -0.30970046
1154 0.700526 -0.88880205 -0.08254945 -0.4659166 0.52799815 -0.44014186 0.7802125 -0.08927558 -1.4574018 0.49164772 0.08835413 -0.020174948 -1.2695959 0.6055768 -1.3915193 -0.6093404 0.25720158 -0.03563505 -1.0152678 -1.5880151
539 0.04857516 0.7133744 -0.36492664 -0.846343 0.33605275 0.2945359 0.5908466 1.0999448 -0.86962694 0.34938002 -0.09703413 -0.5494325 -0.60614806 1.1597604 -1.7105097 0.4282421 -0.11569664 0.44025335 -1.3397229 -0.63726187
1485 -0.35514024 0.4843219 -0.69341755 0.19941314 0.8857518 1.7073042 0.48325676 0.8108874 -1.4822266 1.7019784 -0.15269439 -0.39871722 -1.368561 -0.19501108 0.1349036 0.33375043 -0.082995445 0.07617846 -0.08049767 0.0019089212
1334 0.41563058 -0.0014541094 0.86034983 0.30415678 0.65941465 0.24465415 0.40406474 0.76685464 -0.26174936 0.5183634 0.4637097 0.008170673 -1.394516 0.7214203 -1.2082943 -1.7483805 0.14506553 -0.022486866 -0.08398816 -0.8926954
773 0.043635834 0.70382696 -1.1300148 0.007919787 1.4450341 0.5514368 -0.61020035 0.8666482 -0.2671301 0.82251596 -1.4159205 0.79787004 1.3759192 1.2002333 -0.794785 -0.48296982 -0.12982047 0.021374648 1.2487297 -0.41826138
968 -0.3327592 -0.07801668 -0.6273376 -0.40991706 0.63778734 0.6052672 -0.24988683 -1.2294744 -0.5582139 1.8549206 0.40748453 0.12737682 0.043940853 0.3557679 -1.1864921 0.29730108 -0.19345377 1.2562518 0.17670025 0.21190271
2154 -0.48694202 -0.7640235 0.31927663 0.27268517 2.8555167 1.5405993 -0.28115675 -0.2298573 -2.1185389 -0.66207993 -0.3946986 2.3639154 -0.9150103 1.3234284 -1.082396 0.24726443 0.9356529 -1.4289556 0.7014264 0.13887604
343 -1.4648603 2.021138 -0.89443356 0.20124951 2.83738 1.1425403 -0.581419 0.084519096 0.18080935 0.75928515 -0.7605871 0.836088 1.1313105 1.9559789 -1.2554868 1.2195451 0.6793033 0.17426968 0.7367106 -1.6469587
416 -0.1501898 0.021941556 -1.408065 -0.3291561 0.8328025 -0.072178945 -0.26386768 0.6109488 0.26138327 -0.122672275 0.7682778 -0.07937405 -0.7493202 0.7530115 -1.3992202 -0.45683002 1.3033506 0.3803215 -0.8454049 -0.93709815
739 0.28887695 0.622219 -0.76198924 -1.0874221 0.5952869 0.5210052 -0.6530588 -0.41786355 0.05533819 0.659468 0.2573607 0.71017677 -0.12326125 -0.121790215 -0.17036274 -0.35889822 1.8161548 1.0686568 0.28771 -0.7758984
584 -0.6967322 0.5291912 -0.28863496 -0.15738969 2.7030065 0.16209027 -0.7930179 0.6687304 0.5373865 -0.53958684 -0.1617535 1.0098153 -1.8670875 0.33493617 -0.6177983 -1.0783231 0.5873326 1.2408236 -0.14258134 -0.3589147
2209 1.3896152 0.3395142 0.1203381 0.45772338 3.873401 0.2872368 2.014679 1.2267456 -1.8685204 0.023274768 -2.4328325 3.1605194 -0.4746827 2.695455 -1.3225384 0.15121745 -0.35917565 0.18485957 0.88791424 -0.4292694
1499 -0.8229192 1.0497563 -0.043015003 0.5292439 1.8959482 0.18879399 0.18156692 0.882448 -0.120922044 -0.15509203 -0.23722515 0.14561825 -1.1149316 0.35428014 -0.3185656 -0.85825175 0.23342387 0.1961867 -0.91561335 -0.4185056
1175 0.8308246 -0.29397064 0.060458876 -0.075231865 1.9712658 0.9086505 0.7953634 -0.49644256 0.41768488 0.94057614 0.7703387 -0.16682157 -1.1439128 -1.0365443 -0.43936986 -0.67060494 8.192022e-05 1.0122011 0.4155754 -1.1069661
559 0.21043287 -1.0072436 -0.47237593 -0.57444996 1.1811241 1.1669351 -1.533174 0.11291923 -0.14709358 1.1871712 -1.4919142 -0.06008634 -0.10249029 0.5514377 -0.23776452 -0.83014 1.241643 -0.22632565 0.0584073 -0.18338837
669 0.17894356 0.44707534 -1.0825019 -0.7061125 0.1888107 1.4144077 -0.22109842 0.56325114 -2.5021021 -0.29953477 -0.7892633 0.6219355 0.3627829 0.13663909 -0.27694616 -0.9635487 0.3443417 0.15026952 -0.2538208 -0.7071838
1253 -0.57810545 -0.48720902 -0.42833397 -0.66431427 0.7421999 2.031602 -0.5997864 -0.038324866 -1.70242 -0.39848474 1.2361022 0.56399435 -1.6918552 -0.14602488 -1.6161044 0.12770018 0.665015 -0.43984246 -0.16063005 -0.17261289
650 -0.32993189 1.18578 -0.13100165 -0.27250865 2.1909604 -1.2909 0.83097774 -0.17765442 0.22818199 0.9109916 -0.5329274 -0.83908325 -0.8260563 0.34918585 -0.56311613 -0.3475796 1.7642014 1.6015457 0.51101106 0.31909516
1379 0.109689444 1.0645052 -0.67821467 -0.71702415 0.70027554 0.9107388 -0.40076637 -0.19644542 -0.28326198 0.6937375 -0.14667982 0.6862528 -0.5112106 0.08783635 -0.052698713 -1.1464083 1.5697811 0.28035095 -0.3473924 0.76711893
85 -0.040366627 0.2512418 -0.17500319 -0.26562148 1.5127491 0.68867916 -1.0821471 1.4015617 -1.3272947 1.2297742 -1.1912788 0.034395047 0.27159312 1.6932869 -0.5330877 -0.15338098 -0.36288258 -0.4719006 0.5738462 0.17957889
259 1.6420422 0.8476158 -1.0396284 -0.3699708 0.6099046 0.7090144 -0.25521868 -0.49480516 -1.268776 0.50605613 -0.84674925 -0.94477147 -1.2678307 0.9567249 -0.8071943 -0.4952641 0.29541644 1.8151132 0.9924691 0.33033496
1327 -1.2050562 0.52546763 -0.36429513 0.4863899 2.6884089 1.6219689 -0.45221913 1.0456524 0.044599652 1.881131 -0.9369827 1.440345 1.3050686 1.5836912 -1.0803204 0.37636235 0.15690908 0.16650562 0.1967584 -1.7857666
1219 0.9835239 -0.18852162 -0.14695235 0.26459292 1.2809353 0.5908146 0.9434783 -0.1703618 -0.17680652 0.24493515 0.5331518 0.6982418 -0.08123858 1.0553714 -1.8766052 -1.0474614 0.55486465 0.65355635 -1.2176251 -0.20375465
1551 0.039728217 -0.77765214 -0.23312283 -0.3768768 1.4293747 0.20825592 -0.87412 1.1365952 -1.2315466 1.5616804 -1.1557486 -0.3142624 0.13513185 0.06977695 -0.7380531 0.17453676 -0.46156767 -0.3051814 0.7337919 -0.13197632
966 0.44639164 0.09328096 0.24715355 -0.7001649 1.9049872 -0.44516405 0.4315348 -0.6402735 -0.8858623 0.052138273 1.6650865 0.18659325 -1.2518454 -0.5638455 -1.2318591 -0.53160506 0.16144739 0.7054575 0.01044728 -0.32433614
439 0.24873073 0.4914708 -1.4436084 -0.35320783 0.7939462 -0.09630039 0.81672174 0.11014435 -0.49143544 1.2374614 -0.3902177 0.24161933 -0.40604088 -0.24217637 -0.4426327 -0.82352394 0.43080875 0.69803935 0.61321384 1.1952782
575 1.6810473 -0.17740041 0.24295622 0.4744466 1.4478736 0.5185456 -0.5891225 -0.8103483 -1.1356276 0.56391627 -0.5146411 -0.3852941 -1.4254375 0.48631063 -0.63024825 0.27079257 0.4995285 0.63938296 1.2009603 0.24653627
849 -0.41628522 -0.3586622 -0.76105666 -0.35330296 0.50049037 1.1167337 -0.2040061 -1.097669 -0.6186288 2.160269 0.15979007 -0.0889316 -0.5483431 0.9306738 -1.1117867 -0.027166603 -0.11171256 0.4975237 0.9828835 0.50866765
478 1.1122732 0.76700485 -0.4631313 -0.9489473 0.41581327 0.55839664 -0.5974672 -0.20699042 -0.16671313 0.3506519 -0.03587318 0.28557223 -0.0013226538 -1.1792033 -1.1969002 -0.604017 0.7208915 -0.12958252 0.2019967 -0.55683863
1336 -0.7344266 0.38621655 -0.68486404 -1.0476335 0.7470971 0.9344032 0.1797893 -0.430229 -0.9308138 1.1974753 0.33492354 -0.42873365 -0.97464234 1.1985356 -0.18291111 -0.23088019 -1.0307878 0.26405412 0.89925706 0.14509508
1719 0.2705584 -0.8217225 -0.52171075 -0.23484233 -0.24743894 0.71062595 -0.21260162 0.44333884 -1.774937 1.1511011 0.17299409 0.9428772 0.5882726 -0.10817632 -0.70958006 -0.30728817 0.43629187 0.8418912 0.61155045 -0.92380667
457 0.86960506 -0.21783945 -1.1813861 0.8464488 1.3311092 0.39612448 -0.59938765 -0.5316465 -0.9050052 1.4572371 0.09515762 0.4035593 -1.5967962 0.2959852 -0.05232034 0.5838026 0.27683914 0.50145537 0.45523864 -0.20092426
412 1.0457628 0.5844305 -0.49504888 1.244028 0.8299549 0.8291164 -0.15119483 1.1647 -1.1911799 0.27722627 0.63881934 1.077643 0.10717853 -0.5268812 -1.081989 0.05353919 0.17313385 0.4425922 0.48805633 -0.99763155
1911 0.2992399 -0.61000115 -2.0491197 -0.8790728 1.3523666 0.8106818 -0.24674979 -1.0478122 -1.4063864 0.098690934 0.21308146 2.0455294 -0.27356645 0.75623965 -1.1098682 -0.20508888 0.30250376 -1.8126912 1.8381404 -1.5250398
346 0.9962984 -0.60586125 -0.028673852 -0.82570374 1.0537628 1.2950854 -1.1293051 0.692039 -1.7708956 -0.28586 -0.70338017 0.47518346 -0.57415706 0.80873877 -0.1004886 -0.20211351 -0.032446094 -0.1629269 0.29481426 -0.029711781
2424 0.10698778 -0.16887616 -0.97446835 -0.56752497 0.3344529 0.058993526 0.023469646 1.1345025 -0.836469 0.58592445 -1.0717287 0.33729184 -1.692412 -0.25680077 -0.33565253 0.17669882 -0.49174732 0.5804179 1.0553349 -0.37630555
1269 0.69400114 0.23282798 0.3712617 0.49681246 0.8496728 1.5457445 -0.33051622 -0.56532323 -0.5183668 1.4667214 -1.1797191 0.5717443 0.68514633 1.5796099 -0.38270262 -0.62917286 1.5699512 1.1319237 1.1360103 -0.30723476
381 -0.45343474 0.00069959526 -1.0039138 -0.0016590778 1.0635144 -0.6480201 0.6898725 0.10602554 -1.2487193 -0.3358132 0.6822281 0.76496285 -0.8964913 0.5829586 -1.0606426 -0.15464547 0.8527777 0.7217488 -1.0659912 -0.72640806
1283 0.18723682 1.7541611 -0.931923 0.70461214 3.031093 2.7813983 0.8696226 -1.7703943 -0.58606094 -0.6232429 0.18741482 1.5747215 -1.3694202 1.7540135 -1.4088417 1.2079811 0.53706163 -0.99116594 -0.34393886 -2.1435556
563 0.152311 0.41450834 -0.28565618 -1.2833188 0.3643005 1.5776407 0.23231676 -0.3037373 0.4716751 0.04288948 0.882824 0.76228905 -0.22636701 0.7000198 -0.2948937 -1.3923278 0.62428474 0.48037928 0.4501516 -1.3263179
882 -0.22046804 -0.1862988 -0.3663481 -0.2389386 0.008167417 0.05543954 -0.40616092 1.5321792 -1.4367838 -0.105447486 -1.2434387 0.26043406 -1.3192722 -0.30668303 -1.0982634 0.039431646 0.41880223 -0.34791246 0.20866817 -0.54980963
668 -1.3901019 -0.5861649 -1.7309904 -0.9870403 1.2792075 2.0230072 0.09023191 0.10651588 -0.89212936 -0.5133394 -0.636625 -0.41561162 -0.5209179 0.53667295 -0.9785049 0.30894092 -0.5037058 -0.10323928 0.0723525 -0.5930156
146 0.3859814 -0.11542603 0.017522361 0.12085002 0.80668354 -0.04324737 1.1521428 0.56670415 -0.6168119 0.2968303 0.89354086 0.7009164 -0.19368647 1.3592315 -1.5349419 -1.0631013 0.72055805 0.28910893 -0.36987296 0.14419353
2335 0.00810069 -0.5206214 -1.2282572 -0.36542955 0.5367305 0.58707607 -0.41896048 0.015912456 0.66446054 -0.3173449 0.29190394 0.035807904 -1.1556336 0.7883563 -1.5275301 -0.62596947 1.2030742 0.7423973 -0.63627183 -0.9238453
1118 0.20797302 0.27379674 0.059467234 -0.5764236 0.1827974 1.0297011 0.61700916 -0.5451951 0.051090945 -0.07570324 1.2102807 0.3517213 -1.0151703 0.7778755 -1.231445 -1.1506029 0.8808533 0.98149383 -0.37828892 -1.4600403
1697 0.010474082 0.504003 -0.35967362 0.23133358 -0.09842585 -0.4212052 0.611901 -0.73124605 -0.9329041 0.121749185 0.16253579 0.34494048 -1.0050367 0.9258906 -1.9953566 -1.3167214 1.5352762 0.4833107 -0.28995064 -0.7652878
996 -0.6146409 0.6442726 -1.2888694 -0.12243823 0.19306235 -0.86655027 0.25062838 0.22680339 -0.29182127 0.51861405 0.4008377 0.112112425 -1.5024507 1.1003692 -1.8629011 -0.66049904 1.6126634 -0.32144102 -0.04676932 -0.53234327
1080 -0.03949245 -0.47503942 -1.1860272 -0.5424428 0.33702254 0.3786838 0.57829255 -0.05779766 -2.2399044 -0.054039605 -0.04761878 1.2532202 0.48856923 0.14330134 -0.3768334 -0.3218825 0.372116 0.6830464 0.012478873 -0.33684427
248 -0.33641094 1.148083 0.12922856 -0.6048973 0.44239742 0.66721946 0.36801264 -0.16152337 -0.2703806 0.5456948 1.3547723 -0.0775858 -0.5220613 0.6586628 -1.5908394 -0.9261448 0.538267 0.75595874 -0.8616288 -1.8243363
1260 -0.82577085 0.27666757 0.46435863 -0.21039811 1.7856148 1.831209 0.03957241 -0.24300066 0.38218233 1.6726067 0.35566592 -0.03445969 -1.4422396 -1.0317534 -0.4096378 -0.37938073 0.4755503 0.31308156 0.26824254 -1.0312629
637 0.67940253 0.5019596 0.60772806 -0.89378786 0.76277775 0.4650988 -0.109079756 -0.13280554 -0.69629836 1.0711948 1.30868 1.1086845 -0.57097983 -0.589959 -1.4769154 -0.45641825 1.722752 0.41725188 -0.14614177 0.16851293
487 -0.47690305 0.46268496 0.847405 0.03265745 3.6706574 0.1844749 -0.39608812 1.3710775 0.37386695 -0.6920592 0.28957984 0.7149165 -2.2046666 0.6026627 -1.1138847 -0.6209936 0.70473874 0.7343807 0.5299234 -0.2681127
100 -0.5017871 -0.5111245 -0.35738856 -0.14874524 2.3611681 0.95821077 -0.2747813 1.6099015 -1.5137134 0.591539 -0.77003855 1.4499056 0.58338815 2.8208833 -1.7937809 0.528744 0.23812638 0.047297545 1.1769212 0.85566044
1216 -1.3184066 1.1038564 0.6240164 -0.15130869 2.6472979 0.048917096 0.8879393 -0.3348838 -0.60072035 -0.5339862 -0.9941331 1.4902248 -1.7414341 1.491897 0.53385025 -0.54243314 1.2241788 1.9350722 0.22724801 -0.97407955
220 0.3413623 0.65557224 -0.23941919 0.07841471 0.8273268 0.1957467 0.43868497 0.801725 -0.2815408 0.831039 0.88742334 0.041000914 -0.9357994 0.9505644 -1.1545271 0.353256 0.94507426 0.1847854 -1.441904 -0.9688346
1513 0.098703094 1.1403695 -0.62522876 -0.19989234 0.91486174 1.3831735 0.15469274 0.014790706 -1.0818173 1.2392188 -0.34812206 0.16539545 -0.81062144 0.8587664 -0.05749021 -0.26723686 -1.4728222 -0.6354767 0.60370964 -0.38646626
1855 -1.1373017 1.907005 0.5804539 -0.22436595 2.5978882 0.22673754 0.12856573 1.2022939 -0.4699622 -0.48193902 -0.2443332 -0.71106225 -1.2137755 0.65719014 -1.3522489 0.17918155 0.8599385 1.5418338 1.6525573 0.4871237
319 0.18732098 0.705518 1.1703817 -0.23428775 0.23316275 0.56992126 0.24343914 -0.7723706 -0.89350533 1.2408316 -0.74493194 0.7614943 -1.5613284 0.17299059 -0.7393679 -0.6506981 -0.30681068 0.8447835 0.3521934 -0.41826633
760 0.13681197 -1.2786442 0.0923825 -0.28204876 2.1412642 0.789352 -0.05108261 1.2348583 -1.0490179 0.8288786 -0.8836532 1.7627869 -0.016824242 1.764299 -1.6522992 -0.49284732 -0.56842464 -0.5342389 1.3897412 0.5501845
688 0.74113125 0.37349382 0.38211185 -0.9872846 0.4896384 1.5067194 0.63026786 0.7124331 -2.305295 -0.31132218 0.07151185 -0.17286447 0.4691719 -0.3198686 -1.3222367 -0.06659393 0.30398792 -0.32952037 0.19370338 -0.18405655
1650 -0.121611886 0.34948754 -0.7560762 -1.0733671 1.013708 -0.30550218 -1.0984969 -0.8242452 0.33412114 0.31003886 -0.5850825 -0.70001537 -0.40982655 0.41642198 -0.93372494 -0.07543744 2.1126137 0.42556554 0.38765705 -0.19759092
1596 -1.1850129 -0.34950143 0.8338774 -0.062182028 0.9024441 0.73010564 1.2728255 0.29518422 -0.6090914 1.0190234 -1.49867 0.2357411 -1.213008 -0.84011626 -1.0232629 -0.3823235 0.6441772 0.7054098 0.63821024 -0.28280094
967 0.5396645 0.44951433 0.32977283 -0.82726204 1.7260087 -0.11836946 0.84731275 -0.5842279 -0.68889135 0.14216287 1.7602754 -0.2385644 -1.6918359 -0.14936866 -1.1532922 -0.4118538 0.6392185 0.9021339 -0.17680556 -0.29883653
466 0.14482321 0.102160074 -0.07282702 -1.7535437 0.24285798 0.37250078 -0.2565379 0.1977176 -0.10212459 1.0746132 0.49047467 0.94984484 -0.7924733 -0.45563674 -1.1851352 -0.086787365 1.4042132 0.34116364 -0.09283387 -0.22020085
2221 0.08264443 1.1160296 -0.6765517 -0.9023771 0.35632417 -1.1523092 0.46287462 0.45558497 -0.55435413 0.12892699 -0.0045660743 1.2322255 -0.36292136 0.7974514 -2.0050206 -0.49183896 0.52652377 -0.023288524 -0.7221994 -1.2641732
1242 -0.14257723 0.69892204 -0.31494942 0.32770547 1.4461472 1.1535044 -1.295233 1.538313 -0.7789418 1.1676925 -1.3577377 0.61754 0.58288586 1.5588154 -0.7332969 -0.42692643 -0.17764258 -0.14324425 0.83746636 -0.3608901
2361 1.6466801 -0.4367394 -0.115588 0.30587497 0.9031056 0.41087136 -0.9746054 -0.1353887 -0.8609636 0.42098078 0.017134544 -0.7052355 -1.4778761 0.93923616 -0.90683013 0.020466775 0.7438469 0.8612332 0.76061106 0.05271873
296 0.25581852 0.5111656 0.4963133 -1.6724783 0.6612808 0.6440344 -0.24662307 0.64825237 -0.64669776 0.70014346 -0.41650125 0.6518397 0.1867905 -0.2503691 -0.49927753 -0.82204974 1.5492013 1.4205763 0.049158834 0.046317756
178 0.0033876228 0.8635506 -0.11215216 -0.557008 1.4084964 -1.1875166 -0.14199397 -0.94929963 -1.208354 0.40378594 0.8313787 -0.033739347 -1.7092937 -0.059144445 -1.4504603 -0.41265404 -1.0804373 -0.110280305 0.666999 -0.36009684
736 -0.6862972 0.961819 -0.90669703 -1.1399138 3.8612041 -1.6117963 -0.10158973 -0.9870633 -1.5597405 -0.26395652 -1.0666407 0.7186133 -0.060698476 2.0730872 -1.4354533 1.6276548 0.52592194 -0.5223059 0.7251281 -1.3891897
37 -0.048483938 -0.94943815 -1.0303022 -0.8581512 1.6742896 1.8444958 0.5611017 0.150062 -1.285207 -1.2887006 -0.091150016 -0.8135796 0.57947844 0.7001946 -0.90868974 -0.57369035 0.12948737 -0.40381056 0.18315014 -0.6293025
480 -0.4140905 1.2898107 -0.6496553 -1.058305 2.2896523 0.18021835 -0.31603456 -0.36615744 0.6376474 1.1326333 -0.10084049 -0.35076407 -0.8918845 -0.30224255 -0.15111849 0.22225997 -0.003498138 1.1495477 0.325422 0.12588875
162 0.004062864 -0.9945392 -0.1296437 -0.39176112 1.1980677 0.29382 -0.4559999 1.283006 -1.110787 1.1239976 -0.7193164 1.2573138 0.6446988 0.8881218 -1.6898873 -0.4904179 -0.5224734 -0.7436537 1.1402754 -0.12631933
1204 -0.42498967 -0.026455954 -0.5542174 0.089682296 0.18994318 0.23155592 -0.7177841 1.6640905 -0.8898352 0.61420625 -1.0839494 0.43068492 -0.82062894 -0.675099 -2.0083048 0.44380277 0.8201361 -0.5549046 0.3848456 -0.5216647
741 0.80574447 0.666902 -1.0537009 -1.0238444 2.0332987 0.7098781 -1.4395329 -0.11665187 -0.62637436 1.2554815 0.27778748 -0.54309154 0.028431835 -0.053150743 0.5615797 0.53131276 0.10858553 0.1276039 -0.00066616613 -0.85835433
16 -0.35441267 1.0759093 -0.57766366 -0.78558964 -0.06287806 0.17076042 0.0622582 0.5938388 -0.84617597 0.7674765 -0.3867914 -0.049007036 -0.04775917 0.14818235 -1.9876369 0.2853832 -0.96427125 0.6597405 -0.69302505 -0.52132636
229 -0.22287212 1.0238631 0.36965576 -0.07407472 1.322267 -0.3984266 -0.09876411 0.44756448 -0.72374064 2.116428 -0.20114563 0.559666 -1.5744989 -0.16621827 0.25206345 -0.1847752 0.3131766 -0.31514034 -0.38230518 -0.4893416
257 -0.05984694 0.8850162 -0.051571574 -0.30944094 0.9756372 0.14328 -0.051491912 -0.1892299 -1.0487199 0.80775034 -1.1711653 -0.07856571 -1.8827606 -0.29324454 0.30078995 -0.97129864 -0.2572879 0.1946199 1.6131512 -1.2787452
1423 -0.551431 -0.31434074 -0.9550964 0.031474903 0.4038607 0.44744238 1.0078006 0.3536737 -1.6710812 1.7824365 0.3490919 -0.14050518 -1.3141552 0.6621013 -0.29978663 -0.5748698 0.007620124 0.97579896 0.8120081 0.52174485
644 -0.6954599 1.3384402 0.39185598 -0.739549 2.5409703 -0.6414012 -1.2882078 0.19559087 0.61368346 -1.000375 -0.510105 1.034513 -1.399292 0.688887 -1.4535949 -0.97316396 0.69638956 0.91542345 0.45680106 -1.1885505
2394 -0.1950714 0.13423304 0.7817579 -0.27063707 1.8208507 -0.5129512 1.096908 0.8855084 -0.8253417 3.0426803 -0.6283197 2.98154 -0.14358313 0.30493587 -3.4752634 -0.5068627 1.1725872 0.6893833 -1.3436604 -2.1986637
1235 0.55579305 0.27312803 1.090767 -1.3634181 1.5089965 0.008492894 1.284066 0.80174387 0.03686517 1.6711383 -0.34789768 0.6825996 -1.965622 1.1668148 -0.5181971 -0.70061207 -0.15013142 0.060535442 0.84047943 -0.05085059
1004 0.9110693 -0.1866165 -0.52706075 0.82543564 1.1086166 0.7024052 -0.77679366 -0.7789709 -0.4749079 1.2727597 -0.5999422 0.65859175 -1.5345517 -0.15189639 -1.3936584 1.3164049 0.70553935 0.15096118 0.9669438 -0.38943642
1535 -0.9477284 0.6434671 0.51114404 0.19935536 2.8258703 0.21121761 0.5959639 1.1262436 0.535301 -0.004150519 0.77108264 0.6205688 -1.3556314 0.81789243 -0.7947599 -0.98503745 0.39945635 0.77574617 -0.40776077 -0.7167055
550 0.9421443 -0.32360253 -0.2380094 0.6561885 1.2994059 0.74202794 -0.61612666 -1.0639116 -0.705885 1.5025066 -0.25529867 0.33875385 -1.500184 0.6839407 -0.27574518 0.08592609 0.5399411 1.0263902 1.0682664 0.08330658
2276 -0.47306857 1.9724289 -0.72281575 -0.7297731 1.6681026 2.1903508 0.8735625 0.74378306 -1.1300955 -0.7927423 -2.876393 1.2787778 0.71804285 0.6272866 -1.8406794 -1.4682226 2.3063412 -1.2553413 -0.9318901 -1.9962128
493 0.98760766 0.5663429 0.12260764 -0.18306564 0.8168787 0.29248315 -0.4959904 0.28000605 -0.188719 1.6181751 -0.3528441 0.7465784 0.5353278 0.8817073 0.083933905 -0.23617993 2.0849445 1.1443695 0.27086496 -0.8299812
103 -1.0146905 1.2010854 0.8145514 0.020440739 0.7061547 1.1228867 0.34392312 -0.43913683 -0.50924367 1.0691085 -1.2713084 0.99793506 -0.91435623 -0.39660317 -1.4885813 -0.88855463 -0.11699381 0.23235582 0.61626434 0.28861168
1289 0.32295075 -0.4540148 -0.82150656 -0.21322946 0.9004402 1.4245313 -0.15656914 0.39895222 -0.58857137 -0.2541973 -1.2641661 -0.2599115 0.98762584 0.9409684 -0.82648355 -0.16753289 0.8481788 0.887414 2.0486736 -0.67815286
905 -0.37812722 -0.9940796 0.5308592 -0.45302537 2.737069 0.9748717 -0.15288688 0.57567114 -2.125231 -0.72893 -1.3883989 2.046998 -0.4719065 1.674898 -1.9089377 -0.67844427 0.24943586 -0.8230834 0.86804855 0.8847482
1026 0.72428405 -0.39820176 -0.4208975 0.08024584 1.8317667 1.35389 -0.0942102 -0.13628876 -0.7627401 1.3723108 -0.6807005 -0.53360224 -1.0738956 0.051297717 -0.66629606 0.19924976 -0.2266602 0.37005094 0.20261414 1.3009151
689 -0.19587657 0.59969443 0.67042464 -1.8903596 0.6431159 1.5407997 0.4579776 0.39636242 -0.39466372 -0.51229703 0.44259194 0.50178033 -0.8616127 0.180086 -0.2336568 -0.19724727 1.3466101 0.13740344 0.91312265 0.090786375
72 -0.03240383 -0.27106744 -0.8370599 -0.8407652 1.433574 1.710015 -2.0082786 0.024572967 -0.45847893 0.41237542 0.06276356 -0.012491688 -0.2408921 0.042827077 -0.2211762 -0.7078221 -0.52896535 0.087234676 0.4977337 -0.5679208
633 -1.0466354 0.2857169 -0.48449236 0.26866245 1.2124827 -0.22738439 -0.6073947 -0.7497772 -1.3145506 0.7810364 -1.2247323 -0.06930728 -0.48301253 -0.37989587 -0.4266158 -1.0801418 -0.48950133 0.14207222 0.8518463 -0.58213186
1394 0.7291759 -0.3160865 -0.9291738 0.48304087 1.1078486 1.7087078 -0.25093195 0.36630315 -0.7789094 0.694334 -1.5679071 0.5945792 0.5941919 0.6896215 -0.034787852 -1.390149 1.0770042 0.5008952 1.8177253 -0.31290412
2427 0.3121678 0.72830194 -0.11891307 -0.9362825 1.0766178 -0.07841606 0.30161405 -0.5850002 0.52806246 1.1855941 -0.52434856 0.02981963 -1.9664854 0.060808904 -1.3168788 0.46036047 -0.20067248 -0.7169095 0.4422615 -0.7016299
1124 0.14859904 1.8071846 0.2266586 -0.022849463 2.0659032 -0.28749827 0.041961987 1.1072007 -0.91660684 -0.12231287 -0.05955568 0.598096 -0.93757707 0.17418347 -0.5831153 0.6322884 -0.40025458 2.0782738 0.8681495 -0.2927457
290 -0.8656852 0.91542226 -0.06402216 -0.15092921 3.5161066 0.2616865 -0.12432801 1.0429366 0.24188545 -0.47914144 0.52022266 1.2785035 -1.4901594 0.8196868 -0.5306627 -0.86288923 -0.24348888 0.86365235 -0.4823875 -0.96231484
351 1.8120607 -0.2548896 -1.3010612 -1.0892056 0.26381308 1.1383914 0.18518372 0.806683 -0.24377306 1.1022058 1.1870743 -0.13824332 0.97266823 0.8846623 -1.6789738 -0.7339977 0.12492089 0.66897833 1.9791439 -1.7432121
1276 -0.03305731 0.68261033 0.73941594 -0.7893447 1.934975 0.51658505 0.6340251 -0.0038761932 0.29180574 1.692175 -0.48093867 0.31094468 -1.8556628 0.3140413 -0.71221143 -1.0487881 -0.596637 -0.20944762 0.21781133 0.14347981
1858 0.45573944 0.40818322 -1.0399107 -0.76989657 1.5711126 0.8501596 -0.08099893 -0.4144052 -2.0310235 1.7555051 -1.5300533 0.35717425 0.9632175 -1.0829242 -1.149563 0.53744406 -0.6063025 0.26124817 -0.47308704 -1.2407568
83 -0.2771744 0.7949086 -0.25291336 -0.6466496 0.99365175 0.577124 -0.44885793 0.14672315 -0.6675199 0.43153805 0.09376425 0.84086514 -0.45404947 -0.5487772 0.015516724 -1.3038852 1.9748727 1.2706954 0.48047075 0.3729964
561 0.7582862 -0.9919202 -0.64262044 -0.41359258 1.6179497 0.15915659 0.04360084 -0.70815724 -1.1192958 1.1559906 0.13082524 -0.20121044 -0.033110864 0.07121573 0.31348026 0.4279559 -0.2924011 0.48555726 0.057384394 -2.1175668
720 -0.32088515 0.8342496 -0.65230197 -1.0487927 0.48945603 0.3492024 1.5721223 0.12011441 -0.88407207 0.9718968 -0.6620982 0.5847735 0.7808577 -0.024089713 -0.43016702 -0.41363227 -0.39721644 -0.33880994 0.54893374 -0.4892664
315 -0.32820493 1.9362333 0.6114617 0.31630966 1.5137498 1.3830245 1.0383123 -0.30366796 -0.27317753 1.228156 -0.34724784 -0.74070066 -1.0349405 0.30927035 -0.27863142 -0.75523233 0.34097204 -1.1287854 1.1931857 -1.7547737
205 1.0163287 0.7327979 0.038958095 -1.6984267 1.1774977 0.5437667 0.4658045 1.4542156 -0.16601104 -0.022891836 -0.37457025 -0.7470371 0.26635927 -0.4878204 -0.81038916 -0.41106376 0.35665542 -0.5285152 0.8466161 -0.65546346
984 0.58050317 1.8272078 0.051652595 -0.26564264 1.524899 0.12665243 0.7191007 -0.2569737 -0.55820924 0.66089684 -1.2971509 -0.18412545 -1.3442411 0.055305615 0.43414283 -0.9462556 0.04150338 0.82567537 1.9867862 -1.5873755
1007 1.7572967 -0.40041375 0.10400856 -0.066632286 1.3943831 0.7280722 -0.3838916 -0.21845213 -0.7261941 0.6387407 -0.21521519 -0.46304917 -0.9102636 0.17416054 -0.59903306 0.24465495 1.3254181 0.4776189 0.7329493 0.9871938
1232 -0.50251013 0.9407754 -1.2803785 -0.27699134 0.18329033 -0.9006208 0.31714708 -0.017789215 -0.7541699 0.44683093 0.5971321 0.15824164 -1.3426027 1.483437 -1.475608 -0.40950707 2.5021238 -0.0807638 0.30482376 -1.0025799
491 0.7522396 0.81118214 1.3742863 -0.7557553 1.117215 0.5602685 0.056294132 0.7552561 -0.38520554 1.4767712 0.20906432 0.5983238 0.30738184 1.4753306 0.052296102 -0.49962273 2.1092527 1.1495875 0.31277737 -0.8789727
1410 0.037516452 0.757278 -0.55958533 -1.2969111 1.0383501 -1.0912856 0.656181 0.64778924 -0.205103 0.17343041 0.30782178 0.4862776 -0.26333204 0.15475127 -2.3174658 -0.36071312 0.91944367 0.52925414 -1.0540234 -1.7922103
1149 -0.2739666 0.8389576 0.8298981 -0.013598262 3.23227 0.24023464 0.05178756 1.6586751 0.25196853 -0.63494396 0.8515519 0.61868465 -1.2831388 1.2186615 -1.3353243 -0.38270152 0.36571357 0.78697604 0.31051123 -0.23700681
765 0.5471607 0.50501573 0.8462542 -1.0262437 1.59073 -0.19734026 0.4932692 -1.1305828 -0.68356514 0.378838 1.8313196 1.39677 -0.43023896 0.09380228 -1.7331796 -0.22380857 1.7720884 0.13682768 -0.084531926 -0.62000597
69 0.3254099 -0.86203194 -0.75192976 -1.857826 1.5030266 -0.024296677 -1.2007664 0.35238168 -0.8581531 1.0872773 -0.8323472 -0.67045563 0.5391689 0.5720832 -0.78264296 1.2174517 1.3194786 0.45948878 1.181376 -0.9066813
2322 2.225156 1.7815926 -1.6275754 -0.5059465 3.0759444 2.2621021 0.3286495 -0.22472465 -0.004884589 -0.22751647 -0.11363382 2.5135007 -0.6789627 1.6067586 -2.4344964 1.8277912 -0.67063504 -0.8090069 -0.18803504 -2.3129547
76 -1.0201075 2.1234825 0.2570345 -0.285071 1.960557 -0.05763353 0.41794315 0.9406418 -0.5260157 -0.41659823 0.09291227 -0.27159122 -0.8004658 0.3070171 -1.662141 -0.167165 0.04356633 1.2907093 1.6965854 0.39175928
1005 0.39031157 -0.12114232 -0.15971437 0.9090693 1.1006945 1.3004841 -0.92570275 -0.35431147 -0.60231674 1.4906105 0.031247918 0.26417217 -1.7057062 -0.347935 -1.8328896 1.1104468 0.38196266 0.24722555 1.3133652 -0.12309578
1429 0.57149523 1.0122683 0.3934889 -0.13690537 2.204309 0.72927123 -0.017339803 0.23436017 0.09788532 1.3238876 -0.8278806 -0.84395313 -2.0561771 -0.56685716 -0.64188844 0.9044525 -0.30146292 0.11215264 0.1168229 -1.0126015
484 1.1949837 0.3679816 -0.09163662 -1.3817292 0.34868625 0.8281629 -0.13019964 -0.19367045 0.12802811 0.6551316 -0.08756543 0.21869111 -0.12349411 0.21520843 -0.74426764 -0.39821622 1.6186339 0.05567695 0.03248967 -0.053563565
2090 1.2955896 0.56001467 -0.27045643 -0.29537404 0.6302839 1.2607945 0.8166221 -0.22147357 -0.25506896 -0.10703386 1.4331008 0.8630118 -0.9146845 0.97849303 -1.6844867 -0.7432489 0.52991307 1.1701703 -0.9712197 -1.4926045
1472 0.15767135 1.4534967 -1.257254 1.0249565 2.9411128 2.2573707 0.5199504 -1.4207497 -0.2982531 -0.73688245 0.32172114 2.0089269 -1.052431 1.4933828 -1.4890816 0.7699933 -0.062283456 -0.75859004 0.48802978 -2.1361284
1574 0.66436166 0.21524644 0.6507398 -0.7742603 1.1571039 -0.24366714 0.23548965 -0.8336601 -1.1015515 0.34197366 1.6807487 0.6210747 -0.9343875 -0.28563392 -1.4693973 -0.38304418 1.3547223 0.3852751 -0.0051801135 -0.4509633
1017 0.5380895 -0.8717937 -0.26767007 0.3870173 1.2482684 -0.2723803 0.818712 0.12872481 -0.6627253 0.13009101 0.29106125 0.34156165 -0.67419225 0.90811837 -2.0059607 -0.83909446 -0.40757284 0.45059666 -0.75269115 -1.1167848
2165 0.21765208 0.8324599 0.3355798 -0.4302684 1.2774696 -0.6259451 0.7798089 0.7299838 -1.4703621 1.325551 0.5713405 0.1536242 1.4049075 2.5645423 -1.0302274 -1.6170752 1.7913654 1.5205543 -0.28860867 -0.094825014
1673 0.23810363 1.2484194 -0.7220964 -1.2399923 1.0764766 0.91657495 1.055078 -0.6197084 -1.029899 -0.3021097 -0.020164609 0.21409984 0.557843 -0.75091493 -0.031116515 -0.050260544 0.8963325 0.12491537 -0.06070293 -0.9672013
2625 1.1315757 0.58420366 -0.81677735 -1.422259 -0.13731545 -0.40553018 0.80110943 1.4514552 -1.5613079 0.17383863 -0.6343241 -0.022780064 -1.3994122 0.37428033 -1.0306745 -0.57611424 0.6116988 0.51612025 -0.61971587 -0.7774277
1582 0.28330678 0.30116728 1.1341758 -1.3491219 1.3988502 -0.4177574 -0.08406665 -0.8877511 -0.5949489 0.30944672 0.9780871 0.9043477 -0.5442337 1.0376152 -1.6930985 0.009586263 1.8827517 -0.40698102 -0.29264465 -0.13701722
252 -0.42694443 -0.2519285 1.2227417 -0.65247434 2.54621 -0.13921095 -0.31692013 0.55737984 -0.2169912 1.890236 0.77636117 -1.8984017 -0.5411252 1.2029623 0.46021628 -1.2136765 1.5124546 0.7027819 0.6923456 -1.4457144
2429 0.07167516 0.33816376 0.8727023 -1.2190101 0.99699974 0.48786032 -0.025598377 0.46646208 -1.8261839 2.097049 0.03508005 -0.4504601 -0.30279124 -0.6111312 0.074164145 -1.9826162 0.41680706 -0.06278749 1.2295787 -0.5222817
859 0.91379255 1.1710901 2.0480642 -1.2498186 1.0940019 0.3053793 -2.1496332 0.002825427 0.17104076 0.6264719 -1.1573366 1.7211105 -1.416859 0.044800423 -1.2993778 -0.08732432 1.2349283 1.3440552 0.9928983 -1.622058
609 0.32558784 -0.627868 -1.010973 -1.0441734 0.70384675 1.0308537 0.37008783 0.053639244 -1.2233579 0.38732657 -0.9718948 1.1296308 0.15144996 -0.47287786 -0.0570242 0.34514964 0.030373871 -0.10057579 0.2108909 -0.88025016
2399 -1.150449 0.6743268 -0.55019855 0.050120432 2.775678 0.71699 -0.83284336 0.44985476 0.42186335 -0.16590472 -0.672832 0.6313121 -1.9984703 -0.13713756 -0.33595142 -1.042901 0.6264336 1.1819499 -0.57798094 -0.22417203
1258 0.17294273 -0.10677655 -0.429466 -0.40787515 0.30818915 -0.7571467 0.8207082 -0.62559474 -1.9029688 0.015472405 0.48993883 0.5124199 -1.234811 1.090676 -2.1768236 -0.3261363 0.9126274 0.46706173 -0.76528704 -0.7444298
1541 -0.3925442 0.8939842 -0.16429086 -0.9011704 0.6795916 1.0065002 -1.2529756 -0.2382962 -0.6385168 0.987456 -0.41053313 0.9660462 -0.06522891 0.27234933 -0.29085475 -0.4630662 1.6197397 0.7971098 -0.7177664 0.17329079
161 0.076193124 0.2831442 -1.1230586 -0.527213 1.2231472 0.63256484 -0.027977316 -0.865943 -1.4227682 1.5950422 -1.000143 0.16631976 0.63844776 -0.7523194 -0.8313966 -0.045172334 -0.9653831 0.4547908 -0.24576999 -0.81450367
1115 0.016251503 0.35402608 -0.4973794 -0.1475905 -0.15224722 0.7469571 0.7603413 -0.4943545 -0.059952147 0.21118663 0.8989581 0.51723236 -1.384326 1.4354349 -2.2082443 -1.0358379 1.3458034 0.62687683 -0.5913909 -1.6084411
1785 -0.5568749 -0.39618614 -0.79481864 -0.15663967 1.0109665 0.050002392 0.06853883 -0.098807596 -1.4528844 -0.11373918 0.23810036 1.5646532 -1.0548192 0.7430667 -1.3255696 -0.35464236 0.8292406 0.5880212 -1.946518 -0.92417884
1828 2.3133829 0.86791736 -0.42636186 1.0169178 2.6159084 -0.043381277 -0.0380629 -1.8452905 -1.8078135 0.19086693 -1.4166645 -0.21665421 -1.0371712 0.6931538 -1.2804323 1.3266071 0.7345705 0.66572815 1.0377138 0.121303014
635 -0.42625943 0.34750098 -0.08007226 -0.4804085 0.6939851 0.15662459 -0.3015946 -0.38449833 -1.1699798 0.85439277 -1.020867 -0.77952194 -2.0772357 0.10381401 -0.2181933 -1.4854468 -0.2471567 0.581505 1.2533684 -1.0793334
863 -0.035137635 0.36641926 -0.44925454 -0.58449006 0.030961197 0.27093494 0.052211404 0.4096354 -0.4136797 1.4979215 -0.9799972 -0.47481436 -1.6688476 -0.3198428 -0.78079563 0.022941025 -0.047371805 0.9700704 1.3182666 -0.7783134
2207 0.86981463 -0.04048889 -1.2061152 -1.0602295 0.6327334 -0.690341 -0.2397854 -0.8485316 -2.5312073 -0.20541102 0.867331 1.1937896 -0.76748824 1.55411 -2.6626325 -0.86883557 1.169924 -0.06768181 -0.7670609 -0.47556528
1748 -1.148847 0.5844056 -0.52782416 -0.107977286 2.30684 2.0221946 -1.1099938 1.2218255 -0.18793575 1.7390355 -0.6797412 1.484224 1.160664 1.2790117 -0.79051065 -0.29424584 0.041880663 0.04644133 0.0144360475 -1.1417689
1062 0.2670848 0.64933354 1.109242 -0.18424346 1.8516068 0.5279241 1.055179 -0.0750403 -0.3442384 1.0982181 -1.23187 -0.50993925 -1.0189782 0.20712198 -1.0662181 -0.7506988 -0.85779864 -0.4789746 0.5440552 -0.22547929
2511 -0.46401703 -0.112068355 0.88066804 0.78727025 3.3838503 2.395899 -0.4006924 -0.23455957 -1.8384941 -0.12477247 -0.93495333 2.2701101 -0.013237474 2.1700761 -1.2977954 -0.071090244 0.38660437 -0.70803016 0.4493633 0.35547218
261 -0.71114963 1.0900841 -0.5159533 -0.24014741 2.1540186 1.7610309 -0.7350802 0.2951325 -0.11192328 1.6183696 -0.81974703 1.4858114 1.4726402 1.6421003 -0.78254986 -0.8532153 -0.2290488 -0.5433457 0.4840918 -1.6053195
718 -0.1386831 -0.4488664 -0.6407561 -0.54783976 1.2384379 -0.43384308 0.077689 0.74193645 0.49218136 0.2493689 0.59932977 0.25818002 -0.70619464 0.63875705 -0.27316245 -1.0965319 0.4772132 0.5688455 -0.24335213 -0.8550672
1185 -0.33780387 0.017856322 -1.1478605 -0.24543275 1.0813135 -0.742699 -0.27061793 -0.118801154 -1.8863481 0.25679424 0.6132917 0.8312323 -1.204481 0.5396015 -1.1547605 0.07086645 0.58571935 0.5330483 -1.5312898 -0.5142031
468 -1.7423688 2.06446 -0.96883535 0.43653122 2.6928477 1.4611764 -0.7390936 -0.4396233 -0.20818248 0.92224 0.027788 1.1807079 1.1229993 1.9878225 -1.5310583 1.2626648 0.5445044 0.95426375 0.8839976 -1.8077705
2031 -0.7708381 -0.07977946 -0.39387184 -0.043783557 2.0637288 -0.27609557 -0.1805014 -0.06302308 -1.1784985 0.76180744 0.9011273 -0.97167647 -1.2972463 0.12036865 -2.810236 -1.2098602 0.95003855 0.33233997 -1.2007942 0.47240102
758 0.9030438 0.793075 -0.5899802 0.28943077 0.8234196 0.25116664 0.107096456 0.71471053 -0.55401534 0.33495793 1.5297008 0.1532907 -1.1715864 0.30185756 -1.3208342 0.55001986 0.89910555 0.5740379 -0.9213245 -1.2521242
1113 0.43106985 1.287103 -0.41894832 -0.21991238 0.6138187 1.2821691 1.3554174 0.14606765 -1.3292029 1.2071654 -1.2118893 0.25523907 -0.39257026 0.55052364 0.40536404 -0.2823116 -0.5608708 -0.7750328 0.85292095 -1.0016047
1021 -0.8883581 1.2738929 -0.08415453 -0.5200371 1.2035991 0.36538854 -0.12428566 -0.48514742 -0.88492 0.72984457 -1.0336584 -1.1232692 -1.7011851 0.33630416 -0.2929503 -0.34096724 -0.6146185 0.4047108 -0.14837866 -0.7140402
1892 0.8319526 1.1415697 -0.8340152 0.84073126 1.0390482 0.883552 -0.551496 1.5795715 -1.543035 -0.13999517 0.09522902 0.899015 0.083623864 -0.09268567 -1.231551 0.7935481 0.089202255 -0.4532648 0.733585 -1.432863
419 0.6698832 0.6886665 -1.2327106 -0.68453777 2.3833895 0.71016455 -0.7114144 -0.46911493 0.35796762 1.4430472 -0.23848663 -0.7338009 -0.63903266 -0.17945729 -0.00025222581 0.80023277 0.07382029 0.28371608 0.14522268 -0.09357108
2166 -0.40227604 0.6426911 -0.7571475 -1.1561152 0.51041716 0.5629844 1.1187127 0.61713344 -1.2932086 -0.52237445 1.0509123 -0.77287734 0.0005217362 0.8663509 -1.8975184 0.18802066 -0.0207599 0.41676804 -0.6770984 -1.0689232
207 1.172567 1.4047124 -1.4445878 0.87033176 1.3839962 1.342169 -0.046249695 0.78584933 -1.3908186 -0.22677104 -0.6309066 1.6139797 0.28528103 -0.04603247 -1.1992646 0.7788301 -0.51311475 -0.31892654 0.5083405 -1.3848661
2342 0.47637424 1.014047 0.31241634 -0.44939885 0.98234093 1.9223195 -0.7222939 0.5388546 -0.27328444 1.2428992 -1.3576622 0.01925657 0.6146121 1.2113047 -0.62975824 -0.7024618 1.4438227 0.9630264 0.64013135 0.56054175
2179 -0.3636051 0.10926896 0.03466131 0.60861 -0.39261478 0.856058 -0.54271144 0.4114487 -2.1488423 0.34607714 0.25939485 1.870673 -0.7419726 0.59138924 -1.8640071 -0.9925213 0.5980675 1.3900506 0.76588523 -1.4616625
2191 -1.2653155 -1.1669763 0.07524368 -1.5405661 3.358122 0.36299968 2.0494883 -1.0984327 -0.086674675 0.26353368 -2.355318 0.18642211 -0.00035005697 2.930163 -2.9203908 0.30038533 0.95195967 0.7781022 0.603565 -0.74047357
228 0.2401355 0.46188787 -1.3078289 -0.34567037 0.91214216 0.15012509 0.42881134 0.07720874 -0.06851654 1.4260114 -0.328527 -0.5353316 -0.496114 -0.75222635 -1.1439059 -0.9831708 0.18141748 0.13625708 0.3428623 0.7764418
2303 0.94272995 0.20777029 -1.3178549 -2.3754413 1.1973149 0.7020108 1.359141 0.13085373 -2.241244 1.6515903 0.25583723 -0.14243765 -0.29354018 0.41645664 -1.3986297 0.8480266 1.8392602 0.5399619 -2.6357703 -0.77207816
1516 0.4842706 0.120092556 1.0513496 -1.4680572 1.0309633 -0.5081025 -0.6612785 -0.21849932 -0.5809015 0.10854372 0.914805 1.0330486 -0.9547285 1.4779837 -1.9899824 -0.2554198 1.173482 -0.24130802 -0.21390633 -0.07095805
848 -0.587944 -0.08664369 -1.0724788 -0.13827467 0.49097607 0.7269262 0.43887892 -1.3440337 -1.063316 2.017941 -0.08556082 0.14990282 -0.6922969 0.56149274 -1.1994822 -0.043789323 0.13195652 0.5323375 0.31690773 0.8962332
819 -0.58299816 1.5991346 0.37887317 0.69508827 2.2691975 -0.10862362 0.3154941 -0.0704148 -0.5604463 -0.41890872 -0.32119477 0.20336673 -1.1215185 0.76653653 0.30109513 -0.85704833 1.0793879 1.3501407 -0.04336633 -1.1459377
1729 -0.47063744 0.24643144 0.27265197 -0.10717199 0.24018967 -0.2607261 0.6738847 1.2114891 -1.3769522 -0.5656343 0.18646953 0.46205464 -0.58389616 0.22495022 -1.8395516 -0.5377877 0.55296314 0.9258692 -0.40092093 -0.86767507
1051 -0.3461229 -0.59106773 -1.7078146 -0.7857461 1.5822902 1.5587761 1.6179079 -1.4163289 -2.2059698 -0.33900458 -1.5069786 0.7304479 0.1542291 0.105908014 -0.11214499 -1.4076238 1.1941901 -0.28577134 0.27117172 0.33344388
497 0.20968595 0.24659559 0.38600597 -0.06632062 1.7343925 -0.69560254 0.65501976 0.64404976 -0.52588135 2.8724778 -0.8936992 2.8966212 0.010902049 0.22308074 -3.374583 -0.23056921 1.2236824 0.9650174 -1.2010474 -2.2226734
572 0.9202012 0.9018577 -0.82269853 0.47728196 2.7786639 1.6868112 -1.1406624 1.4933006 -2.838754 -1.3798254 0.18654642 2.1902745 0.29645365 1.4473157 0.39451483 -0.9172982 0.22563732 -0.55466944 0.7078771 -2.8478916
2108 2.3816662 0.9596825 -1.6334274 -0.8569726 0.53056073 -0.19614403 0.82250607 0.40540472 -1.7490594 0.60024303 -0.88255644 -0.5715011 -0.609915 0.962542 -0.9700525 -0.4585712 0.7070439 0.3095983 0.6103583 0.33344114
2561 -0.95924884 0.20715316 1.547286 -0.78140306 3.3953333 -0.51894176 -0.49031246 0.64530325 -0.5856554 1.7028803 -0.23064181 -1.7428248 -0.70554066 1.03926 0.47903657 -0.18402664 1.1185867 1.4385858 0.4650166 -1.2433114
1796 -1.0086219 -0.047318604 -0.33384958 1.241978 -0.2203645 0.76793003 -0.6024284 0.8912215 -2.4711034 0.4965465 0.49326894 1.6997175 -0.61568284 1.257831 -2.3813257 -1.2218734 1.504931 1.2031864 0.45116913 -1.547977
1054 -0.2204293 0.045148198 -1.1727259 -0.55544305 0.7292645 1.4369916 -0.22829735 0.18060514 -1.0562191 1.1614176 0.12175605 -0.27911788 -1.4709299 0.29217917 -0.49687344 -0.20339075 -1.1289015 -0.03253903 1.4040341 0.19434288
987 -0.84179604 0.6023341 -0.3853334 -0.33372116 0.46114284 0.63026774 -0.055743873 0.42382148 0.13532472 1.3651893 -0.5617441 0.97577786 -1.5335269 -0.37119985 -0.6677581 -0.5582697 -0.5334625 1.812036 0.83642054 -1.4414246
1498 -1.3449792 1.6181532 -0.11435635 0.2830996 1.6642594 0.42270547 0.029308578 0.7836974 0.16071972 -0.31030422 -0.14632916 1.3969584 -1.2873243 0.7204763 -0.1364894 -1.4465028 1.3115262 0.9998603 0.33197597 -1.1174775
555 0.10067646 0.41187468 -0.06561478 -1.8923723 0.54781663 1.3583937 -0.013319335 -0.36656636 -0.17465955 0.92777103 0.66979235 -0.3073778 0.17403474 0.237809 -0.59268284 -0.3321487 1.4015336 0.5141476 0.39248666 -0.0230022
2509 -1.2020228 1.1700172 -0.91254896 0.36019436 1.1152668 0.7667725 -0.15571542 -1.2133349 -1.8893124 1.3943862 -0.96847165 -0.41649747 -0.22068708 -0.09935957 -0.83865935 -0.6843282 -1.3156171 0.16103892 0.18194881 -0.80077314
193 -0.057193503 -0.5126005 -1.4513847 -1.8498801 1.4578029 0.6081234 -1.1457676 0.64632684 -1.3491014 -0.7162893 -0.07618334 1.5212373 -0.94261867 1.071688 -1.500826 -0.67589253 -0.62612367 -1.5407889 1.2056073 -1.4381602
323 -0.6880495 0.34937194 -0.73281586 -0.349535 0.43941405 0.4984809 0.050879 -0.67745066 -0.9642867 1.5971293 -0.7465756 -0.045039617 0.018511977 -0.1412854 -1.1589742 0.0002606817 -1.1248797 0.93172985 -0.276429 -0.5000162
89 -0.009858183 0.25911278 0.5381626 -0.7872243 0.6621866 0.08017413 -0.30417836 -0.52523804 -1.4913948 1.1246202 0.2993535 -0.8798393 -0.16036174 0.10751762 0.035841804 -1.2606362 0.5183362 -0.17951351 0.8420991 -0.8293438
2486 0.32974923 0.35526568 0.16346227 -1.4243554 1.1244999 1.0901157 -0.90479714 0.04618274 0.41135073 0.8478636 -0.36427054 1.0648597 -0.635633 0.11226271 -0.17553869 -1.309225 1.7161185 -0.21365035 0.09758769 0.093857974
624 0.89594096 1.0461888 0.07673943 -0.24262951 0.8704001 1.0260613 -0.4895883 0.5046643 -0.5120257 0.96020067 -1.0784756 0.00810102 0.79409814 2.0321987 -1.0627315 -1.4852784 0.76935464 1.6818689 0.43043166 0.20481545
1797 1.430068 0.1601241 -1.2131232 -0.09822054 2.0024157 0.86854935 0.3429589 -0.48370272 -0.33921608 -0.58280903 0.40348938 0.09324374 -2.2430804 0.6144136 -2.477774 -1.1563541 0.89862055 0.41588685 -2.1024292 -0.746835
194 -1.3342327 -0.06014934 -1.4462354 -1.7266135 0.9391942 0.72153723 -1.4588767 0.84274644 -1.8290458 -0.20254008 0.08655088 0.7167248 -0.6708679 1.2252338 -0.780213 -0.8072604 -0.079662606 -1.3548782 1.0693125 -0.7526238
1213 -0.6932453 1.9284073 -0.20914836 0.72326785 2.1295183 -0.13090344 -0.08687631 0.107068494 -0.21509905 -0.3557846 -0.35306966 1.0320702 -1.0178639 0.55189 0.12104554 -1.5252587 1.4926115 1.5774354 0.9346934 -1.3100188
1339 0.58328336 -0.17350394 -0.84542906 -0.43737987 1.9839207 0.15935823 0.33487934 2.3808646 -1.1645875 1.845321 -0.674182 2.684116 0.37890035 2.6088436 -2.307777 1.0289967 1.0794731 -0.6907546 1.6361258 -0.014001417
1593 0.51871496 -0.17684951 -0.35075837 0.17191501 0.635988 -0.3278542 -0.6450706 1.3310243 -1.0914074 -0.09229777 0.4295404 -0.061284777 -0.97545177 0.23844022 -1.1038545 0.21302007 -0.26115814 1.2620277 0.85273063 -0.5929246
1505 0.47077927 0.112594426 0.59788686 -0.35246795 2.954743 0.8330684 0.14671175 -0.4724636 -0.8082732 -0.40829054 -2.7739606 1.3601055 -0.4042475 1.6232431 -2.2285683 1.5794421 0.60958415 2.1956654 -0.8401586 -2.6768763
965 0.67761576 0.1397767 1.0639077 -0.815527 2.0400426 -0.2551467 1.2544489 -0.4219951 -0.45798743 -0.12673627 1.2311687 0.13610034 -1.5898215 -0.29724285 -1.4244288 -0.64553577 0.981713 1.2421638 -0.109174795 -0.4600787
1525 -0.65861934 0.05577262 -0.5479116 -0.22855943 0.69948995 1.1207342 1.0687429 -0.4115174 -2.0297534 0.058119107 -1.910203 -1.069578 0.006443317 1.3149291 -1.7590585 1.0318332 2.1711586 -0.5791496 0.8119338 -1.2276858
1826 0.5753054 -0.80749047 -1.0217147 -1.6235142 1.1857389 0.67576617 -1.0509182 0.8818128 -0.9350399 0.9253889 -0.3281368 -1.0173106 0.76311624 0.43398583 -0.6055565 0.9412186 1.5721964 0.61451954 1.9432797 -1.6865145
504 0.07704577 -0.29461426 -0.06998311 0.06113946 0.70006585 -0.18089443 0.9586726 0.49534997 -0.5744415 1.7266359 -0.5116786 1.8833876 -0.4122905 0.049886692 -2.3052292 0.04242616 1.7094125 0.35122263 -1.303606 -1.9321288
1282 0.5119223 1.6910963 -0.7663773 0.6816958 2.9424913 2.2135925 0.9525886 -1.4620142 -0.5875571 -1.0621657 0.28341284 1.561476 -1.5262841 1.6247903 -0.92584306 1.3686646 0.6609416 -0.28908154 0.16344619 -2.1828125
1313 0.8717919 0.6561516 -0.72709554 -0.6811476 1.6623285 0.7779427 -0.13121827 -0.5207268 0.47663105 1.7461525 -0.71184504 -1.0511358 -1.1609004 0.13524856 -0.4331023 0.53578585 -0.015494359 -0.19781226 0.10757425 -0.3866829
1306 0.4145824 0.12349089 -1.218496 0.68187135 1.4146651 -0.024045642 0.72511315 -0.32079786 -0.860027 -0.052486613 0.7826028 -0.17551808 -0.3668482 0.24305685 -1.5976167 -1.2872835 -0.27900642 -0.45306656 -0.94908077 -1.0866498
1648 -1.0217301 1.1557819 0.6894426 -0.25989625 0.6136423 1.5239837 0.9614559 -0.55690396 -0.21963796 0.5820072 -0.9805742 -0.0008970157 -0.15597434 0.71853846 -0.95850885 -1.3076308 -0.2922303 -0.1678336 1.7944885 -1.8724335
1583 -1.8339591 0.41847563 -0.35083082 -0.5386438 1.6449238 0.33113784 -0.2347744 -0.46883 -0.6235744 0.71656865 -1.0687684 -0.06803956 0.30573308 -0.018818837 -0.405908 -1.547588 -0.7822693 0.4211756 0.89690644 -1.0184369
269 2.169193 0.7231502 -1.4567484 -0.7378151 0.7789694 -0.31964383 0.6848138 0.26447794 -1.4016669 0.6682288 -1.1579343 -0.5916507 -0.7125557 0.99524724 -0.22657846 -0.37872595 0.9960627 1.2857786 1.0254718 -0.08314575
2586 1.1066103 1.7098093 0.5815468 -1.6834358 2.450763 0.065258935 1.8582094 -0.0601352 -0.28457662 1.0045016 0.33516997 0.62537926 -1.6442589 0.8358675 -0.20254686 -0.05655933 -0.20797858 -0.22376297 1.6051693 -0.15109745
1122 -0.44820854 1.090803 0.47227475 -1.3719093 2.7873116 -0.68324167 -1.0158093 0.7031167 0.43537855 -0.6438621 0.26796716 0.7952625 -1.1263095 0.66369 -1.3860093 -0.4040009 -0.24792713 0.87473637 0.80144846 -1.0795109
2089 -0.5896449 1.3046942 -0.44764107 -0.17156436 2.7898977 1.5482765 -0.4202469 -0.08900342 -0.21929279 1.0414784 -1.3112977 0.7675655 2.0966272 0.9864158 -0.8328402 -0.029767444 0.15233105 -0.21709758 0.4753122 -1.0872196
508 0.72106016 -0.1710867 0.5689902 0.13395023 1.128651 1.3484424 -0.49814036 -2.2055988 -0.8420421 1.014037 -0.21219358 0.8753226 -1.2540258 0.6805638 -0.5320708 0.31766573 -0.038282283 0.91918653 0.7820764 -0.83052915
1028 -0.3165756 -0.21859111 -0.4319977 -0.6615808 1.0304316 0.1991647 0.09627666 -0.70227116 -0.54681957 2.0839028 -0.8384216 -0.36222348 -0.75529 0.07051917 -1.1013134 -0.1477688 -0.757188 0.33584845 -0.52558327 0.22026019
2613 0.25032598 -0.2720297 -1.549139 -0.755248 2.7327802 1.3862786 0.84624213 0.5212645 -0.20465276 -0.38891327 0.2375504 0.5170355 -0.4021423 -1.7329583 -1.450474 0.5520487 2.2536864 -1.8751314 1.4692053 -1.0740031
2269 -0.63522995 1.7522728 -0.52150637 -0.9545092 1.6818147 2.3917592 0.6622063 0.32281324 -1.2810066 -0.69474095 -3.088586 1.0399721 0.7248786 1.0714672 -2.0056565 -1.8289852 2.0480397 -1.3002566 -1.284926 -2.0789373
1717 0.09536585 -1.2708468 0.07210891 0.04594249 2.7657068 1.4177341 -0.36138198 -0.26349738 -1.5598607 -0.77900577 -0.64884096 2.3656185 -0.06488372 2.219691 -1.6591225 -0.34974673 0.40968242 -1.0174466 0.5651596 -0.20838694
128 0.26745373 1.0493369 -0.48437354 -0.62431574 0.94277036 1.2588491 0.6625792 0.28133202 -0.8239735 -0.19425757 -0.13581534 -0.8991431 0.3462997 -0.4986035 -1.714487 1.0069625 0.562189 -0.54977345 0.7843101 -0.3013855
840 -0.083753295 0.09917196 -0.7237973 -0.0378692 0.34336042 1.6704462 0.7887674 0.48614514 -2.1509285 0.09530546 -0.9910404 -0.60997474 0.09069673 1.4282292 -1.93922 1.5120667 2.5054727 -0.17747879 0.67376876 -0.87600386
1271 -1.284772 0.6543192 -0.090853035 -0.4352287 0.8830525 0.6445269 0.0033166374 -0.48348728 -1.5534103 0.7207818 0.13399397 -1.1449009 -1.2393724 -0.06966634 -0.0882856 -0.24203199 -0.0032995248 0.17882301 0.9485746 -0.45050249
586 -0.2858109 0.5342931 1.0376657 -0.63727057 1.9575593 0.41277912 0.59786314 -0.18781936 -0.08002499 1.2803926 -0.30599964 -0.2746097 -1.4030536 -0.46587586 -1.6471272 -0.70278215 -0.9122886 0.09489696 0.31150422 0.14527786
1173 0.14034955 1.5013429 0.05727888 -0.2769181 1.0551962 1.3357406 -1.2115965 0.9342935 -0.86462057 1.2823416 -1.1642867 -0.42723224 0.750559 1.9965993 -0.43551114 -1.0996494 1.1642407 0.8594949 0.53351825 0.23300846
676 0.45757872 0.47654566 -0.45412937 -1.1047518 1.98943 0.8301003 0.63308644 0.9631769 1.295531 1.1084943 -0.014059522 -0.23728338 -1.364366 0.042297572 -0.3804241 -0.27394226 -0.42310217 -0.25248316 0.7146769 -1.4065481
713 0.45010003 0.4283415 -0.9305703 -0.24925469 0.6344453 0.14654195 -0.12152214 0.5458376 0.24887007 -0.07257178 0.3314612 -0.76150274 -0.83584416 1.3870983 -1.70367 0.4050376 0.9042122 0.8486648 -0.9825481 -0.93522364
2374 0.44091862 0.042215656 -0.5965645 -0.7726785 -0.16588403 0.97911143 -0.7319224 0.41390252 -2.9299781 0.7448163 -0.43581685 0.6502103 0.4533396 0.60754955 -0.7339869 -1.0411501 0.3337347 -0.43294984 0.8002345 -1.4473523
1096 -0.03422415 -1.0846492 1.281047 0.2482812 1.557039 2.0483472 -1.4487395 -1.4906546 -1.4609859 1.8116097 -0.63217026 0.07223043 -2.1532767 2.2103946 -2.2407568 1.7273557 0.7697975 0.39630443 0.1538466 -0.792791
1776 -0.18433432 -0.04068649 0.22273897 0.86839193 0.24499351 -0.017896913 -0.15543108 0.23338649 -1.210449 -0.22754495 0.78151673 1.4143709 -0.59061694 0.72994787 -2.820323 -0.91534406 1.223053 0.45335582 0.23892495 -0.5653016
160 -0.33105093 0.7784716 -0.7478916 0.031245459 1.8501116 0.41599974 0.87945306 -0.33758983 0.4197005 0.5194113 -0.4859817 1.2050253 -0.31674945 -1.7639216 -0.79640263 -0.49277368 0.37162113 1.2051787 0.24624263 -1.2824405
190 -0.019672334 0.32452375 -0.7828924 0.077818856 0.88027763 -0.02362344 -0.68223643 0.86568946 -0.71399856 0.07181578 1.2609266 -0.019577606 -0.818853 1.0313121 -1.0247504 -0.8096407 0.8320567 0.6278208 -0.918517 -1.0582463
1127 -1.4669914 1.0123942 0.028692637 0.3226856 2.3958406 0.14239003 -0.59734243 0.8787824 0.31056362 -0.38411096 -0.77047384 1.5679076 -1.1121957 0.7374223 -0.8631639 -1.1732823 1.0525798 1.6163416 -0.29286754 -1.3719487
1464 0.028799362 1.1696962 -1.0623899 -0.08875528 0.67466885 1.4709582 -0.32831636 0.18488322 -1.3314738 1.0162147 0.29334912 0.47773665 -0.5994242 0.22687064 -0.89443386 -0.12638919 -1.2571753 -0.95173573 1.3474011 0.27648553
420 -0.87026596 0.684874 -0.6205487 0.295808 2.3346589 1.8330647 -0.54975605 0.7799227 0.3236042 1.9307255 -0.9036758 1.1487219 1.1826837 1.4760472 -1.1313689 -0.07470584 -0.020277226 -0.10609591 -0.050739113 -1.1432847
1685 -0.59517217 1.2044426 0.76853365 0.14840952 1.2932006 1.295634 1.1892188 -0.38952684 -0.6209519 0.8513085 -0.95459455 -1.0653813 -0.69246507 0.31662917 -0.5193884 -0.98848635 0.025858194 -0.48860043 1.5888449 -1.9572268
1534 0.47839242 1.5034996 -0.00012677972 -0.10249196 0.78931916 -0.39082646 -0.19880171 0.31476212 -0.8823699 0.979334 0.1385786 0.7584383 -1.6312104 0.20934679 -0.46577796 -0.48923454 1.3415294 -0.4221632 -1.3072687 -0.25586078
1995 -1.2997026 3.3245273 -1.8413622 0.8647442 1.6778592 1.060009 -0.6133465 -0.9142657 -1.0815315 1.0832968 -1.1599165 1.3027122 0.04840234 2.174579 -1.5500388 1.4428465 1.1983083 0.94089097 0.7347513 -1.6787795
1856 -0.52183443 1.9652208 0.70640296 -0.059328284 2.1429107 0.39899686 0.5800528 1.3552943 -0.27380875 -0.26341566 0.067246325 -0.44201344 -1.6421267 -0.048710115 -1.201122 0.28306243 0.9606327 0.97391224 1.7301404 0.43389916
1801 -1.6087245 2.758802 -1.6380442 0.27051964 2.1352105 1.2037787 -0.5129747 -0.42623898 -0.7459104 0.6781468 -1.1980621 1.219299 0.19121532 2.0086088 -1.0897796 1.674609 0.90636855 0.6818209 0.44489384 -1.7027642
31 -0.40089425 0.934379 1.0526311 0.48999086 3.697078 1.0422375 0.009756508 1.6808296 0.29724637 -0.6935548 0.42427558 1.116027 -1.4675424 0.9221167 -1.6559507 -0.58443975 0.45750147 1.4432995 1.5298795 0.21386057
599 -0.60731804 0.4412187 -0.68283105 -1.8895841 4.1766276 -1.705087 0.13442142 -1.2957276 -1.5930003 -0.25051472 -2.2683408 1.1394422 -0.5118377 1.567191 -1.1005069 0.77923346 0.4985761 -0.23290953 0.065677464 -1.3264506
116 -0.019612584 -0.9731153 0.011117349 -0.60334545 2.0335052 1.5121924 -0.7616938 -0.37702245 -2.1797137 -1.1629263 -1.3323586 2.018238 -0.5687113 1.4551377 -1.4055113 -0.12343965 0.41484797 -0.874686 0.6361407 0.21949704
1070 0.6065589 -0.4963931 0.14107883 0.5827174 0.8094899 -0.46270487 0.85593086 0.16917063 -1.1055315 0.59961486 0.37758088 -0.535163 -0.7460443 0.70766574 -1.6154792 -0.52150786 0.9175269 0.63866824 -0.6673027 -1.2710642
1367 -0.017001798 -0.2995705 -0.4150947 -1.6809328 -0.12749115 0.74241215 -0.83156943 0.79649514 -2.7465298 0.6017842 -0.13810359 0.7886233 0.4421115 0.801591 -0.59138817 -1.2747382 0.54182464 0.14805526 0.7479709 -1.4654341
96 -0.69989556 -1.1859996 -0.37910858 -0.3566915 2.411714 0.28387275 -0.6966316 1.3417087 -0.87346643 0.93960696 -1.0719626 1.8552314 0.36941496 1.5989206 -1.7675602 -0.4400122 -0.48014525 -0.4680069 1.1308043 0.20254986
1909 -1.3930498 1.2804766 0.37705785 -0.0769134 1.0095928 0.97653913 0.35280967 -1.0685368 -0.3361816 0.7754303 -1.1427602 0.138202 0.5201449 0.16498071 -1.3462282 -1.5822803 -0.39335167 0.112768166 1.629704 -0.89908296
2428 0.13376242 -0.0011146322 0.8536132 -0.31181657 1.2598119 1.1631465 0.10677399 -1.8032333 -0.41277495 0.92973685 -0.5306794 0.8785514 -2.381032 0.24073312 -0.6467135 0.27627775 -0.14540623 0.81628644 0.69450814 -0.5544944
2291 -0.25092766 0.5650614 0.8496406 -0.681144 1.8166372 0.79076725 0.37774253 0.047957953 0.46803877 1.4807762 -0.14712815 -0.01217003 -1.4534407 -0.07774955 -1.111553 -1.0333524 -0.5810158 -0.4924012 0.27516195 -0.23120245
799 -0.06563557 -0.47359452 0.96376145 0.81979483 0.92323923 1.7018116 -0.8674063 -1.9076488 -1.3622215 1.7696319 -0.39016855 0.42553413 -1.3256019 1.4948027 -1.1027699 0.48120147 0.5073099 0.6926922 0.31402788 -1.5545177
715 1.0625747 0.07317963 -0.031153286 0.14815876 0.75489414 1.4025089 0.55517906 -0.31030935 -0.6579143 0.09372096 0.75652236 0.7155992 -0.7850788 0.990021 -1.8497208 -0.97844595 0.36619875 0.75541896 -1.4663063 -0.60963136
2151 1.0535071 -0.47511157 -0.4550555 -2.1663187 0.94918215 0.86666596 0.5291965 -0.10910125 -0.25126874 0.43534753 -0.0076713623 -0.78649145 -0.75548756 2.0345807 0.038503624 0.23951969 1.3871454 0.52165073 1.5320424 -1.1379905
231 0.6098886 0.6102052 -1.5287911 -1.0415506 1.3637397 -0.09047727 0.5583889 -0.36217508 -0.74617153 0.5701354 0.20326392 -0.0010558278 0.4354733 -0.15754157 -0.7958272 -1.2044399 0.19997093 -0.45443875 1.0885351 0.81029975
866 -1.246521 -0.28666618 2.0062256 -1.2374123 4.197782 -0.11849966 -0.21440843 0.5729841 -0.4976073 2.0539243 0.32773367 -1.6722366 -0.705525 1.3237422 0.51439166 -1.0187638 1.1734232 2.0752733 0.75739604 -1.5204198
935 0.23590815 0.5637191 -1.4960945 -0.36542994 0.74074924 -0.2860582 0.8573469 -0.14912622 -1.7639133 -0.35965902 0.48136085 0.7427952 -0.41195107 -0.10440897 -0.92792124 -0.3736652 1.3649348 0.90738016 -1.2629535 -0.3703341
1278 0.89223945 0.49458337 -0.65851665 -0.41938427 0.8092031 -0.644697 0.34919527 1.0582705 -1.3289748 0.3739176 0.47021973 0.6125308 -1.8669271 0.5513956 -0.35979944 -0.7814081 0.99955255 -0.9303549 -0.6540304 -0.2568074
2607 -0.09988078 0.4094577 -1.0968541 -0.36100206 2.1812046 0.1291506 0.84188026 1.7261091 -2.125118 -0.24355425 0.24449341 0.2615024 0.6922714 -0.10827054 -0.4378905 0.78456557 1.0158122 -0.7257308 1.836065 -1.1808182
803 -1.1970998 1.5386558 -1.7592925 0.94841194 2.2185936 1.2465806 -1.3710077 0.116956815 -0.41613543 -0.07887062 -0.9753386 -1.7477052 -0.90009695 2.7989247 -3.493418 -0.09254191 0.35708937 -0.27796096 1.6967164 -4.373136
540 -0.29021895 1.6982932 0.95532435 0.08196007 1.9307009 -0.10805026 0.2928862 -0.28737804 -1.5193453 -0.5011649 -0.117708266 1.3038328 -1.7632617 0.66834265 -0.6857526 0.18153454 0.12224973 2.556746 1.1946083 -0.41200414
1916 -0.3460191 2.1468604 1.1496199 0.988007 2.9441354 2.356582 2.1727753 -0.6785235 -2.4152818 1.5756828 -0.08164549 1.2631186 -0.17397527 2.8875732 -2.0811262 1.8620876 1.3872285 -0.6762879 -0.4748318 -0.7557001
2410 0.49492148 -0.086246856 -0.5688226 -0.4051392 -0.112464696 0.28406668 0.2384243 -0.32688037 0.23979414 1.2730786 -0.40619507 1.0289506 -0.7038606 -1.2488983 -1.3135396 -0.5755537 0.6700378 0.3872486 0.36492783 -0.9424808
2653 -1.0605266 0.09410623 -3.3372228 2.4276648 2.214959 1.4757564 1.675845 0.2943147 -0.13231862 0.7708762 -1.0313417 0.89517987 -0.112612106 2.3693388 -3.930273 0.35645694 0.91329926 0.73354524 1.5181885 -1.9631143
1286 0.3863597 -0.002213637 -0.18507884 0.2340564 0.6158133 -0.28047898 -0.16931728 1.4110308 -0.89043546 0.38755023 0.87602293 -0.042113084 -0.4149648 0.91751194 -1.2249621 0.44578043 -0.026796436 1.6390376 2.0640075 -1.1851314
490 -0.76062584 1.1548023 -1.6236928 -2.2505405 0.7928918 0.14982824 -0.12802568 1.3423846 -0.92637753 -0.3885904 -0.46427193 0.43162593 -0.19856058 0.47377723 -0.97432035 0.3747534 0.057484955 -1.1590728 0.24314307 -1.4677875
834 1.5943142 0.15749264 -0.70357186 0.18567358 2.209515 0.86082906 0.32885566 -0.6939196 -0.1737766 -0.100690715 0.57544386 0.5727339 -1.6905702 1.0571649 -2.6133742 -1.279661 0.39964464 0.8067751 -1.8959557 -0.27674282
1293 -2.3013756 1.4329221 0.6226666 -0.1715075 2.4488645 0.27345785 0.9604385 1.6724375 -0.8760862 0.32507786 -1.6348653 -0.14102085 -1.3434304 0.92976093 -1.2834262 -1.1771885 -0.7602725 0.49533954 -0.92883104 -0.040122177
893 -0.110301726 -0.8841272 0.95902616 -0.314063 2.5990105 1.1826761 0.18974377 -0.057276424 -2.0544035 -0.78050613 -1.1855003 1.5965201 0.11816461 1.892839 -1.5562352 -0.11538407 -0.050343137 -0.54417515 0.7729756 0.091016605
813 -0.57078433 -0.050459184 -1.5564781 -1.1171623 2.7225714 0.87646925 1.792687 0.27719864 1.0517508 0.6158937 -0.37972823 0.32519364 -1.0494571 -0.15897457 -1.0879259 1.3215284 2.017359 -0.7066168 1.491528 -1.5119306
614 2.4382632 0.6047553 -1.5982387 -1.2167422 0.74990165 -0.31574258 1.062923 -0.06611367 -1.617694 0.8640449 -1.1142405 -0.3344046 -0.99349964 1.291805 -0.8008221 -0.2855293 0.6861301 1.2143692 0.6816412 0.48534122
2364 -0.22157027 0.5376489 -0.9210384 -1.1618912 0.6666298 0.034196418 0.92397815 0.16904715 -1.2600193 -0.6580075 0.8966135 -0.34625402 -0.084784746 0.66618323 -1.9632784 -0.46097785 0.2680097 0.6055843 -0.90115726 -0.84042567
1 1.7224799 0.59809124 -1.2126181 -0.33108428 0.9552572 1.1072781 0.16698581 -0.20741065 -1.6984463 -0.2453376 -1.4284838 -0.857539 -1.0277127 1.3313986 -0.6138334 -0.4243926 0.36282155 2.006393 0.7129759 0.31920236
2650 -0.90866476 1.2070692 -1.1116589 -1.4726403 3.7787333 -1.6423448 0.16471106 -1.1394223 -1.8708037 -0.18808138 -1.2306118 0.22259493 0.11464624 2.270303 -1.6261693 1.5559835 0.5352557 -0.39054492 0.74172103 -1.0616505
421 -0.15868601 -0.088318184 -0.6775911 -1.8467574 1.9982451 0.60630643 -1.1112715 0.9779782 -1.4928097 -0.8899505 -0.26995167 2.1092265 -0.4328073 1.7138902 -1.2537602 -1.4050491 -0.7333856 -1.5037148 1.4981986 -1.4655535
366 -2.0156875 0.20528522 -1.8946663 -0.2722773 1.5051674 -1.1315192 0.7786607 -0.29462057 -1.1780008 0.9382822 -2.298144 1.3403547 -0.6906124 3.3480697 -2.6050913 0.8615515 1.0065094 1.649664 1.9073037 -2.2043996
2584 0.09654687 1.3529541 0.826476 -0.49885792 0.77765846 1.1827713 0.06193957 -0.35029808 -0.45598432 0.5385833 -1.1036522 0.2537677 -1.4648716 0.3894062 -1.175559 -0.79162395 -0.6474461 0.8822842 0.4531492 0.66894114
2167 -0.9410645 0.7316874 -0.8504887 -0.5376214 1.9335836 0.98110473 -0.43150517 0.46504864 -0.40987706 1.3997777 -1.134591 1.1502279 1.6825866 1.2340573 -0.60833997 0.2332781 -0.050674185 -0.050869513 1.1634091 -1.1434064
481 -1.7705158 -0.24091895 -1.258885 -1.0271449 1.3168693 2.2041478 0.38495687 0.21654949 -1.2750751 -1.0868688 -0.6932213 -0.25074944 -0.45918 0.7786343 -1.3317753 0.029359488 -0.5397809 0.20469159 0.34127492 -0.4320408
63 0.6805476 -0.21876281 0.1378812 -0.2860398 1.4155722 1.8809347 -0.31045845 1.1634723 -0.30231404 1.116793 -1.9152098 0.03576408 0.8248768 0.41866156 -0.4984292 -1.3136537 1.1676263 1.8226198 0.45848992 -0.5594421
1323 -0.44546708 0.5115054 0.2879208 -0.5437773 1.6078777 0.34869218 -0.15983659 -0.50799876 -0.37617454 1.5130057 -1.0891045 -1.1239042 -1.2978169 0.20054458 -0.49133462 0.52837884 -0.5706186 0.4838324 -0.49490955 -0.91378844
578 0.27697998 -0.38582194 -1.08179 0.74421 1.9971216 0.19084077 -0.8600296 -0.14931649 -0.30262685 0.2972201 -1.493432 -0.67634153 0.81687564 0.5514019 -0.2043937 -1.0551203 0.6134931 0.46846592 1.370732 -0.48402232
408 0.4955515 0.8344152 -1.3486547 0.83529544 1.1888107 0.9310522 0.33737826 1.348603 -1.5836372 -0.1707239 0.6126279 -0.20544675 0.75687116 0.23038143 -0.9800659 0.6792762 -0.091106236 1.353384 1.1555352 -1.4943198
522 -0.8627148 1.0823174 -0.27263233 0.39092278 1.3654555 1.4682248 -0.43796992 -0.34826875 0.6360021 1.5737838 0.13021877 -0.57593536 -1.4634563 -0.8105037 -0.7090247 -0.49382854 0.6444542 -0.35032132 0.8851099 -1.2461878
1141 0.22676727 0.7334084 0.75804186 -0.70356965 1.2775232 -0.39942744 0.91701037 -0.81253093 -0.48626232 0.21394885 1.3809847 0.01584033 -1.2892027 -0.19485971 -1.1468989 -0.22416358 0.9343759 1.2261581 0.49416068 -0.7359678
789 0.8087999 0.31476322 -0.0738563 0.35343492 0.9711997 2.0323153 -0.6408388 0.50394154 -0.25464842 1.1399155 -1.1211157 0.16534911 0.8539199 1.0271093 -0.39655086 -1.219003 2.236786 1.3248986 0.8978306 -0.96846855
732 0.51357144 -0.45217347 -1.4914615 -0.8932963 0.6051969 0.6179531 0.27286384 0.706153 -1.2894285 0.40884048 -1.1888641 -1.1355036 -0.19453931 0.21442999 -1.039894 1.0806512 2.7091753 -0.61764556 1.216272 -1.3515623
2343 -0.6295052 1.2275459 -0.13153476 -0.42482156 1.3663821 0.07184233 0.37950382 -0.2599091 -1.5822654 0.5727085 -0.22903858 -1.3615057 -0.8411984 -0.29190677 -0.23335311 -0.9813184 -0.3872229 0.9107473 0.5201573 -0.4064822
1614 -0.05090391 -0.82484555 -0.25591025 -0.39562514 2.8229716 0.82331574 0.9655566 2.0341287 -1.0396045 1.313983 -0.27092546 2.1071696 0.19480833 3.2363784 -2.3067503 1.0018096 1.2977915 -0.046133947 1.6891023 0.99060565
2141 0.8408507 0.9500387 -0.049537957 0.5322493 0.47823852 1.1040334 -0.52511483 0.02919714 -0.6332911 1.4401796 -1.1397071 0.09312936 0.22670527 2.2176306 -0.5580225 -1.4430696 0.7840497 1.3919553 0.7464443 -0.24189124
1288 0.15240894 -0.9143583 -0.49350068 0.23438306 0.15233773 1.7995616 -0.3268377 0.46030378 -0.9061802 0.17052387 -1.02773 0.5472471 0.5826123 0.7957412 -0.79215074 -0.96935105 1.3239857 1.1195518 1.6076003 -0.6913757
767 1.1135826 -0.8966213 -0.38162386 -1.0855716 1.3191454 0.81832534 -0.5127881 0.15461986 -1.6592625 0.87840253 -0.96923614 -1.1044172 0.29477075 -0.11346458 -0.32528892 -0.107620366 -0.1976539 0.29983926 0.17849371 -1.264853
1996 -1.2661219 3.1539488 -1.7759492 0.6068963 2.0469577 1.0560936 -0.070355274 -0.7796627 -0.99428827 1.1097457 -1.2879009 1.6134949 0.030723259 2.1632586 -1.1083308 1.661647 1.015623 0.73611253 0.42133346 -1.447089
1162 0.14650244 -0.46575564 -0.72085035 -0.29427832 0.6287545 0.008420653 -0.5779457 1.1712434 -0.7926882 0.44827 -0.32123408 0.32329795 -1.5259682 0.06872345 -0.7785518 0.9941358 -0.2698947 1.1983156 1.0327874 -0.26994568
2599 -0.06767114 1.0465052 -1.3602357 0.11666618 0.4663328 -0.76853806 0.8795919 0.26108125 -1.2316917 -0.025554454 0.2511722 -0.10266609 -1.6833467 0.99566734 -1.8002336 -0.8466186 2.9672105 0.012675437 -0.2800685 -0.783576
903 0.70079565 -0.042649306 0.32654536 -0.44385687 2.0128703 -0.092351176 0.7772305 -0.57507175 0.0749129 0.32636565 1.4059193 0.042839237 -1.2056391 -0.5169145 -0.97080827 -0.4279179 0.39410305 0.99511945 -0.04645819 -0.9302519
1465 1.164737 1.2695249 -1.6415344 1.3196036 1.2605431 2.0478604 -0.64763117 1.3185378 -1.0974371 0.58745974 0.92191535 0.8277537 -0.06362623 0.10594343 -1.5766757 0.38183263 0.90783083 -0.33617255 0.37748146 -0.6754424
1063 1.333242 1.0691934 -1.5974479 2.131337 2.130624 1.9731867 -0.59324884 2.2955902 -0.62679523 1.3998066 -0.5870355 0.91946137 -0.35902405 0.6261856 -1.2667325 1.1876458 2.5198789 -0.49111524 0.3625749 -0.07353568
344 1.2039782 -0.057259053 -0.5944517 0.40865868 1.1261419 0.35928896 0.22714353 -0.34038997 -1.0329639 -0.11855553 0.8200081 -0.1977762 0.16620065 -0.17167799 -2.0382175 -1.5789448 0.59068173 -0.07956383 -0.5169426 -0.26100004
1284 0.65953875 0.18535776 -1.590556 -0.7616008 1.0323967 0.011141409 0.21250635 -0.20337369 -0.9177806 0.64215267 0.1903676 -0.1267167 0.22873193 -0.24514113 -1.110915 -1.0878632 -0.03392606 -0.84045064 0.6825224 0.5629789
10 0.8144089 -1.5222688 -0.77763534 0.6456343 2.4387655 1.0710667 -0.23449044 -0.18175963 -0.15606433 1.1987836 -1.1334684 -0.3979933 -2.4068327 0.97275996 -1.5631585 1.4570394 0.46551582 0.73917794 0.15324827 0.13990891
1537 -0.21325159 -0.42522976 0.30586728 -0.33314568 0.31014937 0.5651399 1.3300855 1.6156785 -0.66180325 -0.42477876 0.74594605 1.0700113 -1.2370049 -0.21674931 -1.6144737 -0.77832925 1.2568709 0.34641352 0.16025244 -0.4167492
1459 -1.0068681 -0.10153767 -1.1190166 0.07585303 3.4444647 1.0909979 1.8427951 -0.47373307 -0.7054773 1.6459929 1.0651994 -0.77519023 -0.41715673 3.3244846 -2.1248527 2.072485 0.71383315 -1.3083764 1.3851452 -3.7841785
2240 0.30836296 -0.36395717 -0.6866052 -1.6844498 -0.20381305 1.0719851 -0.8465438 0.19440603 -2.9198341 0.7685261 -0.40980366 0.20343764 0.42275292 0.41176432 -0.9488632 -1.7645617 0.6700944 -0.013905362 0.85274917 -1.2528212
209 -0.4736147 0.82330304 0.31992286 -0.5061051 0.79795396 0.045448504 0.13439047 -1.1452509 -1.7050812 0.84715325 -0.13391374 -1.3724648 -0.9962581 0.44778398 -0.22982426 -0.5413908 0.34731737 -0.18711215 1.0817556 -0.5216259
300 2.2078822 1.6137433 -0.9901678 1.251821 2.515906 0.2002546 -0.9203877 -1.5560331 -1.9407897 0.33727303 -2.3910794 0.11266441 -0.21450356 0.82286084 -1.4630152 0.89958805 0.5652264 1.1779186 1.5902343 0.32576644
2041 1.8674095 -0.55370384 -0.054203473 0.07577362 1.1845247 0.75951326 -1.2130896 -0.06722853 -1.0579056 0.31120116 -0.32822296 -0.04233777 -1.3581477 0.48192823 -0.8409053 0.357792 0.68944526 0.21846056 0.90275276 0.51764554
593 0.18123119 0.32074353 -0.481975 -0.54329836 2.338225 1.0704206 0.2556591 0.3214497 -1.1896657 0.74846655 -0.6109307 0.53642976 -0.7081674 1.0493022 -1.6639531 -0.35687533 0.8559904 0.5016124 0.3792908 -1.0479804
1859 -2.347898 -0.7018492 0.015590878 1.7724986 3.5058792 0.9775168 1.6411852 0.7465393 -2.150629 -0.7190364 -0.1295293 -0.13824144 -1.3454115 2.6864989 -2.648648 0.21239847 0.69209915 -0.9925945 2.5449357 -2.1656034
71 -0.7547872 1.3066328 -0.97210974 0.44034827 1.4540981 0.627919 -0.24832015 1.0049901 -1.3610023 1.6692176 -0.47477195 0.7274647 -1.2086562 0.49035594 0.21849167 -0.14901523 -0.5294749 -0.21221018 0.056133024 0.57989174
1861 -0.15419325 0.31085163 0.24300691 -1.1709977 1.0689367 0.6691779 -0.93148506 -0.16301112 -1.1210319 1.0972595 -0.15403329 -0.16547717 -0.3711803 -0.70106655 0.25628164 -1.6585112 0.81179863 -0.27769822 1.2758158 -0.18266302
1637 0.1752352 1.7288138 0.15028834 0.03016715 1.6717156 0.71261007 1.1088512 -0.52880913 -0.71703905 0.64875543 -1.2782509 -0.451562 -1.0502198 0.60194963 -0.038289063 -0.86214584 -0.82829905 0.16741341 2.276922 -2.0401776
1008 0.246217 0.7721877 -0.5781699 -0.77970225 1.7190802 0.10868146 0.51842815 -0.60630727 0.59306556 1.4324502 -0.41378066 -0.032015916 -2.079773 0.33740565 -1.4270959 0.33186597 -0.5198869 -0.9481241 0.2355409 -0.22968067
2071 -3.1943412 0.924712 -1.3787183 -0.82175064 3.4528348 0.5773914 1.1442488 -1.0480416 -1.3445528 -1.754622 -2.613641 -0.49453315 -0.4199246 3.0595489 -1.5003552 -0.47877726 2.553456 0.11612952 0.99683917 -2.0503905
2092 0.15034059 0.49042076 0.8950497 -0.42678976 2.442146 0.44467786 -0.078493394 -0.3722928 0.5243278 1.8851231 -0.23782909 -0.18196547 -0.88506305 -1.0495125 -1.1005329 -0.59015495 -0.035363667 0.38697314 0.19690584 -0.33892
273 0.19271155 0.5810287 -0.70038867 -0.771787 2.3609045 1.1003506 0.24697936 0.27053618 -1.3762594 1.0544733 -0.46633446 0.45427826 -1.1228677 0.7493623 -1.5896829 -0.4814059 1.0377091 0.42395172 0.64296967 -1.1209605
324 -0.5636119 0.35950074 0.81910723 -0.4594945 1.659132 -0.4232377 0.17149407 -0.04066041 -0.73471886 2.174835 -0.6920768 -0.6743632 -1.409571 0.5829629 -0.11806153 0.68928784 0.28338623 0.7166527 -0.5767491 -0.988144
347 0.8410305 -0.68511087 -1.1306846 -0.57756454 0.29317632 0.021719156 0.25256604 0.8022534 -1.4549452 1.0689692 1.4181725 -0.55182266 -0.14994244 1.1683825 -1.4566495 -0.9371964 0.80054843 -0.34891725 -0.078064024 -2.1307049
60 0.35066476 0.23757257 -0.9213108 -0.022577072 0.36807147 1.7055366 0.8032447 0.633978 -2.2054734 0.26466998 -1.0154866 -0.6681684 -0.10840723 2.2589114 -1.768501 1.40683 2.14839 -0.9937179 0.8583092 -1.0759972
909 -0.2702968 -1.0120127 -0.51489246 -0.5995317 2.654807 1.1696769 1.7592158 0.6154213 1.5856041 1.4552654 1.0746664 -0.29178378 -0.49091694 -0.030024154 -1.3110547 -0.72869503 1.7075199 -0.20578086 1.5472784 -0.9002594
528 -0.18026751 0.6835554 -1.1213944 -0.4989889 1.5024714 0.5743171 0.77249753 1.8629701 -0.9975337 -0.26673505 -0.59911215 -0.062361542 0.3525154 0.024129642 -0.15298086 0.43634975 1.066689 -1.1987258 0.84777457 -0.89978063
1140 0.7057818 0.11516945 0.39919743 0.79485446 0.88264227 -0.6744495 0.20750032 0.52412534 -0.67908907 -0.19588815 -0.21978764 -0.025851857 -0.55781335 0.6340975 -1.6969675 -0.9430718 1.3188237 -0.0890681 -0.44861528 -1.559905
818 -0.61899555 1.6929951 -0.17524874 0.8611623 2.7679405 -0.25718015 -0.042302646 0.30054206 -0.5666521 -0.17771181 -0.25399217 0.7330466 -0.93212396 0.39379784 0.4582138 -1.2419951 1.7543504 1.9803666 0.6999664 -1.5201879
1443 0.233095 -0.039942294 -0.5096869 -0.5515104 2.2679284 1.1767126 1.1598275 0.29553 1.2640104 0.8471248 0.2692532 -0.635625 -1.7109777 0.2854985 -0.22597656 -0.51451916 -0.27530932 0.37169254 0.85572016 -1.098883
340 -1.7095855 1.5433878 -0.4351344 0.44080597 3.2324548 1.4625487 0.14363526 0.19640273 -0.1845082 1.4347267 -1.1872463 1.2127689 1.0322022 1.3123405 -0.9124037 1.7601887 0.7995416 0.5150723 0.14266291 -1.940278
1126 -0.6789742 2.0185494 0.08700708 0.9683938 3.1898959 -0.40820664 0.28931415 0.040743947 -0.55965513 0.10885212 -0.023105321 0.28635132 -0.67338735 0.5773138 0.2793133 -0.51538634 1.1878989 1.6022283 0.24426016 -0.8234701
2244 0.4634508 1.4281204 -0.23448971 -1.4553806 2.4228253 -0.3332078 1.6535832 -0.25150877 -1.977865 2.6875749 1.619553 -0.4045872 -1.4952443 1.3802809 -0.8225105 0.85516304 -0.8971974 0.14398403 1.7444059 -0.7903031
1250 0.082291536 -0.53932106 -0.3326513 0.034201927 0.7524485 -1.0167019 1.1207879 0.9971074 -1.5741452 -0.08326156 0.22236738 0.64952654 -1.3416629 0.3530656 -2.3121083 0.09501981 0.5984775 1.4133896 -0.34744766 -0.85204947
1735 0.51995033 -0.8283029 -0.28970096 0.18569945 0.7914139 -0.98593634 -0.11237996 0.87028503 -0.99464625 0.16222474 0.553905 -0.046747144 -0.98908406 0.3268471 -1.5170858 0.16359285 0.5331169 0.8961509 0.0972112 -0.6914973
820 -0.21880126 1.65491 0.08755869 0.520454 1.9774516 0.13615522 0.92791134 -0.038195353 -0.68819475 -0.81763154 -0.28874376 0.69926685 -1.5486261 0.4126323 0.51078224 -1.522984 1.688769 1.8192029 0.9097807 -1.6648437
429 -0.77115667 0.2025886 -0.40049887 -1.9052694 4.2455606 -1.6762079 0.40661156 -1.3558742 -1.2716663 0.123846814 -2.4643934 1.2307228 -0.43226382 1.9288749 -1.0186436 0.24060613 0.6256751 -0.71168053 0.04345198 -1.8435405
2698 -0.042855967 1.9157045 -1.2636619 1.2729533 3.857571 0.99028736 -0.8323013 -0.90017694 -2.0707846 -0.056472152 -0.586372 -0.5649012 0.34839883 3.1640785 -3.517878 1.5778868 0.96169525 0.0930356 -0.5406275 0.18569158
1612 0.23450534 -0.6232091 0.14472462 -0.06530387 0.5251194 0.1534591 0.4513396 -0.016048176 -1.4120333 0.88459367 -0.01664026 -0.10339573 -0.82631844 0.62820286 -1.9837546 -1.3333879 0.44006738 0.3481384 -1.5554484 -1.2315438
1538 -1.1487179 0.7443572 0.15122423 0.061215986 3.9701931 0.02648237 0.011027391 0.69677967 -0.066516645 -0.5964212 0.6771745 1.4837776 -1.7044369 0.5439252 -1.0924935 -0.66219133 -0.6860026 1.4267448 -0.2755811 -1.4694384
1489 1.7191175 0.69531584 -1.8266166 -0.066848606 0.5521356 0.82658464 0.73837954 0.050488222 -0.82937366 -0.07439077 -0.43851733 0.7459646 0.12068866 -0.37937227 -0.7600205 0.23873903 -0.2273528 -0.06859364 0.49406445 -1.3465708
56 -0.2857354 -0.87484586 -0.9081386 -0.005021867 1.4222286 -0.17773545 -0.6047436 -0.2745294 -0.91655254 -0.26822826 0.37061143 0.8477216 -0.9029896 -0.1680542 -1.3797543 -0.8279124 1.2579837 0.58045137 -1.4260164 -1.0341871
2188 1.7756213 1.7086132 -1.8321712 0.107441984 2.5797691 1.425296 0.18579204 -0.7390236 -0.14533867 -0.51588404 0.10869056 2.438346 -0.29971918 1.0743204 -1.9715981 1.5182195 -0.14301427 -0.14437781 0.5202974 -2.212808
502 0.2923726 -0.05073019 -0.24888915 0.2251934 1.7537285 -0.89608765 -0.1318307 0.29529867 0.04409337 2.5139365 -0.95245254 2.0587282 -0.37346673 -0.04488427 -3.071085 -0.09368962 1.6446011 1.0935568 -1.6113834 -1.6618634
1533 1.0648638 -1.086364 0.28257513 -0.46067414 1.6718024 1.0321862 -0.68765634 -0.14775501 0.52098113 1.0523539 -2.5080154 -0.0012630228 -0.44589293 0.6013129 -0.33647603 -1.6955277 0.59408766 -0.1163078 0.7922721 -0.8529432
576 0.54899806 0.7470917 -0.479072 -1.4444091 0.802457 1.0813645 -0.768185 0.005796208 0.2454338 0.57479274 -0.10383186 0.15236908 -0.97349757 -0.32142004 -0.339417 -1.1847119 1.4511685 0.94039893 0.10227498 0.049052272
1365 0.8289888 0.43497336 -0.10099224 0.8493682 1.0020185 1.3912153 -0.9291776 -1.0500047 -0.836429 1.1578548 0.13932602 -0.077716835 -1.7369488 0.1101342 -1.9280378 1.6916796 0.95215034 1.0006137 1.122579 -0.48963752
1540 0.050608724 0.20118806 0.3060333 -0.12960672 1.3685777 -0.0400269 -0.26353198 -0.3042785 0.58994895 1.7242246 -0.7323322 -0.0688633 -0.6127749 -0.79547346 -0.99807155 -0.6318051 0.34997544 0.15336779 0.52402854 -0.22474921
1560 0.4725089 0.5730456 -0.34000552 -1.0447978 1.9117136 1.4131684 -2.025403 -0.63259083 -0.22648297 0.5075079 0.20899646 -0.48112687 0.09902518 -0.074995495 -0.16160342 -0.28893524 0.12867047 -0.03578745 0.13893135 -0.75668037
79 0.89552915 -0.70948386 -0.65463805 -1.0040166 1.4111216 0.5083561 -0.46157637 -0.16842166 -1.8612537 1.327085 -0.79959273 -0.7457072 0.47243714 -0.67514646 -0.33729047 -0.0485922 -0.18692835 0.70971876 0.14520425 -1.3594944
526 -0.65369487 -1.295503 -0.50930274 -1.1216022 1.5241506 0.13881448 -0.8449356 1.1337149 -1.0679586 1.7544327 -1.9566802 0.41465083 0.20435731 -0.2218728 -1.2666527 0.754921 0.0046729078 -0.43815762 1.1627095 -0.71903133
2331 0.44948375 1.0719533 -1.3923523 0.3545409 0.56286305 -0.6600019 1.358886 -0.30579194 -1.4497489 -0.5774903 0.36163408 -0.43866652 -1.6256684 0.7182774 -2.452495 -1.3103564 2.4894896 0.8355864 -0.39210227 -0.72970974
2381 -0.7255648 1.6989127 0.30830976 -0.29296634 1.4961954 0.431674 1.9254498 -0.05281948 -0.52571875 0.6365611 0.28087467 0.7828922 1.1384456 0.43499544 -0.8516977 -1.0501239 -0.32521367 0.66817075 1.5929323 -0.13517405
314 -0.949322 1.9049454 0.25483865 -1.1828818 2.692503 1.2434789 0.37699816 0.2612784 0.28064322 0.44247827 -0.052136667 0.5619263 -1.19289 -0.34498706 -1.4205487 -0.16734609 -1.5880523 2.784679 1.496941 -1.2523122
685 -0.29612923 -1.048611 -0.057883915 -0.27397358 1.0640185 0.15566003 -0.5307541 0.98580456 -0.946356 1.6710485 -1.2722354 0.26073998 0.07094746 -0.236261 -1.4133359 0.5203467 -0.07999934 -0.8565128 1.0019768 -0.2892636
415 0.40843883 -0.358304 -0.073889755 -0.69444346 1.9683329 0.5802757 1.0260156 -0.090739615 1.1803205 0.8882832 0.75001174 -0.25529444 -0.570098 -0.09758268 -0.36652365 -0.81134766 0.35387015 0.046174057 0.9710175 -1.283346
1261 1.1134934 0.75537676 -0.87824696 -0.37156832 1.9334944 1.2686968 0.2624744 -0.43623242 0.6411571 1.7641512 -1.1116594 -0.20635748 -1.1513937 0.1905608 -0.14673196 0.11005364 -0.03289598 -0.66443866 0.24351159 -0.27213615
144 0.9680543 -0.4452109 -0.9786564 -0.8605213 -0.020705506 -0.43138415 -0.24253955 0.50421274 -1.4973725 0.93660194 1.2206893 -0.0067510414 -0.034722112 0.8239316 -1.8540424 -0.6013067 0.7030536 -0.366251 1.0338138 -1.9561373
564 -0.26146722 0.7890766 0.5457172 -0.15891379 1.0383958 0.6339906 0.58770186 0.020593181 -0.3687049 0.9030654 1.2168332 -0.0418101 -0.63763285 0.9459468 -1.5129223 -0.44390264 0.6182189 0.12426664 -1.564204 -1.1283536
1316 -0.14154738 0.14330035 -0.94722044 -0.719628 0.2937748 0.5266184 0.56708354 0.42459205 -2.0071974 -0.111897394 -0.6484332 1.0969021 0.67922837 -0.09426071 -0.12099911 -0.673117 0.5213816 0.90123665 0.04941802 -0.6160708
2278 1.1248453 1.0740805 -0.49441904 -1.3297014 0.23080467 -1.2469429 0.38722923 0.83271945 -1.6550952 0.31017846 -0.7575611 0.7984111 -1.640785 0.5087263 -0.9256176 -0.4032075 1.084545 -0.22238933 -0.670446 -0.8838333
1239 0.30253115 -0.41738603 -0.17696434 -0.17847623 1.1233617 0.8171432 0.10488155 0.77088976 -0.66109353 1.6884636 -0.8980075 -0.5077701 -0.31123936 -0.10505402 -1.0365791 -0.06664312 -0.8094087 0.107790515 0.13578372 0.52004814
1011 0.165635 0.99762154 1.3179154 -0.91424716 2.0893931 0.55748 1.2843227 -0.5306327 -0.987148 1.0622842 -1.184134 -1.0575964 -1.0810269 0.34277362 -0.7145646 -0.28406432 -0.7750996 -0.5427584 1.0236778 -1.2595596
2079 0.4070392 -0.57406515 0.90451103 -1.6195171 1.0731376 1.4217786 0.060768124 0.4028637 -0.021614581 0.85193425 -0.98742217 0.23119578 0.41025203 0.13893487 -0.97451764 -0.64100873 1.8732289 2.2236118 0.007814799 -0.30812135
2136 -0.10843092 0.925827 1.064228 -0.6015249 0.65165985 1.4739213 -0.73979795 -0.6093449 -0.91178 0.5862367 -1.0569435 0.94960105 -1.4701802 -0.0120907705 -1.2635156 -1.1321607 -0.15985496 0.049251277 0.093887575 0.6483001
1130 -0.49902165 0.11409182 -0.9934757 -0.7970879 2.432118 0.8741137 1.4360186 0.9060882 0.69563854 0.5776316 0.24831262 -0.57801294 -0.48600796 -0.2461837 -1.6274129 0.86268497 2.1596627 -1.2181487 1.9122221 -1.3336799
847 0.5977222 1.1997517 0.3823244 0.20895629 1.0096415 0.20721814 -0.047269024 0.5752511 -0.94409806 0.79265845 1.2141727 0.7171968 -1.0122739 0.38022587 -1.3354657 0.21337938 1.4510753 -0.2982882 -1.3694184 -0.22581127
2659 0.7024213 0.7501063 0.14047973 -0.9922469 0.7067005 0.81857675 -1.6312633 -0.39395022 -0.23782599 0.16362403 -0.080395155 -0.62083095 -0.033849623 -0.6662481 -1.1544305 -0.84239024 0.5573779 -0.19642524 0.6852659 -0.29853025
1274 -0.11644722 -0.059962764 -0.5289851 0.66292465 0.920543 0.294021 0.87234503 -0.20396423 -1.5209472 1.293118 0.34675825 -0.13591148 -1.8524314 0.5488702 0.106136516 -1.1760312 0.3054553 0.4814299 0.6796746 0.540685
581 -1.4556142 1.487605 -0.2605773 0.25945944 2.2439213 -0.3294444 -0.35359862 0.27797166 0.038617466 -0.6113731 -0.30512223 1.8465228 -1.3566796 1.1337997 -0.30610755 -0.96588594 1.908471 1.3337766 0.7964263 -1.3899113
2587 0.2968967 1.3730202 0.9022444 -0.39922753 0.30313262 2.331715 0.970425 -0.24449272 -0.47267383 -0.15635397 0.49987516 -0.16134652 0.36356863 0.4877948 -1.2732147 -0.94748086 -0.25338623 0.065634035 1.2739506 -2.2951612
1677 0.3166616 -0.22126038 -0.62073946 -1.1278591 0.482541 1.2248131 -0.51651686 0.970619 -0.35281232 -0.44714075 0.4988666 0.43994159 -1.1522405 -0.12934627 -0.28487244 -0.49566886 0.9222119 -0.20426242 0.15979563 0.011286798
2292 -0.4213801 0.9264111 0.24744242 -0.87768704 1.720232 0.76438373 0.55830306 0.20627294 0.6671527 1.3977276 -0.2817573 0.039252143 -1.4738582 -0.051856708 -1.5310826 -0.60445875 -1.0558397 -0.19234556 0.24658082 0.01346285
356 -0.82322174 0.7502599 -0.11901209 -0.59378964 0.5178875 1.1487094 0.5637304 0.14327624 -1.8048458 0.6170186 0.19769636 -1.5298382 0.33290145 -0.08314356 -1.0763682 1.0532517 0.8461494 -0.1482436 0.6317704 -1.0129362
1045 -0.5114664 -0.42127147 -1.504275 -0.56825066 2.2400923 0.65264297 2.0924978 0.21763241 0.83959365 0.6983365 0.06319076 0.59683734 -1.0254637 -0.032638684 -1.0732077 0.7407292 1.9214019 -0.69419515 1.3363936 -1.7539899
2583 0.47005686 0.22563745 -0.40230867 0.93862826 -0.31932062 1.3502883 -0.34532416 0.97063774 -1.5472548 0.99869466 0.26743105 1.656953 -0.06561652 -0.18965591 -0.8781503 -0.04845197 0.35340804 1.2625841 0.73710525 -1.3007109
1438 0.9166353 -0.5303377 -0.47804374 -0.16484039 1.1320038 1.9351549 -0.08585235 1.0806501 -0.8477276 0.004324668 -0.9567769 0.4941828 0.36063698 0.7763056 0.34729317 -0.9397405 0.9290501 0.74637014 2.1488192 -0.76373285
159 -0.25410184 0.6012656 -0.710795 -1.8199846 3.9864316 -1.8265096 0.103297465 -0.98488116 -1.3509115 -0.08214932 -2.4107037 1.0387582 -0.6717622 1.8014421 -0.7627359 0.8283003 0.7289835 -0.41037 0.22495914 -1.8707497
1148 -0.06459007 0.59156793 -0.9632453 -0.069552206 1.5694114 0.3374654 -1.0396608 1.3750952 -0.5983555 0.98397505 -1.0330163 0.92112887 1.0156288 1.4580184 -1.2277043 -0.56856304 -0.5451624 -0.39046818 1.3449825 -0.18313965
2311 0.42964715 1.5286126 1.2724204 0.08386578 0.80452067 1.1146475 0.27089122 -0.3649176 -0.5184954 0.71478665 -0.26889104 0.6225329 -1.4641558 0.39508763 -0.4502351 -1.0430273 -0.37192127 1.1490593 1.1125122 -0.33029747
1955 1.3141716 -0.9994476 -0.3063004 -1.4440382 0.43807545 0.77413726 0.26340625 0.31580314 -0.14557393 0.72159034 -0.26599237 -0.68762255 -0.5851767 1.5828313 -0.53670007 0.65620995 1.3046303 0.77423036 1.2730483 -1.3693722
1255 1.0666376 0.8616221 -1.9838969 2.1108086 1.974958 2.0855029 -0.5885855 1.6524986 -1.2956611 0.6237596 0.3764391 0.45587733 -0.025957903 0.62207514 -1.1860055 0.79889756 2.0940146 -0.27005705 0.020438248 -0.062243834
980 0.9130763 -1.1485195 -0.94885224 -1.4226357 1.9458573 0.08977112 -0.48981574 0.1023034 -1.0542357 0.9465347 -0.830934 -1.161045 0.98361844 0.3429883 -0.5108749 0.60176134 1.0153931 -0.4277242 0.32359284 -1.2284031
560 0.39606184 1.1183876 0.08973191 -1.2061269 1.1619141 1.3408312 -0.879428 -0.16216646 0.006331048 0.86302567 -0.45787367 0.24417914 0.14050068 0.29072255 -0.42974314 -0.4847998 1.2714142 0.37907815 0.63612056 1.0119394
277 -1.8128577 1.4312495 -0.41652897 0.58574945 3.074205 1.8187666 -1.0234622 0.16047813 -0.15320952 0.624755 -0.6656059 0.81309 0.938079 1.4409658 -1.3051254 1.6142427 0.873812 0.9135689 0.6997873 -2.4224374
628 -0.9960142 0.35744795 0.5145828 -0.41560835 0.92490584 1.0477775 0.63387996 0.032502867 -1.7926759 1.2000865 -0.52823895 -1.7979021 -1.1253635 0.14774378 -0.55441934 0.5034574 0.36112106 -0.36458108 1.026138 -0.8371627
433 -0.11297369 0.03448745 -0.73066944 -1.6876049 4.5316567 -1.9594296 -0.35430416 -1.056306 -1.5861908 -0.15950654 -2.689016 1.7421242 -1.044112 1.4759886 -0.8111491 0.40862456 0.8398282 -0.39526984 -0.06672753 -1.440822
2216 0.78820026 0.6206602 -0.36945117 -1.25042 1.6300691 -0.15742007 -0.05308619 1.249174 1.1678066 1.0719795 0.22595169 -0.07837225 -1.1745387 0.59091896 -0.030843895 -1.071893 0.2243673 -0.724336 0.68741804 -1.5776892
744 -0.574477 -0.41157615 -0.56544036 -0.12205994 1.3319079 0.23095076 -0.048414297 0.41548175 -1.1642939 0.030600488 1.0401925 -0.84257656 -1.1746979 -0.13471799 -2.1319098 -1.0411403 0.84759504 0.81477386 -0.9543436 0.12818016
109 1.0754763 -0.3782816 -0.85768926 -0.45160928 1.127521 1.1042521 -0.17327513 0.36617595 -0.68626654 -0.6877712 -0.83977854 -0.66444844 0.9650693 0.7138289 -1.5154363 -0.68354124 1.0258194 0.9340327 1.6275588 0.17618227
684 -0.53333926 0.1440336 0.012697406 -0.015517277 1.0033323 0.20092434 -0.81262946 -0.8137915 -1.4502503 0.8344378 -0.34921432 -0.28072464 -0.809814 -0.46956754 -0.03127543 -1.1535794 0.36966258 -0.023750328 1.3772438 -0.12597871
1506 -1.2467009 -0.008923191 2.15492 -1.1011994 3.9603984 -0.11112738 -0.7334442 0.46854138 -0.69307595 1.9397228 0.423018 -2.1137571 -0.6980843 1.559695 0.44098088 -1.3736125 1.2339828 2.187044 0.7737665 -1.6724117
1620 -0.35538197 -0.8987213 -0.39555737 -0.23267479 3.0712 1.3090171 -0.002037999 2.8565917 -1.5707979 1.0737509 -0.4488228 2.3231113 0.19946165 2.7538185 -1.924415 0.5437234 1.1329583 0.15898976 1.7114115 1.1352041
1565 0.47242117 0.737039 -0.2835501 -1.4360623 0.8000307 1.1272918 1.2748015 -0.83602357 -1.743849 -0.8471287 0.04528772 -0.016057525 0.4929481 -0.03349367 -0.75045025 0.4305334 0.22455089 0.18206328 -0.08251139 -0.45284092
1598 -0.7605495 0.7037104 1.0597587 -0.4768729 3.7292976 0.10332128 -0.034129515 1.4074888 0.69299036 -0.8236748 0.17714134 0.4407168 -2.054901 0.9517874 -1.3557686 -0.30375975 0.3235193 0.86272824 0.71498287 -0.9518162
1579 0.26095647 1.095054 1.2994387 -0.26161146 1.9365326 0.60831 1.1052976 -0.6950649 -0.72035 1.5155712 -1.2026118 -1.1635447 -0.9481223 0.69898593 -1.0670737 0.030480944 -0.69370323 -0.39619476 0.51688087 -0.62167996
955 0.09009361 -0.44005495 -1.4156673 -0.27414808 1.3232529 1.462198 1.303152 -0.32775995 -0.5909247 -0.3931359 -0.6390193 -0.03979663 0.46837363 0.37273434 -0.5850552 -1.7761197 0.7119296 -0.23884384 2.1030552 -0.041660633
1048 -0.5082728 1.0555588 -0.101188734 -0.658999 3.8138547 -0.16379245 -0.29519448 0.9170002 0.27807572 -0.51073396 0.40242237 0.31287393 -0.2982877 0.6470639 -1.5227416 -0.28790274 -0.81539685 1.3199172 0.2491586 -0.2958242
745 -0.402323 0.13264295 -0.039025515 -0.034118824 1.4065851 -0.069016285 -0.011390835 0.12440247 -1.8938178 0.72159064 0.728504 -1.339505 -1.4079864 -0.21710607 -2.3713217 -1.0126065 1.2124274 0.3918888 -1.3154045 0.23199612
1061 0.53546983 -0.4933145 0.33310091 -0.31433254 1.5746088 -0.27853855 0.45475695 0.18174753 -1.1496552 -0.036538545 1.5069251 0.22963314 -0.872967 0.72867996 -1.0543311 -0.97703004 0.58788294 -0.38200584 -0.5071709 -0.32743344
2147 0.38466328 0.13826449 -0.45302776 0.6148897 0.5204519 0.36310583 -0.5535126 -0.2768688 -0.09691385 1.7350223 -0.47926688 0.50659364 -1.4652964 -0.33497086 -1.5541303 0.6469179 0.3826595 -0.21807528 0.8727974 -0.042557474
403 0.48402563 0.395471 -0.15875974 -0.56445533 1.0433959 0.14145783 0.6901152 1.0635804 -0.6956681 0.52174526 0.38115096 -0.48073864 -0.40418658 1.00762 -1.48279 0.50338095 0.85952044 0.33655226 -1.7172198 -0.35821706
2515 -1.0148597 1.0627393 0.28457066 -0.28490528 1.3989726 0.7543795 1.3245434 -0.9207142 -0.5437691 0.3689054 -0.47377464 0.3442326 0.7580411 0.44603065 -0.73441744 -1.5511304 -0.10724817 0.256158 1.5641248 -0.19907328
2679 -1.4552398 -0.7024091 -0.4352806 -1.1449547 3.807551 0.9690206 -0.08633453 0.22628339 -0.5348952 -1.9114037 -1.2115444 0.25713363 0.44942668 -0.22778285 -2.5778785 -0.4913641 0.93761027 -1.1535751 1.3352032 -3.3889332
1112 0.41588837 1.100816 -0.6093374 -0.43284616 0.43598518 0.62342155 -0.4704925 -0.27990976 -0.54812175 0.7934061 -0.8985314 -1.25258 -1.168577 1.4166437 -0.5648852 -1.1171665 -0.18510774 1.4013722 0.6147946 -0.012006545
1644 -0.15177569 1.1042298 -0.12673138 -0.92999196 0.94146764 -0.7129789 -0.4082449 -0.5397998 0.5867289 0.6847838 -0.6242021 -0.5886851 -0.24824078 0.5681922 -1.2848034 0.2116373 1.7937996 0.677248 0.29900074 0.104431
1929 -1.1686052 -0.43134046 -0.8379609 -1.0323092 1.0860655 2.2350528 -0.39333212 0.64070415 -1.2335435 -0.26833382 -0.3605562 -0.14226717 0.048514053 0.41489697 -0.3935275 -0.5350443 -0.3885242 0.30559894 0.17928539 -0.3939076
23 -0.41304535 0.33514407 -0.14798401 -0.77670676 0.70086825 0.17672616 -0.112615205 0.5974779 -0.6291578 0.7063216 1.1676257 0.13725369 0.5654792 0.6327358 -1.7705214 -0.9320898 0.91661483 0.16230458 -1.0851353 -0.68303084
1813 -0.43083033 0.8887584 -0.9391447 -0.7923448 0.16530193 0.5794274 0.0755754 0.18110384 -0.6115799 0.9561043 -1.3335018 -0.76486933 -2.1944401 -0.39947316 -1.092535 -0.58329076 0.14477952 1.554817 1.1089973 -0.6372124
901 0.10403497 1.3448967 0.34969473 0.007984797 1.3449429 -0.7064024 -0.1133014 0.9760362 -0.76575124 1.4744208 0.1416446 0.6022752 -0.9789011 -0.16125616 -0.26075733 -0.7097542 0.26230276 -0.39125985 -1.0647371 -0.6639564
118 0.90239507 -0.85226333 -0.9578062 -0.69259256 2.1106977 0.7296306 -1.0760609 2.2271676 -2.1496487 0.45433077 -1.5318353 0.9217571 -0.45250994 1.9035217 0.02268395 -0.90852404 -0.5407386 0.15693834 -0.3337557 -0.022450602
832 0.20137452 0.8341805 -0.09360283 -1.7579286 2.9168081 0.040938713 1.366907 -0.09499119 -1.5907302 1.5501549 2.1062505 0.17264867 -1.7845511 0.8052393 -0.67527485 0.5794684 -1.5215118 0.2378876 1.6464243 -0.16571887
2426 0.5257564 0.26490656 0.5105886 0.010750295 0.8644913 1.869547 -0.55415124 0.898952 -0.5042855 1.2097118 -1.2855875 -0.054906625 0.48790133 0.43110466 -0.3389022 -1.1138144 1.4528968 1.2727487 0.30029956 -0.44784373
1720 0.10647501 0.28495136 -0.7429111 -0.77846426 0.48816118 -0.20494579 0.83360285 -0.809819 -1.8202393 -0.5319323 0.46593314 0.30418172 -0.46253055 1.1787773 -2.6001925 -0.55491424 0.22326729 0.45934322 -0.9247991 -0.260843
